tree
version=v3
num_class=1
num_tree_per_iteration=1
label_index=0
max_feature_idx=1613
objective=regression
feature_names=one_count_2 ABC ABCGG nAcid nBase SpAbs_A SpMax_A SpDiam_A SpAD_A SpMAD_A LogEE_A VE1_A VE2_A VE3_A VR1_A VR2_A VR3_A nAromAtom nAromBond nAtom nHeavyAtom nSpiro nBridgehead nHetero nH nB nC nN nO nS nP nF nCl nBr nI nX ATS0dv ATS1dv ATS2dv ATS3dv ATS4dv ATS5dv ATS6dv ATS7dv ATS8dv ATS0d ATS1d ATS2d ATS3d ATS4d ATS5d ATS6d ATS7d ATS8d ATS0s ATS1s ATS2s ATS3s ATS4s ATS5s ATS6s ATS7s ATS8s ATS0Z ATS1Z ATS2Z ATS3Z ATS4Z ATS5Z ATS6Z ATS7Z ATS8Z ATS0m ATS1m ATS2m ATS3m ATS4m ATS5m ATS6m ATS7m ATS8m ATS0v ATS1v ATS2v ATS3v ATS4v ATS5v ATS6v ATS7v ATS8v ATS0se ATS1se ATS2se ATS3se ATS4se ATS5se ATS6se ATS7se ATS8se ATS0pe ATS1pe ATS2pe ATS3pe ATS4pe ATS5pe ATS6pe ATS7pe ATS8pe ATS0are ATS1are ATS2are ATS3are ATS4are ATS5are ATS6are ATS7are ATS8are ATS0p ATS1p ATS2p ATS3p ATS4p ATS5p ATS6p ATS7p ATS8p ATS0i ATS1i ATS2i ATS3i ATS4i ATS5i ATS6i ATS7i ATS8i AATS0dv AATS1dv AATS2dv AATS3dv AATS4dv AATS5dv AATS6dv AATS7dv AATS8dv AATS0d AATS1d AATS2d AATS3d AATS4d AATS5d AATS6d AATS7d AATS8d AATS0s AATS1s AATS2s AATS3s AATS4s AATS5s AATS6s AATS7s AATS8s AATS0Z AATS1Z AATS2Z AATS3Z AATS4Z AATS5Z AATS6Z AATS7Z AATS8Z AATS0m AATS1m AATS2m AATS3m AATS4m AATS5m AATS6m AATS7m AATS8m AATS0v AATS1v AATS2v AATS3v AATS4v AATS5v AATS6v AATS7v AATS8v AATS0se AATS1se AATS2se AATS3se AATS4se AATS5se AATS6se AATS7se AATS8se AATS0pe AATS1pe AATS2pe AATS3pe AATS4pe AATS5pe AATS6pe AATS7pe AATS8pe AATS0are AATS1are AATS2are AATS3are AATS4are AATS5are AATS6are AATS7are AATS8are AATS0p AATS1p AATS2p AATS3p AATS4p AATS5p AATS6p AATS7p AATS8p AATS0i AATS1i AATS2i AATS3i AATS4i AATS5i AATS6i AATS7i AATS8i ATSC0c ATSC1c ATSC2c ATSC3c ATSC4c ATSC5c ATSC6c ATSC7c ATSC8c ATSC0dv ATSC1dv ATSC2dv ATSC3dv ATSC4dv ATSC5dv ATSC6dv ATSC7dv ATSC8dv ATSC0d ATSC1d ATSC2d ATSC3d ATSC4d ATSC5d ATSC6d ATSC7d ATSC8d ATSC0s ATSC1s ATSC2s ATSC3s ATSC4s ATSC5s ATSC6s ATSC7s ATSC8s ATSC0Z ATSC1Z ATSC2Z ATSC3Z ATSC4Z ATSC5Z ATSC6Z ATSC7Z ATSC8Z ATSC0m ATSC1m ATSC2m ATSC3m ATSC4m ATSC5m ATSC6m ATSC7m ATSC8m ATSC0v ATSC1v ATSC2v ATSC3v ATSC4v ATSC5v ATSC6v ATSC7v ATSC8v ATSC0se ATSC1se ATSC2se ATSC3se ATSC4se ATSC5se ATSC6se ATSC7se ATSC8se ATSC0pe ATSC1pe ATSC2pe ATSC3pe ATSC4pe ATSC5pe ATSC6pe ATSC7pe ATSC8pe ATSC0are ATSC1are ATSC2are ATSC3are ATSC4are ATSC5are ATSC6are ATSC7are ATSC8are ATSC0p ATSC1p ATSC2p ATSC3p ATSC4p ATSC5p ATSC6p ATSC7p ATSC8p ATSC0i ATSC1i ATSC2i ATSC3i ATSC4i ATSC5i ATSC6i ATSC7i ATSC8i AATSC0c AATSC1c AATSC2c AATSC3c AATSC4c AATSC5c AATSC6c AATSC7c AATSC8c AATSC0dv AATSC1dv AATSC2dv AATSC3dv AATSC4dv AATSC5dv AATSC6dv AATSC7dv AATSC8dv AATSC0d AATSC1d AATSC2d AATSC3d AATSC4d AATSC5d AATSC6d AATSC7d AATSC8d AATSC0s AATSC1s AATSC2s AATSC3s AATSC4s AATSC5s AATSC6s AATSC7s AATSC8s AATSC0Z AATSC1Z AATSC2Z AATSC3Z AATSC4Z AATSC5Z AATSC6Z AATSC7Z AATSC8Z AATSC0m AATSC1m AATSC2m AATSC3m AATSC4m AATSC5m AATSC6m AATSC7m AATSC8m AATSC0v AATSC1v AATSC2v AATSC3v AATSC4v AATSC5v AATSC6v AATSC7v AATSC8v AATSC0se AATSC1se AATSC2se AATSC3se AATSC4se AATSC5se AATSC6se AATSC7se AATSC8se AATSC0pe AATSC1pe AATSC2pe AATSC3pe AATSC4pe AATSC5pe AATSC6pe AATSC7pe AATSC8pe AATSC0are AATSC1are AATSC2are AATSC3are AATSC4are AATSC5are AATSC6are AATSC7are AATSC8are AATSC0p AATSC1p AATSC2p AATSC3p AATSC4p AATSC5p AATSC6p AATSC7p AATSC8p AATSC0i AATSC1i AATSC2i AATSC3i AATSC4i AATSC5i AATSC6i AATSC7i AATSC8i MATS1c MATS2c MATS3c MATS4c MATS5c MATS6c MATS7c MATS8c MATS1dv MATS2dv MATS3dv MATS4dv MATS5dv MATS6dv MATS7dv MATS8dv MATS1d MATS2d MATS3d MATS4d MATS5d MATS6d MATS7d MATS8d MATS1s MATS2s MATS3s MATS4s MATS5s MATS6s MATS7s MATS8s MATS1Z MATS2Z MATS3Z MATS4Z MATS5Z MATS6Z MATS7Z MATS8Z MATS1m MATS2m MATS3m MATS4m MATS5m MATS6m MATS7m MATS8m MATS1v MATS2v MATS3v MATS4v MATS5v MATS6v MATS7v MATS8v MATS1se MATS2se MATS3se MATS4se MATS5se MATS6se MATS7se MATS8se MATS1pe MATS2pe MATS3pe MATS4pe MATS5pe MATS6pe MATS7pe MATS8pe MATS1are MATS2are MATS3are MATS4are MATS5are MATS6are MATS7are MATS8are MATS1p MATS2p MATS3p MATS4p MATS5p MATS6p MATS7p MATS8p MATS1i MATS2i MATS3i MATS4i MATS5i MATS6i MATS7i MATS8i GATS1c GATS2c GATS3c GATS4c GATS5c GATS6c GATS7c GATS8c GATS1dv GATS2dv GATS3dv GATS4dv GATS5dv GATS6dv GATS7dv GATS8dv GATS1d GATS2d GATS3d GATS4d GATS5d GATS6d GATS7d GATS8d GATS1s GATS2s GATS3s GATS4s GATS5s GATS6s GATS7s GATS8s GATS1Z GATS2Z GATS3Z GATS4Z GATS5Z GATS6Z GATS7Z GATS8Z GATS1m GATS2m GATS3m GATS4m GATS5m GATS6m GATS7m GATS8m GATS1v GATS2v GATS3v GATS4v GATS5v GATS6v GATS7v GATS8v GATS1se GATS2se GATS3se GATS4se GATS5se GATS6se GATS7se GATS8se GATS1pe GATS2pe GATS3pe GATS4pe GATS5pe GATS6pe GATS7pe GATS8pe GATS1are GATS2are GATS3are GATS4are GATS5are GATS6are GATS7are GATS8are GATS1p GATS2p GATS3p GATS4p GATS5p GATS6p GATS7p GATS8p GATS1i GATS2i GATS3i GATS4i GATS5i GATS6i GATS7i GATS8i BCUTc-1h BCUTc-1l BCUTdv-1h BCUTdv-1l BCUTd-1h BCUTd-1l BCUTs-1h BCUTs-1l BCUTZ-1h BCUTZ-1l BCUTm-1h BCUTm-1l BCUTv-1h BCUTv-1l BCUTse-1h BCUTse-1l BCUTpe-1h BCUTpe-1l BCUTare-1h BCUTare-1l BCUTp-1h BCUTp-1l BCUTi-1h BCUTi-1l BalabanJ SpAbs_DzZ SpMax_DzZ SpDiam_DzZ SpAD_DzZ SpMAD_DzZ LogEE_DzZ SM1_DzZ VE1_DzZ VE2_DzZ VE3_DzZ VR1_DzZ VR2_DzZ VR3_DzZ SpAbs_Dzm SpMax_Dzm SpDiam_Dzm SpAD_Dzm SpMAD_Dzm LogEE_Dzm SM1_Dzm VE1_Dzm VE2_Dzm VE3_Dzm VR1_Dzm VR2_Dzm VR3_Dzm SpAbs_Dzv SpMax_Dzv SpDiam_Dzv SpAD_Dzv SpMAD_Dzv LogEE_Dzv SM1_Dzv VE1_Dzv VE2_Dzv VE3_Dzv VR1_Dzv VR2_Dzv VR3_Dzv SpAbs_Dzse SpMax_Dzse SpDiam_Dzse SpAD_Dzse SpMAD_Dzse LogEE_Dzse SM1_Dzse VE1_Dzse VE2_Dzse VE3_Dzse VR1_Dzse VR2_Dzse VR3_Dzse SpAbs_Dzpe SpMax_Dzpe SpDiam_Dzpe SpAD_Dzpe SpMAD_Dzpe LogEE_Dzpe SM1_Dzpe VE1_Dzpe VE2_Dzpe VE3_Dzpe VR1_Dzpe VR2_Dzpe VR3_Dzpe SpAbs_Dzare SpMax_Dzare SpDiam_Dzare SpAD_Dzare SpMAD_Dzare LogEE_Dzare SM1_Dzare VE1_Dzare VE2_Dzare VE3_Dzare VR1_Dzare VR2_Dzare VR3_Dzare SpAbs_Dzp SpMax_Dzp SpDiam_Dzp SpAD_Dzp SpMAD_Dzp LogEE_Dzp SM1_Dzp VE1_Dzp VE2_Dzp VE3_Dzp VR1_Dzp VR2_Dzp VR3_Dzp SpAbs_Dzi SpMax_Dzi SpDiam_Dzi SpAD_Dzi SpMAD_Dzi LogEE_Dzi SM1_Dzi VE1_Dzi VE2_Dzi VE3_Dzi VR1_Dzi VR2_Dzi VR3_Dzi BertzCT nBonds nBondsO nBondsS nBondsD nBondsT nBondsA nBondsM nBondsKS nBondsKD RNCG RPCG C1SP1 C2SP1 C1SP2 C2SP2 C3SP2 C1SP3 C2SP3 C3SP3 C4SP3 HybRatio FCSP3 Xch-3d Xch-4d Xch-5d Xch-6d Xch-7d Xch-3dv Xch-4dv Xch-5dv Xch-6dv Xch-7dv Xc-3d Xc-4d Xc-5d Xc-6d Xc-3dv Xc-4dv Xc-5dv Xc-6dv Xpc-4d Xpc-5d Xpc-6d Xpc-4dv Xpc-5dv Xpc-6dv Xp-0d Xp-1d Xp-2d Xp-3d Xp-4d Xp-5d Xp-6d Xp-7d AXp-0d AXp-1d AXp-2d AXp-3d AXp-4d AXp-5d AXp-6d AXp-7d Xp-0dv Xp-1dv Xp-2dv Xp-3dv Xp-4dv Xp-5dv Xp-6dv Xp-7dv AXp-0dv AXp-1dv AXp-2dv AXp-3dv AXp-4dv AXp-5dv AXp-6dv AXp-7dv SZ Sm Sv Sse Spe Sare Sp Si MZ Mm Mv Mse Mpe Mare Mp Mi SpAbs_Dt SpMax_Dt SpDiam_Dt SpAD_Dt SpMAD_Dt LogEE_Dt SM1_Dt VE1_Dt VE2_Dt VE3_Dt VR1_Dt VR2_Dt VR3_Dt DetourIndex SpAbs_D SpMax_D SpDiam_D SpAD_D SpMAD_D LogEE_D VE1_D VE2_D VE3_D VR1_D VR2_D VR3_D NsLi NssBe NssssBe NssBH NsssB NssssB NsCH3 NdCH2 NssCH2 NtCH NdsCH NaaCH NsssCH NddC NtsC NdssC NaasC NaaaC NssssC NsNH3 NsNH2 NssNH2 NdNH NssNH NaaNH NtN NsssNH NdsN NaaN NsssN NddsN NaasN NssssN NsOH NdO NssO NaaO NsF NsSiH3 NssSiH2 NsssSiH NssssSi NsPH2 NssPH NsssP NdsssP NsssssP NsSH NdS NssS NaaS NdssS NddssS NsCl NsGeH3 NssGeH2 NsssGeH NssssGe NsAsH2 NssAsH NsssAs NsssdAs NsssssAs NsSeH NdSe NssSe NaaSe NdssSe NddssSe NsBr NsSnH3 NssSnH2 NsssSnH NssssSn NsI NsPbH3 NssPbH2 NsssPbH NssssPb SsLi SssBe SssssBe SssBH SsssB SssssB SsCH3 SdCH2 SssCH2 StCH SdsCH SaaCH SsssCH SddC StsC SdssC SaasC SaaaC SssssC SsNH3 SsNH2 SssNH2 SdNH SssNH SaaNH StN SsssNH SdsN SaaN SsssN SddsN SaasN SssssN SsOH SdO SssO SaaO SsF SsSiH3 SssSiH2 SsssSiH SssssSi SsPH2 SssPH SsssP SdsssP SsssssP SsSH SdS SssS SaaS SdssS SddssS SsCl SsGeH3 SssGeH2 SsssGeH SssssGe SsAsH2 SssAsH SsssAs SsssdAs SsssssAs SsSeH SdSe SssSe SaaSe SdssSe SddssSe SsBr SsSnH3 SssSnH2 SsssSnH SssssSn SsI SsPbH3 SssPbH2 SsssPbH SssssPb MAXsLi MAXssBe MAXssssBe MAXssBH MAXsssB MAXssssB MAXsCH3 MAXdCH2 MAXssCH2 MAXtCH MAXdsCH MAXaaCH MAXsssCH MAXddC MAXtsC MAXdssC MAXaasC MAXaaaC MAXssssC MAXsNH3 MAXsNH2 MAXssNH2 MAXdNH MAXssNH MAXaaNH MAXtN MAXsssNH MAXdsN MAXaaN MAXsssN MAXddsN MAXaasN MAXssssN MAXsOH MAXdO MAXssO MAXaaO MAXsF MAXsSiH3 MAXssSiH2 MAXsssSiH MAXssssSi MAXsPH2 MAXssPH MAXsssP MAXdsssP MAXsssssP MAXsSH MAXdS MAXssS MAXaaS MAXdssS MAXddssS MAXsCl MAXsGeH3 MAXssGeH2 MAXsssGeH MAXssssGe MAXsAsH2 MAXssAsH MAXsssAs MAXsssdAs MAXsssssAs MAXsSeH MAXdSe MAXssSe MAXaaSe MAXdssSe MAXddssSe MAXsBr MAXsSnH3 MAXssSnH2 MAXsssSnH MAXssssSn MAXsI MAXsPbH3 MAXssPbH2 MAXsssPbH MAXssssPb MINsLi MINssBe MINssssBe MINssBH MINsssB MINssssB MINsCH3 MINdCH2 MINssCH2 MINtCH MINdsCH MINaaCH MINsssCH MINddC MINtsC MINdssC MINaasC MINaaaC MINssssC MINsNH3 MINsNH2 MINssNH2 MINdNH MINssNH MINaaNH MINtN MINsssNH MINdsN MINaaN MINsssN MINddsN MINaasN MINssssN MINsOH MINdO MINssO MINaaO MINsF MINsSiH3 MINssSiH2 MINsssSiH MINssssSi MINsPH2 MINssPH MINsssP MINdsssP MINsssssP MINsSH MINdS MINssS MINaaS MINdssS MINddssS MINsCl MINsGeH3 MINssGeH2 MINsssGeH MINssssGe MINsAsH2 MINssAsH MINsssAs MINsssdAs MINsssssAs MINsSeH MINdSe MINssSe MINaaSe MINdssSe MINddssSe MINsBr MINsSnH3 MINssSnH2 MINsssSnH MINssssSn MINsI MINsPbH3 MINssPbH2 MINsssPbH MINssssPb ECIndex ETA_alpha AETA_alpha ETA_shape_p ETA_shape_y ETA_shape_x ETA_beta AETA_beta ETA_beta_s AETA_beta_s ETA_beta_ns AETA_beta_ns ETA_beta_ns_d AETA_beta_ns_d ETA_eta AETA_eta ETA_eta_L AETA_eta_L ETA_eta_R AETA_eta_R ETA_eta_RL AETA_eta_RL ETA_eta_F AETA_eta_F ETA_eta_FL AETA_eta_FL ETA_eta_B AETA_eta_B ETA_eta_BR AETA_eta_BR ETA_dAlpha_A ETA_dAlpha_B ETA_epsilon_1 ETA_epsilon_2 ETA_epsilon_3 ETA_epsilon_4 ETA_epsilon_5 ETA_dEpsilon_A ETA_dEpsilon_B ETA_dEpsilon_C ETA_dEpsilon_D ETA_dBeta AETA_dBeta ETA_psi_1 ETA_dPsi_A ETA_dPsi_B fragCpx fMF nHBAcc nHBDon IC0 IC1 IC2 IC3 IC4 IC5 TIC0 TIC1 TIC2 TIC3 TIC4 TIC5 SIC0 SIC1 SIC2 SIC3 SIC4 SIC5 BIC0 BIC1 BIC2 BIC3 BIC4 BIC5 CIC0 CIC1 CIC2 CIC3 CIC4 CIC5 MIC0 MIC1 MIC2 MIC3 MIC4 MIC5 ZMIC0 ZMIC1 ZMIC2 ZMIC3 ZMIC4 ZMIC5 Kier1 Kier2 Kier3 Lipinski GhoseFilter FilterItLogS VMcGowan LabuteASA PEOE_VSA1 PEOE_VSA2 PEOE_VSA3 PEOE_VSA4 PEOE_VSA5 PEOE_VSA6 PEOE_VSA7 PEOE_VSA8 PEOE_VSA9 PEOE_VSA10 PEOE_VSA11 PEOE_VSA12 PEOE_VSA13 SMR_VSA1 SMR_VSA2 SMR_VSA3 SMR_VSA4 SMR_VSA5 SMR_VSA6 SMR_VSA7 SMR_VSA8 SMR_VSA9 SlogP_VSA1 SlogP_VSA2 SlogP_VSA3 SlogP_VSA4 SlogP_VSA5 SlogP_VSA6 SlogP_VSA7 SlogP_VSA8 SlogP_VSA9 SlogP_VSA10 SlogP_VSA11 EState_VSA1 EState_VSA2 EState_VSA3 EState_VSA4 EState_VSA5 EState_VSA6 EState_VSA7 EState_VSA8 EState_VSA9 EState_VSA10 VSA_EState1 VSA_EState2 VSA_EState3 VSA_EState4 VSA_EState5 VSA_EState6 VSA_EState7 VSA_EState8 VSA_EState9 MDEC-11 MDEC-12 MDEC-13 MDEC-14 MDEC-22 MDEC-23 MDEC-24 MDEC-33 MDEC-34 MDEC-44 MDEO-11 MDEO-12 MDEO-22 MDEN-11 MDEN-12 MDEN-13 MDEN-22 MDEN-23 MDEN-33 MID AMID MID_h AMID_h MID_C AMID_C MID_N AMID_N MID_O AMID_O MID_X AMID_X MPC2 MPC3 MPC4 MPC5 MPC6 MPC7 MPC8 MPC9 MPC10 TMPC10 piPC1 piPC2 piPC3 piPC4 piPC5 piPC6 piPC7 piPC8 piPC9 piPC10 TpiPC10 apol bpol nRing n3Ring n4Ring n5Ring n6Ring n7Ring n8Ring n9Ring n10Ring n11Ring n12Ring nG12Ring nHRing n3HRing n4HRing n5HRing n6HRing n7HRing n8HRing n9HRing n10HRing n11HRing n12HRing nG12HRing naRing n3aRing n4aRing n5aRing n6aRing n7aRing n8aRing n9aRing n10aRing n11aRing n12aRing nG12aRing naHRing n3aHRing n4aHRing n5aHRing n6aHRing n7aHRing n8aHRing n9aHRing n10aHRing n11aHRing n12aHRing nG12aHRing nARing n3ARing n4ARing n5ARing n6ARing n7ARing n8ARing n9ARing n10ARing n11ARing n12ARing nG12ARing nAHRing n3AHRing n4AHRing n5AHRing n6AHRing n7AHRing n8AHRing n9AHRing n10AHRing n11AHRing n12AHRing nG12AHRing nFRing n4FRing n5FRing n6FRing n7FRing n8FRing n9FRing n10FRing n11FRing n12FRing nG12FRing nFHRing n4FHRing n5FHRing n6FHRing n7FHRing n8FHRing n9FHRing n10FHRing n11FHRing n12FHRing nG12FHRing nFaRing n4FaRing n5FaRing n6FaRing n7FaRing n8FaRing n9FaRing n10FaRing n11FaRing n12FaRing nG12FaRing nFaHRing n4FaHRing n5FaHRing n6FaHRing n7FaHRing n8FaHRing n9FaHRing n10FaHRing n11FaHRing n12FaHRing nG12FaHRing nFARing n4FARing n5FARing n6FARing n7FARing n8FARing n9FARing n10FARing n11FARing n12FARing nG12FARing nFAHRing n4FAHRing n5FAHRing n6FAHRing n7FAHRing n8FAHRing n9FAHRing n10FAHRing n11FAHRing n12FAHRing nG12FAHRing nRot RotRatio SLogP SMR TopoPSA(NO) TopoPSA GGI1 GGI2 GGI3 GGI4 GGI5 GGI6 GGI7 GGI8 GGI9 GGI10 JGI1 JGI2 JGI3 JGI4 JGI5 JGI6 JGI7 JGI8 JGI9 JGI10 JGT10 Diameter Radius TopoShapeIndex PetitjeanIndex Vabc VAdjMat MWC01 MWC02 MWC03 MWC04 MWC05 MWC06 MWC07 MWC08 MWC09 MWC10 TMWC10 SRW02 SRW03 SRW04 SRW05 SRW06 SRW07 SRW08 SRW09 SRW10 TSRW10 MW AMW WPath WPol Zagreb1 Zagreb2 mZagreb1 mZagreb2
feature_infos=[0:1] [10.825381317280574:222.33187353953249] [9.4188621526354286:152.55384732571213] [0:3] [0:17] [17.979102199621071:363.93816854927354] [2.264980970238208:2.7174700094866977] [4.5299619404764151:5.3149750163910943] [17.979102199621071:363.93816854927354] [1.1218905123558083:1.3703540260096703] [3.5797245806478015:6.5696664352852165] [2.9239611842200848:6.1106845715666545] [0.017748163849162672:0.22619817892463578] [1.5659598099027847:5.1704141952221994] [84.274069477312025:9359092224911.8535] [4.7293839466347221:34033062636.043102] [4.964702470618068:33.181555421869305] [6:42] [6:44] [27:576] [15:295] [0:1] [0:4] [2:109] [7:281] none [10:187] [1:56] [0:50] [0:8] none [0:9] [0:4] [0:1] none [0:9] [164.44444444444446:4113.1111111111113] [154:3648.333333333333] [190.33333333333331:4956.333333333333] [162.66666666666666:5556] [117.33333333333333:6570.3333333333339] [69.333333333333329:8208.3333333333321] [66.666666666666671:7859.6666666666661] [62:8827.1111111111095] [49:10487.555555555555] [83:1725] [99:2176] [150:3460] [155:4228] [129:4649] [114:5114] [99:5804] [91:6446] [61:7037] [114.39761469288219:3529.9954275262912] [90.885802469135797:1910.3899176954735] [147.91666666666669:3368.2870370370374] [159.94753086419757:4839.4104938271594] [150.08230452674897:5779.7006172839501] [106.06172839506172:7891.4043209876527] [113.34259259259261:7203.3827160493802] [105.02777777777779:8226.1731824417002] [75.539094650205755:10586.639574759947] [844:16684] [807:15093] [1139:21541] [1076:26163] [1070:30353] [707:35726] [620:38602] [510:44023] [426:50022] [3332.314046:70881.422923980906] [3025.2049409999995:56972.098647999956] [4151.3516909999998:79135.625710000022] [3772.9221289999996:93521.331284999964] [3843.1289379999998:109308.40811499998] [2305.911693:130672.16062699998] [2060.6540359999999:139523.57971899997] [1647.3624159999999:157975.78261199998] [1412.1595589999999:180809.58804699997] [6306.703206215162:115445.8887371356] [7745.086376008574:145866.49070422142] [10284.873320520783:211860.05520677532] [10459.787238497196:256712.67816019579] [9004.9503894078443:285772.0233028403] [7377.3180930009339:317256.72448542219] [6806.4825060668172:361317.36419488117] [5866.2603189161928:410995.52544550441] [4962.3816296388359:450077.44251036982] [214.90641400000004:4534.4407349999992] [222.19431:4645.7713869999989] [347.64846200000005:8184.0282979999984] [420.00641599999994:11943.496082] [390.8638679999998:13623.913299999998] [309.16035599999998:14631.955334] [273.53161499999993:16473.56525] [260.85790199999997:19174.469678999994] [216.75646999999998:21165.821679999994] [176.12790000000001:3675.2359000000001] [186.60450000000003:3880.2612000000008] [288.17220000000003:6718.7569999999996] [343.11950000000007:9665.4484000000011] [313.62469999999996:11002.1898] [247.47150000000005:11892.667299999997] [224.03779999999995:13367.542599999997] [211.58699999999999:15495.817099999998] [173.19879999999998:17105.169400000002] [171.63720000000001:3652.3346999999999] [181.41200000000003:3809.0128000000004] [280.01740000000001:6619.0860000000011] [333.77400000000006:9574.5443000000014] [306.18470000000002:10909.793099999999] [242.27200000000002:11799.9557] [219.08619999999996:13246.143400000001] [208.01099999999994:15348.8184] [167.75219999999999:16950.653699999999] [48.130623382433001:801.46791026256892] [57.522677239999993:1015.0111965359997] [81.621351913641007:1534.5871182125977] [87.725107598678008:1894.950336468022] [76.43083442182899:2063.4291520641873] [59.469693400792018:2271.136190533754] [52.868451851697991:2634.7639869836967] [46.913371228791995:3020.139514538711] [37.802427958489993:3334.9647414125166] [4338.5751464819905:96572.676059509686] [4156.898434879201:89644.772180642845] [6597.655356156758:165282.47706518273] [8263.8014041183069:250924.72641944728] [8048.3729848412804:286465.66656240675] [6393.4190822504406:301662.50664243987] [5523.5785966761778:341773.24764580023] [5516.1141696142931:398131.7616042372] [4597.8614055078806:439078.66252251301] [4.1875:16.728395061728396] [4.4264705882352944:12.644444444444444] [2.9920634920634921:14.219178082191782] [2.0726256983240225:11.449026345933561] [1.5459183673469388:12.664375715922107] [1.2380952380952379:10.270011947431302] [1.2403628117913832:10.832130832130833] [1.0068587105624143:9.6264090177133657] [0.99316239316239319:10.957351290684624] [2.59375:4.4444444444444446] [3.09375:5.2400000000000002] [2.6785714285714284:4.8068181818181817] [2.183098591549296:4.283018867924528] [2.0952380952380953:4.1142857142857139] [2.0092592592592591:3.817204301075269] [1.9183673469387754:3.6914893617021276] [1.8888888888888888:3.5384615384615383] [1.7941176470588236:3.7536231884057969] [1.9363064236111112:15.625929000221696] [2.215895061728395:4.6012345679012352] [2.0499338624338623:9.9375868473090705] [1.8348075729360644:8.0365411708004295] [1.7173327664399094:11.380011454753721] [1.7658514492753625:6.8283950617283953] [1.7878933847141938:10.897030651340993] [1.6535852713178292:8.3751341921631806] [1.6753812636165579:9.242003367003365] [17.46875:82.277777777777771] [21.279411764705884:48.46875] [16.333333333333332:43.280000000000001] [12.474860335195531:41.935483870967744] [10.136125654450261:41.55952380952381] [10.695652173913043:43.340000000000003] [9.6721311475409841:46.294117647058826] [9.8895348837209305:45.06666666666667] [10.18954248366013:51.103448275862071] [68.359648953125003:392.24563816304766] [79.092171897058819:193.38879499485] [58.246320595238089:171.79026459340804] [42.576532882681555:165.74764719243868] [33.912140989528801:167.46046629758098] [36.103169005434779:174.33754915178662] [33.271283426229509:191.80022544705884] [32.802112970930231:182.4674021785714] [33.748005542483661:205.24281814742071] [194.11790917995322:300.49079489791427] [241.0300288764731:330.80556351226591] [183.65845215215683:305.37108129497682] [147.32094702108728:277.34185721388428] [124.77490018914389:266.53297601968802] [127.14668169727381:262.04144782312682] [113.39536306110179:263.51260370901565] [126.29100286351213:243.39912829261232] [126.1419031727556:251.52496344124083] [7.2020736774193521:9.4418170454545436] [7.4462730909090862:8.5662243333333308] [7.3958601025640975:9.0742992957746456] [7.2796846987951787:9.1384241568627438] [7.1987460217391304:9.2903180571428585] [7.1853364491978615:9.070584426229507] [7.1848641839080454:9.2462459870129852] [7.1216120697674423:9.0657962318840539] [7.1325873532934123:9.558815522727274] [5.7217156250000007:8.2264749999999989] [6.1807651515151525:7.3157166666666678] [6.0388247863247866:7.8650500000000001] [5.811603910614525:7.8020607843137242] [5.6688392857142871:7.939811428571427] [5.6459919786096275:7.7064508196721304] [5.6280680327868859:7.9686034482758599] [5.5716017441860464:7.7626434782608724] [5.6199052287581699:8.1833136363636374] [5.6246741935483842:8.2684613636363622] [6.0133181818181818:7.1221833333333331] [5.9028461538461539:7.8312467532467531] [5.713960335195531:7.721332352941177] [5.586066326530613:7.8759175257731915] [5.5602566844919785:7.5754442622950808] [5.5778499999999998:8.0367836206896559] [5.4822093023255816:7.6791028985507248] [5.5164910179640696:7.9872931818181829] [1.2808303246260817:14.206446391115596] [1.6388044651020408:2.5827364654000013] [1.3246891744339544:2.9731572507397064] [1.1855108804002372:2.7230606935971964] [0.97142435951350004:3.2664062022007547] [0.99043518172488909:2.478701595531652] [0.93765247099208193:2.3054204800343108] [0.98950817717974993:1.9185095504860796] [0.99895082742511132:2.1536797094722018] [154.96419841529547:180.4356386488179] [140.18676550140771:155.5597571677327] [144.91298081439896:168.48543407402093] [147.53107458556408:171.44054186259703] [150.97688277799162:183.87614017906498] [150.98801578324895:176.0599828615276] [150.02408484271558:185.00468889805725] [151.60025024931409:179.67278384906075] [152.76179844653501:188.86457610815708] [0.3937705724099394:16.803060084269539] [-11.488575462607979:-0.082079867900406986] [-0.64122071457710395:3.4262363875171418] [-1.2146346470526461:7.0324843651338815] [-12.659790335713625:1.0800241538586441] [-0.73131427574082286:5.4823087046758125] [-1.4474150714417986:8.7806240734522536] [-12.907987785541327:0.83955483704768652] [-0.83139953365427532:5.4877635398283315] [98.050297210791044:2297.4043209876545] [-16.213132050969886:570.77579052037925] [-53.330905306971893:420.52613406502746] [-267.11136293491415:183.84585404560204] [-271.59125925721173:411.31856554034687] [-273.253086419753:545.73706370374452] [-718.83407864635217:187.03276958931724] [-669.63632690541772:255.61950059453045] [-258.06268524352959:570.52493660185974] [13.96875:334.33159722222223] [-4.166351606805291:84.008716724537081] [-58.584731742694871:20.281065088757408] [-42.689750692520768:42.192785526102185] [-35.256198347107429:31.182284708262024] [-27.169280692266092:30.200000000000003] [-33.1484375:46.991735537190088] [-31.517474380165332:28.111111111111104] [-38.241211465657123:25.044321329639882] [10.811523437500004:1552.3856754087606] [-110.34358685965799:3.3102955727919841] [-15.484126984126982:340.32570301783261] [-336.13374232521744:193.80103278463653] [-610.71785082620625:309.87902831646835] [-165.92294403673222:828.71323934888801] [-380.6506785171693:243.13732107426301] [-800.77225708799585:177.86609042161234] [-201.20036795582436:831.84042453273219] [235.41935483870958:7739.644927536232] [-307.37122206713531:374.19420552286067] [-271.20244458379352:483.75510204081633] [-692.10603077084659:255.74480151228724] [-559.83950617283949:865.68639999999994] [-790.5911111111111:1688.28125] [-572.4354911724763:833.79719387755119] [-1083.0808999322835:646.01827347195967] [-741.886621315193:1003.4732724217597] [1154.3449434306549:38928.759133623185] [-1311.4967113927073:1593.7866902985559] [-1256.4219798886334:2274.5464533372783] [-3273.9240323946397:1147.97228875925] [-2675.3236329792053:4175.9657478682229] [-3856.4865900286441:7582.8641110987701] [-2690.4065084733393:3931.9113428587862] [-4949.06001513719:3083.5886274598138] [-3829.1478869937655:4605.0907030619719] [1222.5975813207522:27419.502342822685] [-233.21511366516353:1714.1436924422208] [-6113.3154376754946:1894.5267799870035] [-3592.7702685908907:1079.748623027099] [-2502.5667901211109:6536.4801518746963] [-5072.1607762950862:4609.6850438407409] [-2714.4148451829233:5416.2250686164361] [-2434.6533720943053:3058.7450186706815] [-2749.7690781544902:2628.125276937003] [0.89810993548387075:56.702328037174695] [-8.684050762427276:0.74834269628906358] [-1.0592671100591706:15.883964088741861] [-8.2042777824000002:7.8098634661810786] [-27.525250973756606:10.806354601239677] [-5.7876187256198408:29.678357092906069] [-6.0815382985312079:9.2380352403165329] [-36.503116200668487:7.4363944604958894] [-7.9183009301924754:28.022990599605514] [2.7155483870967716:83.701973234200693] [-11.053674472436825:0.86726571733713675] [-1.4563823668638924:23.056955765595472] [-14.267423039999986:10.594870187304869] [-34.500602464034507:16.444335559999974] [-11.031449382716035:36.113710795235292] [-10.181679494853977:13.447967346938775] [-47.514767412049125:10.25646419753085] [-11.899366992243603:35.351596344040594] [2.3754193548387077:90.909622490706283] [-13.18214519043404:0.91066788892844486] [-1.671888402366851:27.017319383401581] [-15.387051839999984:12.377515500945163] [-42.83349520079873:19.22549736570247] [-11.402689429012334:39.15604291329084] [-9.9436065614043851:16.144346772178253] [-55.218858644688012:11.471195867768568] [-13.60643418367345:40.576490638207972] [7.7844043560738712:531.70656599832114] [-15.326439810657268:16.329593197789841] [-38.36566586468885:37.092697524498689] [-33.354077478453789:3.8771316807051912] [-12.31959846988782:37.406386514978522] [-52.342853488302993:20.282500656729997] [-19.031488364415495:25.455765442251256] [-16.757319526548702:12.732035957187344] [-15.108701834499032:24.180225114494814] [45.957288393526618:855.54558365065941] [-59.480243267030197:13.06832038671147] [-260.52036773503488:181.58900950859345] [-116.26116176304001:151.36114107059231] [-129.77414492206836:245.77198884640708] [-153.2473077607184:93.18461651918318] [-108.43649306222645:252.9487773584757] [-134.03958361508018:92.679759027918237] [-125.63514976588871:89.730198639862053] [0.0063511382646764423:0.039523985863500109] [-0.031117122062394913:-0.0012436343621273786] [-0.0074486940667545997:0.015109528680161502] [-0.011400099135217234:0.008004676231728531] [-0.011169670841163491:0.0098246767421751886] [-0.0072689049411965934:0.014146653167377924] [-0.013039775418394581:0.010837653263062989] [-0.0107047690013038:0.0096500555982492707] [-0.010658968380183017:0.011303939731930182] [2.46484375:6.5400469339863285] [-0.40532830127424713:1.9658755305011339] [-0.45581970347839224:2.3779249176479502] [-1.8273614897477923:1.1594770379706847] [-2.3020305696258774:2.0669274650268687] [-2.2648880148585162:2.0267275782398655] [-2.2200727356814767:1.5001700680272108] [-2.2067428745618045:1.8389892129102909] [-2.7040564938587832:2.2830178326474631] [0.4365234375:1.0016] [-0.097596371882086114:0.40123456790123452] [-0.24801565793435704:0.20833333333333326] [-0.24340348384251662:0.1179848183833071] [-0.2469059405940594:0.19030412526347487] [-0.24699346083878265:0.17611592170254292] [-0.21290486564996372:0.19258908007045117] [-0.18870513722730475:0.12116688893510985] [-0.20419006496017028:0.23328716528162513] [0.16893005371093756:7.052156761175481] [-1.0275180259321128:0.055373392541517588] [-0.22120181405895689:2.7816290899424878] [-1.4155865011812625:1.8738662131519277] [-1.4182367149758455:3.1946291579017356] [-1.4683446374932054:1.0299644367550944] [-1.6867726143937025:2.0229121223030893] [-1.8561349625725261:1.4005203970205695] [-2.1293046739919217:1.8362543374954372] [6.4412070759625362:52.173469387755112] [-0.56606118244407977:2.77309709125967] [-2.6834547346514035:3.2036761724557374] [-6.0072359709815188:2.1858530043785236] [-5.7035345848131236:5.1224047337278105] [-8.5933816425120764:6.1131157472265354] [-5.3003286219673731:7.0475816993464084] [-10.755547379146382:3.7737985813634878] [-11.413640327926046:7.649968336819482] [31.090682888657643:296.34143450656404] [-2.4152793948300317:12.066783542455395] [-11.425929991804786:15.063221545279989] [-26.61883374487714:9.8117289637542733] [-29.420236732781582:24.709856496261676] [-41.918332500311351:29.115588081021979] [-26.026633232984938:33.998646658620181] [-55.122611839398807:17.902950258359198] [-58.909967492211777:37.186441858838961] [38.488105387446694:73.702539485176843] [-4.0276832445279096:5.2582875466974963] [-10.05206593426572:13.106049359461279] [-19.832561377635965:9.9092604315937862] [-11.920358882979471:19.502283920423] [-26.011080904077364:29.933019765199617] [-17.207980137675968:26.043894038924357] [-24.046722918102788:17.6150115138981] [-19.959410641970369:23.309642046897103] [0.014485644120707592:0.27440935743801648] [-0.024389170915712789:0.011692269429071422] [-0.010857746031746024:0.14123383746505888] [-0.072692053151927449:0.077719372709386225] [-0.060005798520394553:0.11140571753855337] [-0.052332646428909287:0.047593050799584667] [-0.081846940710434177:0.078288434239970617] [-0.099498357438016494:0.058554287090518811] [-0.083790294449574199:0.058749513030684583] [0.043799167533818899:0.38774767561983475] [-0.032666620057232004:0.01521518802345854] [-0.014059855840504256:0.19297781926506283] [-0.092645604155844066:0.10185097990046675] [-0.094682868457300257:0.16444499073442961] [-0.090554795398229901:0.071638591438790727] [-0.13676497729637688:0.11396582497405741] [-0.13982728088299257:0.076076124682761578] [-0.1048444444444445:0.096479575308641902] [0.038313215400624316:0.45262453512396678] [-0.043408350676378667:0.015976629630323595] [-0.015920198347107374:0.23279241190753086] [-0.10192158503401355:0.12630117858107309] [-0.10458148660357233:0.19820100377012856] [-0.097017490973451165:0.069405383712421498] [-0.15397149039825933:0.13681649806930724] [-0.15218724445411044:0.090324376911563531] [-0.12212863445162615:0.10028295308641971] [0.20841525005980116:11.247425621533273] [-0.30652879621314538:0.043762951897653432] [-0.074975070585159009:0.42150792641475782] [-0.29780426320048026:0.035789645022538931] [-0.066110339837693946:0.2953755684022788] [-0.44358350413816094:0.12142829552161022] [-0.098805102185641203:0.18897893673376254] [-0.16591405471830398:0.10789860980667242] [-0.12859292289985236:0.26000242058596573] [1.3137128744251756:4.611621241477442] [-0.74118551083382789:0.2562415762100288] [-0.49083737454868992:1.7161605172876955] [-1.1626116176304:1.4375443868770443] [-0.77709068815609794:1.5232438006582556] [-1.4294470040993246:0.73672670849091926] [-0.7241531066353355:1.2427712070805867] [-1.0559223264501589:0.89481981340479511] [-1.296514493224312:1.2417470778668449] [-0.84023073659954861:-0.19581283075573785] [-0.24080220447638034:0.48510736534157872] [-0.50205383611360066:0.29051422995185899] [-0.39935890543444469:0.44883325426928872] [-0.28991501998173974:0.40082135763618665] [-0.37338534573552939:0.40242398295533349] [-0.47216625515045552:0.36569888729526534] [-0.38508506990798486:0.38583838665273146] [-0.10643805739347066:0.44571689901887318] [-0.18191143481841154:0.38195061060160074] [-0.35954876907619276:0.23370218433592943] [-0.39080420754083645:0.39957781934803799] [-0.39582275222995561:0.41818713703735794] [-0.47478421425390271:0.3148108493932904] [-0.42576269839569963:0.34895982131262515] [-0.48693284645814294:0.42652998462327024] [-0.10555555555555549:0.61388888888888893] [-0.27235992804613501:0.31874999999999992] [-0.3168405829524753:0.15446572400214781] [-0.31719303317193037:0.19922882470493788] [-0.37690202517788723:0.24309281821433845] [-0.29361812585752961:0.2219359875097581] [-0.26785449833395025:0.20879877687635148] [-0.29618783135571841:0.3051670792079208] [-0.33783697994581885:0.17648239556563863] [-0.11153113313355521:0.64848584146200761] [-0.30574347227897974:0.38755119882347838] [-0.32520065086643335:0.57106053588578409] [-0.29713215401436965:0.3298673884565223] [-0.3542363165836499:0.37140099641431473] [-0.37674688757379321:0.39707439305342856] [-0.44717173978448005:0.48331261823222244] [-0.058896929712977719:0.25470963699229032] [-0.16928943227212201:0.31652107189233869] [-0.36740471389073914:0.21234793245174557] [-0.36402408256880731:0.36240694573012022] [-0.38673883422790006:0.43743192790996338] [-0.38014369889369898:0.38437954788008161] [-0.43384801695428388:0.3698979895388706] [-0.50698076132346237:0.39786751965880307] [-0.054291652136958447:0.24127499384087145] [-0.1634328578704991:0.3174575201227941] [-0.36094087557381638:0.21334780026210221] [-0.35669695444171046:0.37506811536690032] [-0.37816655228660978:0.45197708806192771] [-0.38812150997811684:0.39215489633393608] [-0.43989483729859208:0.37242563641917503] [-0.49294825743708454:0.40931983331777366] [-0.069087027303864526:0.10879069142787526] [-0.20189438732275175:0.27082220404246377] [-0.37888800861563915:0.19523701101563859] [-0.23475572152464705:0.41061444047989898] [-0.50630370811233694:0.57740925524840081] [-0.35547081586679052:0.49755142369719435] [-0.50377799350527863:0.35097218362942167] [-0.38798981036669139:0.47232549969056126] [-0.15925365996647672:0.15896458447689044] [-0.14747110960863014:0.75774141668054007] [-0.36168788536127738:0.37879025940991989] [-0.33933718681132558:0.50843859934325875] [-0.3692574742678052:0.41098866327788242] [-0.4106759457989928:0.364187281827063] [-0.42129533967731042:0.40089450230787493] [-0.37770153183387628:0.38215397005019519] [-0.14904612178138799:0.12890609568206354] [-0.12698564986773547:0.68095305142415374] [-0.40680906963019164:0.33493718815857498] [-0.3645982916541784:0.48527843837808599] [-0.39386600040791309:0.41538344222044504] [-0.481821212653674:0.34209146666206353] [-0.43031709225104947:0.3406622412049039] [-0.34732477632345865:0.47980294668006318] [-0.1848715949893058:0.14055032119689417] [-0.13705905409486158:0.71217675179284778] [-0.44666255023442791:0.36458938682467029] [-0.35389285527369968:0.50808082817365019] [-0.38232450266380924:0.40919375049468854] [-0.45028740381372206:0.35593581242279781] [-0.42486793527562583:0.38977274144926144] [-0.35544019326456139:0.42757944813893484] [-0.20612173191499847:0.15608454135698513] [-0.24910489051018386:0.28149405996160337] [-0.40841434269090443:0.14358169508939642] [-0.23198244552456154:0.38997498309092377] [-0.44348511075965075:0.40900093441892155] [-0.32450979520699186:0.44487150971986739] [-0.53508663029224324:0.32721536697694176] [-0.40850235710970256:0.48578674021860591] [-0.42568701276910287:0.14004373475198267] [-0.28994223448798206:0.5248862132674077] [-0.35911290453665684:0.38506626741845873] [-0.23256573306936865:0.33030548713715452] [-0.38678709605176476:0.33647304007473805] [-0.29166230147040512:0.35298902250361158] [-0.34662938827168049:0.31868359714365802] [-0.37419849635590802:0.3950973644372337] [1.2845788522223265:2.0780731332825191] [0.39237604207377669:1.660646718962594] [0.54680645104514614:1.7462611437538968] [0.40868782735034787:1.6632332551053557] [0.42032096486337617:1.7615685325264496] [0.40099423369628628:1.7478770878685215] [0.34781959551637209:1.7482050829373827] [0.33287376783510114:1.6462138927583325] [0.32513244141151115:0.82099441256418004] [0.44515774486049009:1.3534072900158478] [0.59750287166195304:1.3978283649347345] [0.50083922455574414:1.4486967167331173] [0.61054132770449543:1.5217782974664162] [0.5624888472519628:1.5501898511190171] [0.4896899267589539:1.5874057727551691] [0.50753315806218324:1.6297564358152026] [0.5376842325715333:1.3875802997858675] [0.82881468797564684:1.8397836093328397] [0.74840575587321911:1.566664445628998] [0.41850991511093655:1.4555313459443395] [0.50544588155207615:1.4309797482211277] [0.51397020556856632:1.5000956998851602] [0.63311248581573265:1.3607552758237691] [0.54921875000000031:1.4064993311826266] [0.45286603753647547:1.2538723634426114] [0.21341426361324467:1.0316514413154783] [0.32826712249478823:1.3575376976541562] [0.32281233438593743:1.9141975921541439] [0.28247996218909388:2.1127798780061324] [0.27842795006102333:2.3126730563374673] [0.27798369832192071:1.9343114454514052] [0.33080298363880273:2.0364619890616202] [0.47948671689902039:0.9961090870503343] [0.48490761388977377:1.152736019242333] [0.59510489510489506:1.4635816353532676] [0.50904278993639662:1.5895321100917428] [0.41402488377318808:1.6995385391338389] [0.52797410610400064:1.7058815377366334] [0.42030914555603271:2.8442799174304279] [0.35295586431849513:2.3009919974874631] [0.47955733145414953:0.99817460749665088] [0.47910666962383536:1.1492997203127027] [0.60799417666793965:1.4333323715457216] [0.51760571561223034:1.5494891901060881] [0.39146378164592238:1.6637146972720616] [0.53783109217513192:1.7243385743581294] [0.4081566972971889:2.9405436076096563] [0.34027987858512321:2.3397352001252991] [0.65537064284132873:1.181917044608926] [0.61163211499698944:1.2313949035133116] [0.78719195990706792:1.3907630166328318] [0.57653909604699916:1.2161800480322569] [0.42575318791710648:1.5223029120914926] [0.47101233272961679:1.3456536945246012] [0.66330180278994444:1.4713240034465167] [0.56566668227813255:1.4184431515844007] [0.42608483927502838:1.0924879470775526] [0.16641592562052793:1.6480799318975243] [0.40931949341228463:1.632687800668807] [0.45240507791283541:1.6770895283070186] [0.28563155467003803:1.9855440648641074] [0.2341867812127445:1.8888707475866686] [0.30777664235947233:1.8542580376456972] [0.38139990281099023:1.9184934108748133] [0.49982785022198872:0.98558053174258309] [0.19785877103238203:1.4172503118104196] [0.40875794227046736:1.5510857949213828] [0.47634389119260007:1.5648087634885319] [0.36650540246438928:1.7895951137668225] [0.30686829462170828:1.7328172633413912] [0.35550796905441684:1.8268353803312081] [0.41957292979444816:1.9395837823734268] [0.50280853110186219:1.0187545844460999] [0.18116274007235597:1.5117490829690114] [0.40571968217602511:1.6537535287000948] [0.45403088761146493:1.6312765486803535] [0.33589377833104922:1.8715981246036264] [0.26359445768631318:1.814024319383682] [0.32708607186743144:1.8442986083407218] [0.40011069736929356:1.9631486304556955] [0.4943522079289559:1.4812215342727668] [0.49774289499946789:1.3306820251395868] [0.75511443732977801:1.5567208174888434] [0.45050654986554367:1.3345665436276111] [0.43351449265933223:1.4023145045495216] [0.42618727130690964:1.6119125457016619] [0.24185248897786932:2.3757048623948993] [0.2844862364955611:1.7574378965169144] [0.78456620016021517:1.6616087930998296] [0.50510573597687025:1.4594385665169258] [0.57185184381995124:1.4242528502110503] [0.58573316919446816:1.2271866407441578] [0.4870662013087928:1.4471569731338256] [0.46545605100913839:1.4802246056257522] [0.46936258429211825:1.591251552341675] [0.5364747476608912:1.6524845920779805] [0.33635450799224681:0.78342655999858279] [-0.60883794994010454:-0.3515719570040185] [5.0167736744811027:7.0206627966391286] [0.10862367827701658:2.8123771481512199] [3.0800725005597749:4.1546005964002664] [0.91099446477406143:1.7579129356762639] [2.518754900599296:8.0136492511866226] [0.29305844584569474:1.4720652004550538] [7.0302931750664008:53.000263644192636] [5.6460390000638698:5.7694542275609901] [14.022379050239945:126.9045778086905] [11.657480576253342:11.789672355761393] [20.863718388911138:48.996990046306934] [13.29988680832985:15.592167060573555] [3.2608706644056671:4.0383895262501763] [0.55539522205509595:2.4951205418695523] [3.1011994955253641:4.0145476353831873] [0.92424539579589116:2.3002358635938971] [3.1227208146955583:4.131744740360233] [1.0041020562666709:2.2532869658197718] [1.9679897981695427:24.110527271379805] [0.52384918855369578:1.0488405275409265] [14.537876378455444:17.436964605016904] [5.1377845267012106:10.982426590855951] [0.91920338048881778:2.5767173669504757] [83.465512910017196:19774.05885589619] [42.52546105338125:9898.9401422338051] [65.827563003698216:15416.112651686492] [84.957171338094298:19797.707037714361] [4.9974806669467231:71.991661955324943] [42.52546105338125:9898.9401422338051] [0.28571428571428581:24.083221024258762] [3.7804027686082069:16.986524354358689] [0.057581438489351489:0.25202685124054713] [1.7352956646051956:6.2168106080233549] [63.975086076532122:5493.8256440472715] [4.2650057384354749:18.623137776431427] [4.5639588356245007:11.995770393794324] [83.388186763231857:19779.075762862678] [42.492601185108285:9901.4218517458849] [65.784568025714094:15420.046354133981] [84.889541151192347:19802.670845741741] [4.9935024206583734:72.0097121663336] [42.492601185108285:9901.4218517458849] [0.28500035696437509:24.052325439712547] [3.7803966603004855:16.986524565200632] [0.05758143920406994:0.25202644402003238] [1.7352940488216322:6.2168106204356617] [63.975836837926963:5493.8309647746028] [4.2650557891951308:18.623155812795265] [4.5639705707707234:11.995771362286064] [114.33910492805839:26249.672147053774] [56.569857720220796:13106.871845552498] [88.709683302101453:20504.135077089544] [113.29963403879049:26215.572776135115] [6.7011608070167998:95.329355549582232] [56.569857720220796:13106.871845552498] [-35.9284559487742:-0.63864925648685755] [3.8024832452822785:17.003980507171434] [0.057640611888716727:0.25349888301881857] [1.7411194470123657:6.2178377274744197] [63.04914382925125:5475.8908225753776] [4.2032762552834164:18.562341771441957] [4.5493795911921797:11.992500512114779] [103.30647943889508:19826.050614584528] [52.023559661304944:9923.1687149276877] [83.097884223497843:15450.972213807727] [103.94836733811456:19846.189889380679] [6.0160390856805082:72.167963234111568] [52.023559661304944:9923.1687149276877] [-1.9310386744851611:20.286815270845146] [3.7995938474068507:17.000769734058991] [0.057629727912064381:0.25330625649379007] [1.7403592868668334:6.217648884851009] [62.929492117317835:5477.6352477946539] [4.1952994744878556:18.568255077270013] [4.5474800350172329:11.992819026029442] [104.49798328509635:19538.471625656861] [52.625942376942277:9780.0101013841213] [84.328919557320091:15222.736523396947] [105.15136455804613:19559.863485843794] [5.9984100453670148:71.126776312159251] [52.625942376942277:9780.0101013841213] [0.25455441998106365:21.548577111383111] [3.8009064602250824:17.001754389090941] [0.057633065725731999:0.25339376401500552] [1.7407046885583415:6.2177068014355932] [62.844598657212266:5476.5757689338898] [4.1896399104808175:18.56466362350471] [4.5461300992319735:11.992625588298063] [104.85564918658238:19198.526039861827] [52.836888282845578:9611.2523020217013] [84.879809456115893:14954.40376972481] [105.56469291514333:19222.330214485715] [6.0130304139230653:69.899382598129876] [52.836888282845578:9611.2523020217013] [0.37133550488599343:23.978564181586552] [3.801478485461816:17.002045128546271] [0.057634051283207699:0.25343189903078772] [1.7408551742919369:6.2177239018455159] [62.794349421769709:5476.1239664443256] [4.1862899614513136:18.563132089641783] [4.5453302001737566:11.99254308763599] [113.49704768373289:29088.787740187094] [55.642172947941361:14504.877109096353] [85.714036329187579:22711.230733657805] [111.68466251782181:29014.018887908387] [6.6899088816773524:105.50552322875777] [55.642172947941361:14504.877109096353] [-79.033521994387058:-1.0363636363636362] [3.796137430836227:16.999892655526232] [0.057626754764495698:0.25307582872241513] [1.7394491923196249:6.2175972930012442] [63.543560046613329:5484.9747777625525] [4.2362373364408885:18.593134839873059] [4.5571907638126934:11.99415803764208] [105.97004509838224:18674.361102385563] [53.366013772681868:9347.2173183685554] [86.008937700702973:14529.469798104423] [106.6304298857662:18694.288647396374] [5.9637983988066745:67.979231445077716] [53.366013772681868:9347.2173183685554] [0.45049917091529568:20.073534351551643] [3.8025286681641899:17.003059562045863] [0.057637490040833433:0.25350191121094601] [1.7411313925247276:6.2177835654465623] [62.742136789810338:5476.9840313572886] [4.1828091193206891:18.566047563923011] [4.5444983681455442:11.992700132543227] [350.76589188262676:11739.765111071014] [28:588] [15:307] [15:502] [0:44] [0:1] [6:44] [7:86] [22:526] [3:62] [0.013871213518287157:0.27699888031048037] [0.008429755780179099:0.3594809745179483] [0:1] none [0:44] [1:28] [0:9] [0:32] [0:74] [0:6] [0:4] [0:0.75] [0:0.75] [0:0.82735026918962573] [0:0.93982640562744735] [0:1.5804599120961993] [0.055555555555555552:2.208269231903325] [0.11615390417644599:2.6482204368320401] [0:0.82735026918962573] [0:0.93090365978289946] [0:1.3159403609149685] [0.016137430609197572:1.3980560382187537] [0.033877188732714239:1.6224534036056111] [0.7814744144215573:21.741532860347444] [0:1.0690052204847236] [0:5.0455157913213808] [0:1.2517346066809423] [0.27039180372516353:9.9229236753193621] [0:0.75739215850587649] [0:1.4229573713121968] [0:0.56586574006004442] [1.046706494359589:43.515471400938857] [1.9720292523385481:61.228729145193235] [2.1752314570619218:93.687799601156783] [0.3672163873803489:15.970016860039738] [0.55699702891478109:20.57378750905275] [0.58245049771797341:25.700758470980201] [11.096011838247808:217.22818705289589] [7.2195453528128404:140.29137434973049] [5.986364312983973:126.65604363158606] [3.9920682012044635:96.035603605495126] [3.3859013988601259:75.371711834812928] [2.1062297402849506:59.698303695008896] [1.4407987030669676:39.164536464933697] [0.69105646148198541:28.364390011819861] [0.66782683160245748:0.7774518278753042] [0.40177199206156206:0.48130302352085602] [0.25429342629787693:0.33257579516577629] [0.14999252352874134:0.21010885269497176] [0.093213647157357638:0.14721310429826634] [0.056610161185984373:0.091575206099345677] [0.035955772125224557:0.068609462050807979] [0.022308740658268413:0.046070430765465693] [9.7704412016674009:171.77491177065644] [6.2028677651831101:106.22202753171997] [4.4681534975406594:82.310780112203943] [2.9360116451130733:56.476499828045007] [2.0399879854123109:39.881422972193803] [1.3570683968502428:27.439273377338484] [0.63174077803508866:18.068648195073116] [0.34516694898366085:12.389549300770483] [0.49200688070578269:0.69050231284293873] [0.25403172066736196:0.41352451767887399] [0.12410006876197326:0.24823074986336996] [0.066701882631394024:0.15452692869016174] [0.03428995797809968:0.091471478017987384] [0.017284920980806678:0.059002973776097513] [0.0085157373104634282:0.043123419042112629] [0.0042882287638569064:0.032787468866370371] [20.333333333333329:377.99999999999994] [18.926484056281744:354.68020980767631] [18.781280887441486:346.00494463667826] [27.601602330662782:584.96249089584842] [26.803921568627452:564.13725490196089] [26.991999999999997:573.05200000000002] [20.490976047904198:369.67115748502994] [30.229720344928641:659.41089074003355] [0.55208333333333348:1.1182795698924726] [0.50681016360003328:1.1135314220029495] [0.58527827244908903:0.77856972613802722] [0.97631745882574084:1.1038497554885029] [0.93394607843137278:1.0979500891265594] [0.94506249999999992:1.1182727272727275] [0.61353349627276066:1.0300481717416234] [1.099327460192002:1.1806550012170263] none none none none none none none none none none none none none none [123.6970135438367:21946.033236030584] [61.848506771918366:10973.016618015294] [96.110622775686323:17071.633003251212] [123.69701354383672:21946.033236030587] [7.9876428283196104:79.803757221929402] [61.848506771918366:10973.016618015294] [3.810259538656811:16.999300824935304] [0.057624748559102726:0.25401730257712074] [1.743162415309051:6.2175624786112307] [62.703401094029829:5488.5180857522373] [4.1802267396019888:18.605146053397416] [4.5438807981998117:11.994803831676286] none none none none none none [0:15] none [0:58] none [0:3] [1:28] [0:40] none [0:2] [0:44] [1:11] [0:4] [0:4] none [0:12] none [0:4] [0:35] [0:3] [0:1] none [0:2] [0:5] [0:4] none [0:3] none [0:8] [0:42] [0:4] [0:1] [0:9] none none none none none none none none none none none [0:8] [0:2] none [0:2] [0:4] none none none none none none none none none none none none none none none [0:1] none none none none none none none none none none none none none none none [0:21.902964699921512] none [-29.283524547720315:15.423378850435242] none [0:6.2190393808755662] [0.62176965230536663:43.032409584001933] [-77.989666736615362:5.0385868352580792] none [0:6.5877054456111512] [-57.859400890930466:1.2652015621063242] [-8.3480551937480971:9.5685802865956084] [-0.36067913597946055:4.025635080136361] [-22.581367762133176:1.5505437859718478] none [0:72.760394330307349] none [0:32.859928102023567] [0:88.970329697501754] [0:8.9901413203823033] [0:10.248986301276373] none [0:7.2903503631215676] [0:21.905795714163862] [-0.25860690029826472:7.7059590383113044] none [0:4.1118087312085327] none [0:82.270643378571208] [0:629.29800079135134] [0:21.624228724069663] [0:5.9290152031055925] [0:120.68406659309058] none none none none none none none none none none none [0:5.1699958753451964] [0:3.441907239651266] none [-8.0138135392462111:0] [0:24.807690883091155] none none none none none none none none none none none none none none none [0:3.5980211508769409] none none none none none none none none none none none none none none none [0.68913071589293806:2.5038897175856052] none [-2.0976564272228582:1.491193974035681] none [0.78940241644178322:2.3646654500928004] [0.48043698034769466:2.3269291685557363] [-4.1688232358290769:0.99278447270684178] none [1.4666997483511959:3.3442491229101496] [-2.7642597043203398:1.6013970180651158] [-0.59284457147056346:1.4876937102356129] [-0.044205544936064101:1.298583644347568] [-5.7876784700220467:0.70863607758452518] none [4.6128394425963526:6.861037078204717] none [7.5723834669219219:8.3495503588249402] [1.3348920293170834:3.947337462571499] [2.4902962805492566:3.1328174546257976] [8.7419591260139793:10.248986301276373] none [3.7243409636494329:4.8623969593768024] [3.3629978407034686:5.0083211371482648] [-0.25860690029826472:2.6478656688778512] none [0.48448298217868935:2.4184883540858815] none [8.7255775846982999:12.161874784522215] [10.672102382225066:17.492794882586725] [3.7677390224914573:6.7704075202611911] [4.4581349839061151:5.9290152031055925] [12.006774467786617:16.169717954029334] none none none none none none none none none none none [0.51388917707793147:1.9466360676397028] [0.40119506892171719:1.8118143317646156] none [-5.4125912452251947:-2.8736204211542957] [5.5637919685175659:6.861194707275958] none none none none none none none none none none none none none none none [3.0578133068981281:3.5980211508769409] none none none none none none none none none none none none none none none [-0.42602015785908298:2.4167586707224151] none [-2.0976564272228582:1.3098327801046958] none [0.74167958729654004:2.3646654500928004] [0.016863326151295155:2.1110351660561819] [-4.1688232358290769:0.92359103028889233] none [0.9792508760510974:3.243456322701002] [-2.8018396116942013:1.2652015621063242] [-1.7028735197782809:1.383960864232225] [-0.31647359104339645:1.2878244614188534] [-6.1721652271252498:0.70863607758452518] none [4.6128394425963526:6.7366469041320229] none [7.5723834669219219:8.1536446993636158] [1.3348920293170834:3.947337462571499] [2.4902962805492566:3.1245738747432541] [8.7419591260139793:10.248986301276373] none [3.5660093994721347:4.8623969593768024] [3.1852624864043655:4.9831677478245151] [-0.25860690029826472:2.6448057150431339] none [0.48448298217868935:2.4184883540858815] none [8.7255775846982999:11.788689058956916] [10.672102382225066:14.059237449609473] [3.5611284976426281:6.7704075202611911] [4.4581349839061151:5.9290152031055925] [11.906079626632959:15.779004393424037] none none none none none none none none none none none [0.40079518630808497:1.9466360676397028] [0.40119506892171719:1.8118143317646156] none [-5.4125912452251947:-2.8736204211542957] [5.4833730107717686:6.861194707275958] none none none none none none none none none none none none none none none [3.0578133068981281:3.5980211508769409] none none none none none none none none none [239:46556] [7.366666666666668:136.6666666666668] [0.43262786596119945:0.64222222222222214] [0:0.38904899135446686] [0.16162134427911751:0.43853149208487696] [0:0.2034883720930232] [16:292.5] [0.90740740740740744:1.6206896551724137] [9:189.5] [0.55263157894736847:0.71666666666666667] [7:103.5] [0.29629629629629628:0.98275862068965514] [0:4] [0:0.125] [10.33005876577138:909.83851832362348] [0.54847869767758528:3.1362939156285972] [3.5209704894920422:85.94519014293779] [0.16675407728214459:0.34730213996461468] [20.283983056485141:1666.3867056419367] [1.3522655370990093:5.6706462274090939] [7.2195453528128395:140.29137434973075] [0.4487788541916175:0.49494897427831785] [7.9750176281687253:756.54818731831324] [0.53166784187791505:2.5896700834646484] [2.4748379780411041:54.346184206792955] [0.1308601562256092:0.32352919204915176] [0.065744334023559503:7.3104938328035303] [0.0021914778007853168:0.047646710907261504] [0.2806682095602554:8.2408392126423617] [0.016524811134118647:0.057097518123840278] [0:0.14222222222222219] [0:0.067372134038800532] [0.50000000000000022:0.89319727891156442] [0.72666666666666635:1.0943452380952379] [0.43333333333333324:0.45384615384615362] [0.45999999999999963:0.77072310405643607] [0.71290322580645127:1.07027417027417] [0.053164556962025766:0.45648841815207075] [0.011649153486241626:0.1514546244029531] [-0.33455289129047944:-0.01365853658536581] [0:0.13612878787878469] [-92.25:12] [-0.34459459459459457:0.34482758620689657] [0.40494968724503694:0.88244274809160317] [0:0.30905031275496303] none [15.050000000000001:7520.0799999999999] [0.12244897959183673:0.64444444444444449] [2:61] [0:65] [1.1702295713931186:2.3677185856325513] [2.7171793530331425:4.3850961085297087] [3.5790441746305874:5.4776277225911345] [4.1190878183115123:6.7455234420781558] [4.1190878183115123:7.6431272281688276] [4.1190878183115123:8.0297449027887779] [51.605917170956033:993.12362217282134] [86.851029668792563:2174.3480482287819] [112.77232208397686:3151.5728611076293] [124.38196255841368:3865.6084311533991] [124.38196255841368:4370.8349447391092] [124.38196255841368:4596.4361882463963] [0.1876264370520736:0.47792183379339187] [0.40318352093185955:0.82503319231613925] [0.58742576440107319:0.93871273986155157] [0.72034839370370896:0.99190720442355818] [0.75003605268764173:1.0000000000000004] [0.75003605268764173:1.0000000000000004] [0.18408952481592633:0.44194038314357631] [0.39633822171248151:0.76882100590430658] [0.57691581791070279:0.88272556184453754] [0.70503172474776576:0.92443506549554666] [0.72259124242695139:0.93244010091743801] [0.72259124242695139:0.93244010091743801] [2.5864777247543236:7.4457520462811644] [0.89013713254383564:5.4407843049198501] [0.34042553191489322:3.7654202687432585] [0.044444444444445175:2.5573183666385546] [-2.6645352591003757e-15:1.6938637781470822] [-2.6645352591003757e-15:1.3836865535219998] [8.9557636331170549:40.897609371502419] [22.509519787745578:59.319346796551685] [29.519252410247894:63.361798635283236] [32.058669009525765:67.944351520140202] [32.058669009525765:67.989151520140183] [32.058669009525765:67.989151520140183] [50.178554512525054:973.55086798585216] [29.636282035239532:476.41188284937692] [23.804229296672176:295.75039722278058] [21.179229296672176:172.13220766512984] [20.679229296672176:94.104075717317983] [20.679229296672176:71.361818807203534] [13.066666666666666:270.54525777461828] [6.020551649540292:146.77706301346234] [2.6441207075962541:104.23442907019195] [0:1] [0:1] [-29.075717876200006:-2.9343149412333185] [180.15999999999971:3171.2800000000061] [93.68487459019137:1729.4871312322787] [0:310.6116967976381] [0:212.18912894259975] [0:41.856636027919507] [0:75.772734888077949] [0:26.342490286048921] [0:273.88165698430788] [0:310.39796835372027] [0:146.16221398660102] [0:84.114244471405939] [0:205.13025919516653] [0:28.7854783716421] [0:230.38000944470863] [0:22.008002793318781] [0:242.22278088974232] [0:21.637134423166088] [0:215.82333468571125] [0:98.577778525752407] [0:538.47868786326819] [0:130.58881324463582] [16.420171147585439:203.89136938286438] none [0:45.18972774132326] [0:254.89161086616767] [4.9839785209472085:644.83387250378382] [0:230.30641710042912] [0:57.144570700134445] [0:329.69497009187251] [6.0663670684616102:170.38018392953097] [0:20.090533254965305] [0:38.844117173552597] none [0:45.201121703756947] [0:23.389476842590017] [0:691.18777605284333] [0:210.18557002680083] [0:103.25959219757343] [0:68.449739709631046] [0:104.18178715152079] [0:175.191900819349] [0:115.26097430077064] [0:266.17869438312835] [0:90.441144149112318] [0:213.14356757454252] [0:124.57288483095697] [-0.85057694804368222:644.33471098146538] [-0.96699774219892998:189.18565529593465] [-7.5153370041885674:74.380506272926766] [-68.849466424003623:7.6302686890132332] [-49.099741925543945:34.561991936009747] [-18.42109677206691:16.773571711655954] [-3.2931959671088267:15.137420622528255] [-8.0138135392462111:6.3519631087100041] [0.049999999999999989:5.5614980034167045] [0:8.4158700504594854] [0:12.991685075042314] [0.043478260869565223:5.6097757272309963] [0:39.457880140604082] [0:46.985250435487721] [0.73111044570902461:15.349402751987741] [0:21.388281451024842] [0.74236477796114952:6.6877667149135815] [0.052631578947368411:3.0000000000000009] [0:1.7833449474726735] [0.058823529411764705:1.81835357174214] [0.055555555555555566:1.1081141320787207] [0.058823529411764705:4.72760517257261] [0:1.9766210903754473] [0.055555555555555566:1.5810339098676667] [0:4.2529328201324512] [0.090909090909090912:4.9372518748401628] [0.043478260869565223:1.9728230142174732] [29.414481450504539:587.01834881788636] [1.9250633650954641:2.1144971960295282] [4.3065456923787302:202.21070395354695] [0.143551523079291:0.91559544610424615] [19.843657486053122:384.80764486433924] [1.0555127381679301:1.9364795210879835] [1.7012403900696365:108.40468739417592] [0.057905928545078311:0.55559301766942537] [0:87.725478191929781] [0:0.39212756779855584] [0:15.114370765181389] [0:0.42744649555355729] [18:415] [19:504] [23:616] [23:732] [21:783] [15:893] [14:1032] [12:1091] [10:1189] [185:7836] [2.9957322735539909:5.9202370378196143] [3.4812400893356918:6.3460748611644977] [3.8554526539397518:6.6584923164343008] [4.3959911750242542:7.011495733048565] [4.7100931059148703:7.3720787440966555] [4.773329428969542:7.4144505094056168] [4.1510399058986458:7.8237834763971366] [4.1351665567423561:8.3265168302395285] [3.9293716437627593:8.7754577172744259] [3.8038808468084429:9.1838485979197131] [6.4901543285294503:10.176967616449385] [34.219929999999991:617.35083299999712] [13.570069999999998:346.41116699999787] [1:13] [0:3] [0:2] [0:5] [1:7] [0:2] none none none none none [0:3] [0:8] none [0:2] [0:5] [0:4] [0:2] none none none none none [0:3] [1:8] none none [0:3] [1:6] none none none none none none none [0:3] none none [0:3] [0:3] none none none none none none none [0:7] [0:3] [0:2] [0:4] [0:5] [0:2] none none none none none [0:3] [0:5] none [0:2] [0:3] [0:2] [0:2] none none none none none [0:3] [0:3] none none none [0:1] none [0:3] [0:2] [0:1] none [0:1] [0:3] none none none none none [0:3] [0:2] [0:1] none [0:1] [0:2] none none none none none [0:2] [0:1] none none none [0:2] none none none none none [0:2] [0:1] none none none [0:3] none none none [0:1] none [0:3] [0:2] [0:1] none [0:1] [0:3] none none none none none [0:3] [0:2] [0:1] none [0:1] [1:134] [0.033333333333333333:0.47857142857142859] [-21.955760000000311:7.7371000000000052] [64.136100000000027:1095.910900000006] [15.27:1707.4799999999984] [15.27:1940.2799999999982] [3:67] [0.66666666666666696:34.666666666666686] [0.9375:20.791666666666664] [0.53333333333333333:21.053888888888892] [0.2013888888888889:13.250277777777779] [0.14204081632653059:10.557823129251698] [0.10590277777777778:11.01484552154195] [0.082136558327034509:7.8597568657092465] [0.015625:6.5153395061728414] [0:6.8508560350984595] [0.109375:0.43939393939393939] [0.037037037037037056:0.17105263157894737] [0.024709302325581394:0.10096153846153848] [0.020968660968660967:0.066143790849673215] [0.010869565217391306:0.046090277777777772] [0.0083313325330132051:0.03200680272108844] [0.0062996031746031739:0.025015782828282828] [0.0044487636324371015:0.020534139581758624] [0.0036718749999999998:0.020250000000000001] [0:0.017912004443990975] [0.29497907382950123:0.79937886724722751] [9:109] [5:55] [0.75862068965517238:1] [0.43137254901960786:0.5] [210.64000861431191:3970.3467186918083] [4.9068905956085187:9.2620948453701786] [15:307] [4.2046926193909657:7.2758646005465328] [4.9487598903781684:8.0965129175015935] [5.7525726388256331:8.9566087388939497] [6.517671272912275:9.7999586917072712] [7.3362856600212973:10.662492695887538] [8.1116280783077404:11.516469178593594] [8.938662873666118:12.381256287917662] [9.7199852989940112:13.241018921203645] [10.552343184962949:14.107644954096715] [96.082601517459153:698.03782698634848] [3.4339872044851463:6.4216222678065176] [0:2.9444389791664403] [4.6347289882296359:7.7297353313850508] [0:5.0172798368149243] [6.0137151560428022:9.1932959373669245] [0:6.9966814881765389] [7.4949862339505335:10.733152287697589] [0:9.0034391962078377] [9.0361060253648464:12.318306982256141] [45.61352360807296:359.8044215823133] [227.10923316399999:4256.9384735120238] [6.0825484081250156:13.320022192387103] [446:1454824] [16:464] [66:1444] [70:1641] [5.583333333333333:115.02777777777777] [3.583333333333333:66.611111111111143]
tree_sizes=2790 2796 2801 2809 2803 2782 2795 2801 2701 2791 2793 2461 2798 2651 2806 2808 2822 2715 2724 2830 2815 2718 2631 2374 2794 2811 2806 2536 2804 2377 2780 2558 2728 2821 2393 2378 2829 2663 2827 1937 2720 2626 2032 2468 2297 1854 2289 2457 1789 2035 2816 2116 2020 2457 2466 2719 2295 2718 2199 1858 2463 2381 2824 2640 2743 1601 2815 1869 1964 1848 1944 1608 2543 1861 1942 2029 2047 1703 1681 2640 1433 2638 2203 2032 1878 2285 1855 1884 2194 1862 2054 1776 1958 2654 1942 2820 1950 2378 2139 1881 2535 2299 2134 2804 1858 2647 1345 1351 1869 2031 1442 2803 2311 2298 1689 1441 2306 1601 1439 2042 1171 1187 1183 2205 2739 1347 1866 2207 1863 2644 2474 1183 1687 1193 1534 1187 1618 1684 1088 1528 1786 1961 1515 2390 1434 1691 2137 2307 1605 2206 1689 1439 1183 1266 1947 1437 2303 1613 2124 1869 1176 1432 1431 1183 2217 2212 1429 1780 2392 1089 2217 1357 1881 1516 1268 1518 2050 1264 1771 1874 2314 1264 1788 1528 1947 2733 1181 1004 1245 2827 1011 1518 1515 1686 1870 2121 1506 1802 1507 2044 2287 2388 1445 1428 1183 1511 1681 2308 1428 1437 1767 1867 1946 1869 2294 1176 2304 1521 2649 1183 1880 2216 1687 1252 1186 1874 1593 1520 1772 1331 1603 1340 2468 2214 1521 1525 1264 1957 2474 1705 2138 2040 1428 1531 1180 1253 1859 2220 1680 1609 1968 1528 1612 1511 2127 2389 1521 1264 1434 1613 1617 1701 2488 2365 1611 1262 1352 2645 2316 1888 1871 1510 1100 2834 1249 1699 1694 1179 2146 1682 2144 993 1686 1869 1959 1193 1692 1261 1620 1348 1169 2301 2050 1690 2394 1440 2838 1426 1608 921 1423 1883 1876 1542 2459 1775 1442 1603 1358 2129 1522 1972 1434 2048 1435 2058 1361 1343 2233 2025 1526 1337 1714 1265 2311 2318 1773 2814 1780 1171 2278 1100 1600 2304 1694 2627 2210 1780 2219 2033 1599 1437 2111 2141 2473 2135 2296 1447 2636 2216 2850 2558 1263 1429 2382 1174 1356 1785 1955 2065 2130 836 1951 1510 1868 1519 1670 1693 2226 2381 2217 1883 2391 1620 2583 1089 1942 1767 2828 1790 2640 2304 1602 1887 1693 1616 2038 1509 1955 1959 1705 2291 1782 2021 1774 1612 1951 1183 1601 1682 2637 2230 1947 2821 2830 1597 1417 1605 2030 1352 2205 2408 2554 2312 1436 1887 1936 1846 1960 1947 2210 2206 1520 1258 2195 1187 1692 1782 1514 2312 1705 1970 1430 2383 1516 1515 2373 1339 2816 2373 1344 1082 1946 2265 1691 2198

Tree=0
num_leaves=31
num_cat=0
split_feature=324 538 1568 659 608 1266 322 335 1577 461 1198 609 322 1377 1358 1305 832 580 1058 1554 1078 816 5 1411 653 406 345 411 432 146
split_gain=1.23185e+09 3.80438e+08 1.90559e+08 1.72673e+08 1.49292e+08 1.32535e+08 1.04262e+08 9.4716e+07 1.04908e+08 8.77585e+07 8.99297e+07 8.70543e+07 8.48679e+07 8.15802e+07 8.46759e+07 6.88861e+07 6.50194e+07 6.00511e+07 5.79993e+07 5.4939e+07 5.35583e+07 5.13838e+07 4.97567e+07 4.63534e+07 2.71681e+07 2.69644e+07 2.60887e+07 3.90862e+07 2.41196e+07 1.17015e+07
threshold=14.046126692112155 -0.14199431628374903 0.19478319783197837 2.2199210676951155 0.74950494706228865 159.23092308567206 0.8283620718875776 8.5486595440911604 0.0054831868468232106 -0.18531825930294493 3.423234182348176 0.61683288398902592 0.061588332698036562 0.14858024640961739 1.0268544776450936 -6.2643107132539555 0.051124522296957735 0.96045460907993696 0.32106988564164868 2.8790000000000013 4.1745993943376254 3.8716421216677603 38.344822852986987 8.7711308014552127 11.686865980695716 -0.0011459150549601046 -0.0018328277525503803 -0.0035502499282352136 0.22544557979561478 3.8098251959011455
decision_type=2 2 2 2 2 2 2 2 2 2 8 2 2 10 2 2 2 2 8 2 8 2 2 2 2 2 10 2 2 2
left_child=1 7 13 6 15 -5 18 19 -9 21 -11 -10 -13 14 -2 24 -12 -8 -3 -1 29 -6 -21 -22 -4 -20 -15 -28 -24 -7
right_child=2 3 4 5 9 20 17 8 11 10 16 12 -14 26 -16 -17 -18 -19 25 22 23 -23 28 -25 -26 -27 27 -29 -30 -31
leaf_value=1323.6278891163186 1260.9897188071279 1322.1276738082654 1267.571903220035 1324.1559249259717 1248.6532981111295 1251.1005135642774 1360.7745757125624 1355.2032286045846 1344.809742826681 1293.7619245406875 1228.9134154384174 1320.2449414553375 1282.3952505839629 1235.5160192355586 1343.3147843389529 1300.8210972725271 1283.3961734420545 1291.0311734534987 1276.1458096752976 1300.5380070195285 1240.6059007572337 1305.8871752845532 1277.877761317028 1263.0780619969698 1228.7905144980891 1240.5577286483533 1292.4721738158948 1248.9923567929291 1245.1269730849988 1225.039177473692
leaf_weight=21 22 20 37 24 48 20 25 38 37 20 1377 81 156 39 23 39 20 20 66 36 116 20 34 287 29 27 30 49 50 69
leaf_count=21 22 20 37 24 48 20 25 38 37 20 1377 81 156 39 23 39 20 20 66 36 116 20 34 287 29 27 30 49 50 69
internal_value=1253.54 1278.01 1237.81 1263.72 1234.64 1255.32 1291.16 1299.27 1308.49 1232.2 1230.6 1302.01 1295.33 1268.7 1303.07 1269.21 1229.69 1329.78 1275.78 1278.86 1251.96 1265.49 1271.03 1256.61 1250.53 1265.81 1255.59 1265.5 1258.38 1230.9
internal_weight=0 1127 1753 674 1590 516 158 453 312 1485 1417 274 237 163 45 105 1397 45 113 141 492 68 120 403 66 93 118 79 84 89
internal_count=2880 1127 1753 674 1590 516 158 453 312 1485 1417 274 237 163 45 105 1397 45 113 141 492 68 120 403 66 93 118 79 84 89
shrinkage=1


Tree=1
num_leaves=31
num_cat=0
split_feature=1152 538 119 106 628 279 823 779 15 518 220 1347 659 890 275 651 238 538 695 117 452 671 5 501 470 1223 1065 835 273 1144
split_gain=1.28e+09 3.35079e+08 2.00137e+08 1.62289e+08 1.37282e+08 1.10537e+08 1.07071e+08 1.01446e+08 9.9021e+07 9.84935e+07 7.7532e+07 7.33608e+07 6.77839e+07 6.60249e+07 6.38999e+07 6.18059e+07 7.96506e+07 6.59505e+07 5.71847e+07 5.01269e+07 7.15392e+07 4.99584e+07 8.12014e+07 4.11675e+07 3.30608e+07 3.09088e+07 3.08497e+07 2.94051e+07 2.35717e+07 2.33619e+07
threshold=2.391112314251886 -0.14006679223830612 164.93417105697156 644.76045000000011 1.0576943330024509 2269.1046526055484 7.4378005603767852 31.500000000000004 12.55822277905737 -0.084283699110875354 1.4049544477941203 24.416239442038837 2.2372184540753266 6.8634506374587891 -8.2557089317956507 5.6932362060731565 -0.11618058405652522 -0.19369041218999325 332.16263105065531 100.13838500182899 -0.090848298513105094 8.2689152842253026 40.90087043088478 0.20064315701399096 -0.095745133959859383 0.73816520460802681 -0.31797935387423953 10.36041274005605 -20.279046173838861 -0.76607590161995842
decision_type=8 2 2 2 2 2 2 2 2 2 2 2 2 2 2 2 10 2 2 2 10 2 2 2 2 2 10 2 2 8
left_child=5 2 4 6 13 24 7 -3 11 -8 -9 -6 19 18 -10 16 26 -18 -2 20 -5 22 25 27 -1 -7 -4 -23 -11 -29
right_child=1 3 15 12 8 21 9 10 14 28 -12 -13 -14 -15 -16 -17 17 -19 -20 -21 -22 23 -24 -25 -26 -27 -28 29 -30 -31
leaf_value=48.351363492693217 35.961828929185863 78.509680715560904 -27.815735157557896 60.966616682572791 60.550242226261361 12.734834224155971 93.825362341403959 18.775721897761027 73.834231576358562 47.633045989445272 -18.24399993372635 6.5913068113655875 -21.592434475127966 83.516537120819081 135.00394115794788 -22.625413167069595 6.1838906335830686 61.5571002633231 2.8237120795616732 -17.075428774603481 4.491838416002234 9.8309934539794916 45.978750749067828 6.3909781138102213 2.4290096575714819 -22.188781336342416 10.988382671144274 -32.817089579403394 3.6718493917713992 -23.592425063554664
leaf_weight=21 168 20 28 22 104 28 32 180 51 21 71 29 146 20 22 41 32 49 65 87 245 20 22 36 43 123 54 384 23 693
leaf_count=21 168 20 28 22 104 28 32 180 51 21 71 29 146 20 22 41 32 49 65 87 245 20 22 36 43 123 54 384 23 693
internal_value=0 19.0503 35.0234 6.54707 46.0119 -20.997 22.3103 13.4852 64.1942 53.7784 8.30401 48.7848 -4.39258 31.2073 92.2689 10.2994 18.5811 39.6813 26.7173 2.70114 9.14519 -22.8834 -7.8677 -25.1762 17.4973 -15.7129 -2.2618 -26.2121 24.6533 -26.8814
internal_weight=0 1510 663 847 459 1370 347 271 206 76 251 133 500 253 73 204 163 81 233 354 267 1306 173 1133 64 151 82 1097 44 1077
internal_count=2880 1510 663 847 459 1370 347 271 206 76 251 133 500 253 73 204 163 81 233 354 267 1306 173 1133 64 151 82 1097 44 1077
shrinkage=0.03


Tree=2
num_leaves=31
num_cat=0
split_feature=279 538 1144 684 552 659 527 569 602 1163 381 1278 528 1397 552 311 608 467 168 1078 513 645 186 618 1355 460 764 538 570 510
split_gain=1.03378e+09 3.2629e+08 2.80013e+08 1.39989e+08 1.26003e+08 1.28656e+08 1.10643e+08 1.14662e+08 8.67781e+07 8.41141e+07 8.06203e+07 7.97514e+07 8.65645e+07 1.04055e+08 7.72288e+07 7.51196e+07 6.63556e+07 6.04069e+07 5.8961e+07 5.13425e+07 5.1503e+07 5.09176e+07 4.76924e+07 4.49702e+07 4.23632e+07 4.05209e+07 4.02525e+07 3.82157e+07 4.00395e+07 3.79892e+07
threshold=2389.3354769533394 -0.1431983803707991 -0.54231832976314076 8.1258883030553779 0.79559420065232589 2.2199210676951155 -0.066925612453664421 0.91907497481868561 0.6043422944217306 12.733631521486515 -0.99464181831367859 0.75816692599546032 0.19716023170537314 150.50000000000003 0.85306185087823272 -2.5007091239669355 0.77263137565345219 -0.052258393776046796 19.784325787401578 4.1745993943376254 0.17796686173245571 0.64422850477815918 178.34914219520559 0.73737329323450262 -0.62893703859595906 -0.10436028085659789 2.3096465440744498 -0.2115167988142467 0.57055169929133853 -0.068540430464233124
decision_type=2 2 10 2 10 2 2 2 2 10 2 2 2 2 10 2 2 2 2 8 2 2 2 2 2 2 2 2 2 2
left_child=1 6 3 9 5 15 11 14 26 21 -7 -1 13 -13 -8 -3 17 -5 22 -6 24 23 25 -2 -21 -10 -4 28 -9 -29
right_child=2 4 8 16 19 10 7 27 18 -11 -12 12 -14 -15 -16 -17 -18 -19 -20 20 -22 -23 -24 -25 -26 -27 -28 29 -30 -31
leaf_value=18.698328603744503 -14.020947802234703 103.45989324588776 -18.830509517618587 51.642685707092284 -15.513928982994772 63.812765327453604 111.97923522949219 60.192741058452711 6.3968583025251116 59.771499637256966 -3.207401199681418 105.30225227463413 16.954315883091517 45.276037344583649 37.787914458683552 40.560789741939971 -23.593874495012852 -13.715001708984374 78.962385346785837 25.121566200256346 51.155826147328256 41.670668062482562 -5.791944087982178 33.014305899483816 0.21283145877802481 57.642259840616362 24.714094588181066 36.886088829040524 11.613760440532978 1.8268292447709544
leaf_weight=30 142 25 56 20 110 20 23 37 21 22 84 71 21 41 28 54 1293 35 23 76 23 21 30 21 321 41 29 39 26 97
leaf_count=30 142 25 56 20 110 20 23 37 21 22 84 71 21 41 28 54 1293 35 23 76 23 21 30 21 321 41 29 39 26 97
internal_value=0 22.4329 -14.401 -18.7012 10.142 31.6044 43.6518 31.1137 19.0112 4.33196 9.68109 62.882 72.8483 83.3284 71.2467 60.4656 -22.2211 10.0514 36.0004 2.73134 7.50986 -2.29669 25.2599 -7.96119 4.98125 40.2849 -3.97412 20.8284 40.1443 11.8806
internal_weight=0 1126 1754 1554 713 183 413 250 200 206 104 163 133 112 51 79 1348 55 115 530 420 184 92 163 397 62 85 199 63 136
internal_count=2880 1126 1754 1554 713 183 413 250 200 206 104 163 133 112 51 79 1348 55 115 530 420 184 92 163 397 62 85 199 63 136
shrinkage=0.03


Tree=3
num_leaves=31
num_cat=0
split_feature=324 442 1073 243 1334 462 1087 609 457 1572 1405 1407 651 839 1281 329 628 319 1248 999 117 1217 292 247 346 1305 570 523 808 488
split_gain=1.03085e+09 2.97205e+08 1.89289e+08 1.51538e+08 1.29258e+08 1.27328e+08 1.25071e+08 1.09218e+08 9.68579e+07 8.28132e+07 7.88944e+07 7.07687e+07 6.29927e+07 6.80485e+07 6.30578e+07 6.13902e+07 5.95556e+07 6.16784e+07 5.56856e+07 5.46558e+07 4.74639e+07 5.10485e+07 4.19134e+07 4.31694e+07 4.0061e+07 4.88027e+07 2.77434e+07 2.476e+07 2.45359e+07 2.18464e+07
threshold=14.046126692112155 -0.28319432393867655 2.3781552104508621 168.74883720930231 36.618421255387581 -0.038020110953473664 14.490087123749868 0.61683288398902592 0.18384121307161969 0.018258131108864175 5.8674413439375392 7.4837363321243036 5.6893105204907615 2.8208678122629389 0.89030371675501219 -0.52798238249694385 1.0888325127441381 -1.4009510895101405 0.019127356329737225 4.1730585802451792 77.383267787281994 0.68559907834101386 1584.4381748519154 -115.59999344090252 -0.0028887312456280932 -6.5308708282274655 0.57623984330639477 0.32348274037636648 1.2414499508538754 -0.072076177127707267
decision_type=2 2 8 2 2 2 10 2 10 2 2 2 2 2 2 2 2 2 2 2 2 2 2 2 10 2 2 2 2 2
left_child=1 5 22 15 6 7 11 8 -1 -9 -11 18 13 19 -15 -3 20 -18 -4 -5 26 -22 23 27 25 -25 -7 -2 -6 -13
right_child=2 3 4 12 28 16 -8 9 -10 10 -12 29 -14 14 -16 -17 17 -19 -20 -21 21 -23 -24 24 -26 -27 -28 -29 -30 -31
leaf_value=128.887015109592 -16.392197729257436 25.539442188262939 29.621506979696928 -17.808279673544209 5.8398498242241992 18.110981279821956 -20.694091950438239 91.476991187504353 41.782472880363457 -4.0401158936818442 43.83683301980431 -30.201825539271034 -17.804160436072518 3.2040223835195811 63.9990453563017 99.870592769622803 24.347121567597259 88.718276301792685 4.9264220841290198 9.671312671355258 -7.1341572705437155 37.384202481269831 9.1594462076822918 -19.163512071060804 -28.843022625232656 25.899341278076172 60.238904113769529 26.338916493291439 -28.662605475659642 2.0115759601593015
leaf_weight=27 26 20 188 89 21 34 132 28 20 36 222 36 112 28 34 20 37 21 146 243 102 30 36 219 703 24 24 23 159 40
leaf_count=27 26 20 188 89 21 34 132 28 20 36 222 36 112 28 34 20 37 21 146 243 102 30 36 219 703 24 24 23 159 40
internal_value=0 22.3847 -14.3911 6.49269 -2.61086 37.3194 4.7042 49.4393 91.8213 42.4744 37.1563 12.8812 2.04902 7.69257 36.5432 62.705 21.0455 47.6539 18.8266 2.3048 12.9229 2.98365 -22.6407 -23.7912 -25.2134 -14.7129 35.5432 3.66526 -24.6373 -13.2474
internal_weight=0 1127 1753 546 722 581 542 333 47 286 258 410 506 394 62 40 248 58 334 332 190 132 1031 995 946 243 58 49 180 76
internal_count=2880 1127 1753 546 722 581 542 333 47 286 258 410 506 394 62 40 248 58 334 332 190 132 1031 995 946 243 58 49 180 76
shrinkage=0.03


Tree=4
num_leaves=31
num_cat=0
split_feature=324 334 558 9 243 476 659 1144 1297 131 1119 651 547 569 1083 1343 530 240 500 1376 585 337 401 457 578 1354 432 1251 430 217
split_gain=9.69926e+08 2.78483e+08 1.67438e+08 1.63167e+08 1.51266e+08 1.11609e+08 1.08045e+08 9.66824e+07 7.87835e+07 7.64434e+07 7.34128e+07 7.28692e+07 1.02322e+08 7.15912e+07 7.038e+07 9.04429e+07 6.99406e+07 6.4799e+07 6.12725e+07 5.70044e+07 4.83405e+07 4.43688e+07 4.33613e+07 4.03329e+07 3.60583e+07 3.30116e+07 3.84223e+07 3.13999e+07 3.10992e+07 3.01432e+07
threshold=14.046126692112155 -14.762982130933695 0.96713773717867768 1.3037870370622142 168.74883720930231 0.027445926849671533 2.2199209234794171 -0.57637182303765677 24.964712185152454 19856.904036602398 3.3834786537660428 5.6727431033909763 0.7131327918346938 0.93374764651399011 9.8253413329133625 23.278436779960561 -0.097728599761450194 -0.025410745733152437 -0.064694740455327512 1.3213542775455125 0.91897279252417396 9.745002279934269 0.5348288691327393 0.048286907732988882 0.75652342061463596 0.022587214473867582 0.22323708667081921 0.54402621485320901 0.00017337516414276202 1.7999953794153234
decision_type=2 2 2 2 2 2 2 10 2 2 8 2 10 2 8 2 2 10 2 8 2 2 2 10 2 2 2 2 2 2
left_child=1 2 13 7 19 6 18 10 -8 17 -2 12 -12 28 15 22 -7 -5 -4 -3 21 -9 -6 24 27 -15 -27 -11 -1 -16
right_child=3 4 5 9 14 16 8 20 -10 23 11 -13 -14 25 29 -17 -18 -19 -20 -21 -22 -23 -24 -25 -26 26 -28 -29 -30 -31
leaf_value=67.271787283761157 35.874298836844304 91.720293771494994 51.908357474987319 63.377657194395326 -15.654866772163203 129.36358952113559 90.589054344177242 8.4987308027937605 28.664374308936448 27.244624821589543 57.826653717041012 -24.3544732591116 -12.346331926981607 33.318816331432714 24.953752169115791 63.477171720616951 62.037969920693371 -2.6018484933035713 120.80637673514229 24.173257786143907 -8.9095298204683271 63.958965465545653 35.117995805740357 -23.362546860052614 37.421248676300046 34.3074312027641 -8.2628860580921177 -11.851157950758934 20.191607322692871 -6.8300936556749106
leaf_weight=28 21 23 26 37 41 21 20 37 245 26 20 1067 288 31 29 34 41 21 21 22 73 20 24 49 30 23 112 64 23 363
leaf_count=28 21 23 26 37 41 21 20 37 245 26 20 1067 288 31 29 34 41 21 21 22 73 20 24 49 30 23 112 64 23 363
internal_value=0 21.7132 35.9151 -13.9594 6.05395 48.0783 40.7728 -17.4894 33.3379 9.77134 -19.7937 -20.644 -7.78964 14.9517 1.22921 23.8304 84.8418 39.4885 82.6926 58.6973 7.25567 27.9585 3.09204 -0.427463 8.9377 5.40067 -1.01017 -0.556821 46.0395 -4.47874
internal_weight=0 1127 591 1753 536 374 312 1526 265 227 1396 1375 308 217 491 99 62 58 47 45 130 57 65 169 120 166 135 90 51 392
internal_count=2880 1127 591 1753 536 374 312 1526 265 227 1396 1375 308 217 491 99 62 58 47 45 130 57 65 169 120 166 135 90 51 392
shrinkage=0.03


Tree=5
num_leaves=31
num_cat=0
split_feature=1152 538 119 107 628 836 528 14 518 395 332 254 46 1146 659 417 1083 747 653 1152 666 355 440 341 1367 1556 697 250 671 292
split_gain=1.02e+09 2.71042e+08 1.62704e+08 1.26739e+08 1.18209e+08 1.10462e+08 1.07633e+08 1.01859e+08 8.47317e+07 8.02272e+07 7.75171e+07 7.21727e+07 6.20289e+07 6.01368e+07 5.7554e+07 5.74268e+07 5.54209e+07 5.3263e+07 4.80427e+07 5.396e+07 7.15277e+07 4.54641e+07 4.10934e+07 3.37875e+07 3.03965e+07 3.02896e+07 5.06697e+07 4.25473e+07 2.8467e+07 2.73892e+07
threshold=2.391112314251886 -0.14006679223830612 164.93417105697156 599.54585000000009 1.0576943330024509 8.3609567353938736 0.068403105538696732 409.11703187827561 -0.049781794848920834 4.4284349817593283 -0.56402377752885602 -9.6942666448589012 251.50000000000003 0.37747801086432992 2.2372184540753266 -0.020079186035181693 9.7847479522860059 387.93666673360781 11.701094738526786 2.438477542886452 1.1946164702983773 -0.79136933460890113 -0.024892755086328096 -30.885350299712826 6.5765170621214999 114.97000000000003 11.355610006553471 -77.739313845525956 7.999641529089522 1584.4381748519154
decision_type=8 2 2 2 2 2 2 2 2 2 2 2 2 10 2 2 8 2 2 10 2 2 2 2 2 2 2 2 2 2
left_child=5 2 4 6 12 13 11 10 -9 -8 -6 -3 17 -1 16 -13 -5 -2 19 24 -21 23 -18 28 -4 29 27 -27 -7 -23
right_child=1 3 18 14 7 21 9 8 -10 -11 -12 15 -14 -15 -16 -17 22 -19 -20 20 -22 25 -24 -25 -26 26 -28 -29 -30 -31
leaf_value=-0.054014274358749392 32.21781364279947 53.322343102801931 28.185318129966998 47.03203158834706 67.411245447968781 -9.6622634124755855 82.5156494058145 54.432477713690858 128.28364384618297 15.208875436101641 24.263435135383109 42.600437131609233 71.433663733555719 58.931940825326102 -20.771023763910037 1.6585157973609836 25.339792330278591 0.75134220967973975 -12.95324094956921 82.052398701543382 13.9481198387146 -25.416658332149797 -6.148331062725612 -23.150456412179128 -9.7717502897435971 47.852533405848909 -19.677334527196109 -12.537104753766741 34.172910171508782 1.5940080479213168
leaf_weight=60 157 33 29 23 73 24 37 27 29 28 77 35 26 21 143 259 44 70 62 23 35 975 245 35 55 21 148 21 30 35
leaf_count=60 157 33 29 23 73 24 37 27 29 28 77 35 26 21 143 259 44 70 62 23 35 975 245 35 55 21 148 21 30 35
internal_value=0 17.0058 31.3718 5.7606 41.2795 -18.7436 18.2631 58.1515 92.6768 53.522 45.262 11.2545 27.5418 15.2386 -5.01079 6.53255 2.21265 22.5145 9.07949 18.6994 40.955 -20.879 -1.35429 -0.190708 3.33248 -22.4134 -11.4243 17.6577 14.6906 -24.4806
internal_weight=0 1510 663 847 459 1370 392 206 56 65 150 327 253 81 455 294 312 227 204 142 58 1289 289 89 84 1200 190 42 54 1010
internal_count=2880 1510 663 847 459 1370 392 206 56 65 150 327 253 81 455 294 312 227 204 142 58 1289 289 89 84 1200 190 42 54 1010
shrinkage=0.03


Tree=6
num_leaves=31
num_cat=0
split_feature=1152 1385 659 72 327 1231 1325 453 459 836 601 528 551 547 547 222 230 658 210 1557 339 476 1396 710 824 337 292 547 1402 1223
split_gain=9.59716e+08 2.65118e+08 1.95333e+08 2.18891e+08 1.1798e+08 1.09861e+08 1.04385e+08 1.08491e+08 1.5947e+08 1.03934e+08 9.10195e+07 7.44359e+07 6.90307e+07 5.78178e+07 5.43538e+07 5.33126e+07 5.31595e+07 5.25628e+07 5.34299e+07 4.47227e+07 4.32246e+07 4.20963e+07 3.93059e+07 3.45651e+07 4.63094e+07 2.48947e+07 2.46157e+07 2.38603e+07 2.0718e+07 2.06107e+07
threshold=2.391112314251886 12.016868658522743 2.2199229206701498 6549.9955395241986 -3.5138608458444502 1.1034685881076578 39.814954689013071 -0.067476348610830045 -0.014237153462813323 8.3609567353938736 1.1176126808578017 0.055841674383196496 1.1462262271078985 0.81513998320783243 0.94649958979718163 1.3352862743232836 163.22654238119688 3.4891675407050085 6.4476397203947373 124.57500000000002 -41.486698007408286 0.020451020701212599 178.50000000000003 9.1500096063779903 5.8286319322702793 -16.90067379593091 1584.4381748519154 0.69717251948850367 4.3323753778869269 0.74832217000654389
decision_type=8 2 2 2 2 2 2 10 2 2 2 2 10 10 10 2 2 2 2 2 2 2 2 2 2 2 2 10 2 2
left_child=9 2 3 5 12 15 7 13 -9 14 22 -7 -3 -4 29 -2 17 -6 -19 26 -21 25 -5 24 -22 -18 27 -11 -8 -1
right_child=1 4 6 10 16 11 28 8 -10 19 -12 -13 -14 -15 -16 -17 21 18 -20 20 23 -23 -24 -25 -26 -27 -28 -29 -30 -31
leaf_value=15.983749534716972 3.5439493773704349 57.230908408531768 25.578349623599294 11.29940432476443 -21.570887006676713 52.172757449679906 2.6475957364302416 103.40174047851562 15.641311069307745 7.5332612500871932 53.392715755462646 108.83807624816895 121.89670482635498 -6.3821413708500181 48.592057379313879 43.430142011736876 11.270783855438232 63.155601476033524 6.6284502141615924 31.750180794852117 -16.870727767944334 86.889410394755274 -17.140305790418989 -17.959087956273279 44.939659561157221 55.790429710975062 1.1642057291666665 -24.795388893319778 -27.209144414028273 -21.439077640109591
leaf_weight=26 43 39 59 86 23 54 26 20 273 21 30 34 24 373 28 101 20 27 34 21 24 22 89 215 20 26 36 952 107 27
leaf_count=26 43 39 59 86 23 54 26 20 273 21 30 34 24 373 28 101 20 27 34 21 24 22 89 215 20 26 36 952 107 27
internal_value=0 16.4956 11.3736 27.6995 47.3465 47.658 3.05846 7.54027 21.6318 -18.1813 5.11241 74.0662 81.8655 -2.01717 14.7815 31.5197 33.0393 17.0766 31.6487 -20.2526 -9.64484 52.7579 -3.16422 -13.0012 11.2249 36.4341 -23.1963 -24.0976 -21.3725 -3.08071
internal_weight=0 1510 1295 437 215 232 858 725 293 1370 205 88 63 432 81 144 152 84 61 1289 280 68 175 259 44 46 1009 973 133 53
internal_count=2880 1510 1295 437 215 232 858 725 293 1370 205 88 63 432 81 144 152 84 61 1289 280 68 175 259 44 46 1009 973 133 53
shrinkage=0.03


Tree=7
num_leaves=31
num_cat=0
split_feature=324 538 9 659 1265 556 618 430 1144 639 480 671 691 1316 566 385 247 449 1370 1572 653 590 246 1137 1340 12 434 988 547 298
split_gain=8.09065e+08 2.62937e+08 1.37655e+08 1.25413e+08 9.59845e+07 9.07379e+07 1.01644e+08 8.12348e+07 8.01078e+07 7.42771e+07 8.76102e+07 6.30487e+07 8.39662e+07 6.20096e+07 6.07138e+07 5.90178e+07 8.22662e+07 5.43849e+07 4.79549e+07 4.77185e+07 4.6633e+07 4.89405e+07 4.24788e+07 4.02445e+07 3.66843e+07 7.60147e+07 3.73432e+07 3.18381e+07 3.16675e+07 2.82345e+07
threshold=14.046126692112155 -0.14260797938640699 1.3070920662565186 2.2199210676951155 127.56970476561847 1.0711942176352893 0.60167208901151292 0.010561844134935576 -0.57637182303765677 1.0767368366120136 -0.036659250736224828 8.2394160940376437 6.6720166587978538 17.12480959728757 1.2275057107187055 0.23305550041270093 -55.398398815308425 -0.22764140146106046 0.59684193753832526 0.021000670379537956 11.701266873884078 0.85860275127563568 -34.782827336616911 0.31320930386198459 5.8147500848596385 0.14813157358078197 -0.0036193888159711993 1.2306688016513789 0.7196739067717316 -0.39691969723735793
decision_type=2 2 2 2 2 2 2 2 10 2 2 2 2 2 2 2 2 2 8 2 2 2 2 8 2 2 2 2 8 2
left_child=1 5 8 7 -5 6 -1 23 11 10 -8 12 28 -10 -13 17 -17 -4 -15 -11 21 -6 -9 29 25 -7 -27 -19 -2 -3
right_child=2 3 15 4 20 24 9 22 13 19 -12 14 -14 18 -16 16 -18 27 -20 -21 -22 -23 -24 -25 -26 26 -28 -29 -30 -31
leaf_value=15.332062056014934 24.304606693267822 17.295704544067384 42.490240949547804 62.258946866122152 22.302496010191895 69.89833259142361 78.55098146152497 39.108617286682126 -10.64869782447815 122.69930761163886 35.128371206366502 -20.925098632199752 45.13327529907226 8.0745846418900928 29.351550292968749 8.1607859736851278 82.193542752807787 -22.859084704352206 65.255481578707688 58.672309478759765 -17.463659520036593 -2.7492866579677222 98.307456024169909 5.3240424370295125 -12.742995742271686 44.132325751564721 -1.7712857229956265 8.9275311631976422 -16.677186731100083 67.705104171752936
leaf_weight=72 20 20 23 22 94 26 60 24 78 22 138 1242 30 33 22 35 22 61 22 20 127 277 20 76 29 22 58 53 112 20
leaf_count=72 20 20 23 22 94 26 60 24 78 22 138 1242 30 33 22 35 22 61 22 20 127 277 20 76 29 22 58 53 112 20
internal_value=0 19.8311 -12.7493 8.08249 0.935951 37.7036 46.5946 31.3087 -15.7149 55.9734 48.2867 -17.7917 -0.171324 6.55251 -20.05 11.082 36.7348 0.408982 30.9469 92.2103 -1.7731 3.59807 66.0172 18.1435 17.1555 25.3352 10.8522 -8.0811 -10.4678 42.5004
internal_weight=0 1127 1753 680 520 447 312 160 1559 240 198 1426 162 133 1264 194 57 137 55 42 498 371 44 116 135 106 80 114 132 40
internal_count=2880 1127 1753 680 520 447 312 160 1559 240 198 1426 162 133 1264 194 57 137 55 42 498 371 44 116 135 106 80 114 132 40
shrinkage=0.03


Tree=8
num_leaves=30
num_cat=0
split_feature=836 538 9 552 607 566 336 657 1061 1346 716 580 356 428 566 243 1385 515 1119 449 305 367 118 1603 364 1223 138 1137 798
split_gain=6.83942e+08 2.16965e+08 1.58131e+08 1.14336e+08 1.05891e+08 1.04404e+08 1.03314e+08 1.25408e+08 1.12531e+08 9.11801e+07 9.38052e+07 9.1265e+07 8.61104e+07 8.325e+07 7.3952e+07 7.21569e+07 6.8146e+07 7.41928e+07 6.35796e+07 5.71814e+07 5.22939e+07 5.16428e+07 4.27138e+07 3.79024e+07 3.54357e+07 3.45927e+07 2.89016e+07 2.51857e+07 1.38133e+07
threshold=8.6338589501786469 -0.14006679223830612 1.3070920662565186 0.76404801711409254 0.55615358075614563 0.90044597423185546 -47.628458321386063 2.4154360396219663 1.7715776522886169 17.934205097334274 247.81187706696008 0.97624560315163056 -0.29678237457957729 -0.0027945058952957001 1.2275057107187055 175.98846153846156 12.381565579390067 0.018876615203897908 3.3834786537660428 -0.56427014704391387 -0.24603623349654971 0.016121124769658615 95.301709793000057 7.7634431376293502 -0.013967062005436051 0.7422947824707663 6.1981318870523427 0.39781083904694664 0.74723516313690708
decision_type=2 2 2 10 2 2 2 2 2 2 2 2 2 2 2 2 2 2 8 2 2 2 2 2 2 2 2 8 2
left_child=1 6 4 5 26 -3 8 12 -1 28 11 -11 -8 -10 18 20 17 -9 -6 -20 -5 -18 -14 24 -17 -7 -2 -12 -4
right_child=2 3 9 15 14 25 7 16 13 10 27 -13 22 -15 -16 23 21 -19 19 -21 -22 -23 -24 -25 -26 -27 -28 -29 -30
leaf_value=5.7765519428253178 6.4132331711905337 76.349300957757066 0.36473653385639188 6.4924428771972655 36.091443695068357 41.513479564500891 108.25944437547163 41.927834506034849 50.548125705203496 15.646029189053703 19.840063916444777 83.302355078647011 77.259333299909315 116.62691772222519 33.056596730550133 -12.073766933156817 62.51035619909112 -0.098905351349477019 10.926645706176757 -18.97428227060427 69.173073637589155 9.1814916625389671 26.964728838833896 29.080392887809058 4.5097791250582731 -5.1012148385298879 55.61662659384988 -21.528213577270506 -29.198839485862035
leaf_weight=24 21 37 25 25 20 23 22 48 37 34 26 38 21 32 27 244 44 178 60 1416 23 26 55 33 221 38 22 27 33
leaf_count=24 21 37 25 25 20 23 22 48 37 34 26 38 21 32 27 244 44 178 60 1416 23 26 55 33 221 38 22 27 33
internal_value=0 18.1802 -11.7563 6.75387 -14.84 36.5907 33.2901 26.577 61.731 14.6316 29.0563 51.3535 55.992 81.1934 -16.1508 1.39855 16.8382 8.82713 -17.0389 -17.7588 36.5269 42.7025 40.8619 -1.98732 -4.19212 12.4748 31.5871 -1.23434 -16.4559
internal_weight=0 1131 1749 644 1566 98 487 394 93 183 125 72 98 69 1523 546 296 226 1496 1476 48 70 76 498 465 61 43 53 58
internal_count=2880 1131 1749 644 1566 98 487 394 93 183 125 72 98 69 1523 546 296 226 1496 1476 48 70 76 498 465 61 43 53 58
shrinkage=0.03


Tree=9
num_leaves=31
num_cat=0
split_feature=1152 1385 659 72 147 327 404 1383 1000 229 1602 270 318 551 404 6 470 230 658 210 808 468 393 545 585 792 470 1273 237 309
split_gain=8.15522e+08 2.25437e+08 1.69845e+08 1.86821e+08 1.06674e+08 1.03445e+08 9.77583e+07 8.7308e+07 8.76031e+07 8.17369e+07 8.10833e+07 7.50937e+07 6.8947e+07 6.23982e+07 5.88631e+07 5.19538e+07 7.18317e+07 4.68518e+07 4.91973e+07 4.91887e+07 4.62173e+07 4.45396e+07 4.32489e+07 3.28652e+07 3.32175e+07 3.79045e+07 2.91191e+07 2.24594e+07 3.35827e+07 2.05506e+07
threshold=2.391112314251886 12.016868658522743 2.2199229206701498 6549.9955395241986 3.2571168375607127 -3.4829049877842211 -3.2869696204775098 35.931803755086307 1.8457148368606704 156.00632593328183 8.6280187304812266 493.38974358974366 -0.81359245303406602 1.1462262271078985 0.43970177306932617 2.4195577921931366 -0.010282850540252093 163.22654238119688 3.4891675407050085 6.4476397203947373 0.77506459363072222 -0.085748095806903166 -1.0156584483845086 -0.10695527815260641 0.94836813595760283 0.18898809523809526 -0.095745133959859383 0.96376031106078053 0.069176136646797767 -0.89935599841273361
decision_type=8 2 2 2 2 2 2 2 2 2 2 2 2 10 2 2 2 2 2 2 2 2 2 2 2 2 2 2 10 2
left_child=11 2 3 4 22 13 -5 -4 9 -9 -10 26 -6 14 -3 16 -13 18 -7 -20 -19 -8 -2 24 25 -17 -1 -25 -29 -22
right_child=1 5 7 6 12 17 21 8 10 -11 -12 15 -14 -15 -16 23 -18 20 19 -21 29 -23 -24 27 -26 -27 -28 28 -30 -31
leaf_value=42.640667578957299 40.426972404479976 89.065511100769044 55.820440606011282 64.588972299749202 74.58869935574738 -22.206964356795602 -10.296419116812693 38.937716528285634 57.824150432239875 -9.8824453086523132 8.1779340818027659 53.904029039655413 35.079918249607083 113.86027541160583 16.2803422164917 -6.0644718153933255 -18.950358194811592 81.113611669921866 59.511241683959959 5.2739927269430718 50.57974306379046 25.199932154678717 -7.2234930138587945 -23.880310081133082 -16.778117083095061 43.246086090087886 0.36947311780669473 -21.352102170172536 5.0242675047287566 8.6097151674543095
leaf_weight=22 30 20 27 22 92 23 142 33 33 477 288 21 70 24 20 47 29 25 27 34 21 41 40 842 149 20 44 131 65 21
leaf_count=22 30 20 27 22 92 23 142 33 33 477 288 21 70 24 20 47 29 25 27 34 21 41 40 842 149 20 44 131 65 21
internal_value=0 15.206 10.4829 25.7064 44.1449 43.6546 4.83933 2.72915 1.00416 -6.72349 13.2818 -16.7599 57.517 75.6182 52.6729 -18.34 11.6485 30.1071 15.1828 29.2806 48.8182 -2.34368 13.1981 -19.5357 -8.88911 8.6551 14.4599 -21.7512 -12.6048 29.5947
internal_weight=0 1510 1295 437 232 215 205 858 831 510 321 1370 162 64 40 1304 50 151 84 61 67 183 70 1254 216 67 66 1038 196 42
internal_count=2880 1510 1295 437 232 215 205 858 831 510 321 1370 162 64 40 1304 50 151 84 61 67 183 70 1254 216 67 66 1038 196 42
shrinkage=0.03


Tree=10
num_leaves=31
num_cat=0
split_feature=324 538 1234 659 336 657 582 608 88 310 322 429 327 1385 438 671 69 1079 643 523 1345 387 1058 296 1593 637 1067 598 343 1371
split_gain=6.81608e+08 2.23411e+08 1.07264e+08 1.05631e+08 9.7753e+07 8.88194e+07 8.86942e+07 8.54058e+07 8.43825e+07 7.66558e+07 7.18622e+07 6.84923e+07 9.57324e+07 6.07537e+07 5.73407e+07 5.30304e+07 8.09474e+07 5.20633e+07 5.00043e+07 4.92853e+07 4.31414e+07 5.80985e+07 4.27252e+07 4.15568e+07 4.14075e+07 3.65525e+07 3.54113e+07 3.09677e+07 2.92597e+07 2.75734e+07
threshold=14.046126692112155 -0.14260797938640699 0.48833745811846901 2.2199210676951155 -47.628458321386063 2.4154360396219663 1.0263911527207441 0.74950494706228865 12346.357594643927 -1.4220534779932248 0.8283620718875776 -0.0072516603042138122 -0.93713834604390256 12.876345617444427 -0.008316323076077067 8.3781706118256523 3008.5000000000005 1.5663162594647084 -0.47655372213079222 0.01396613321980158 31.692936190796278 36.771556801567051 0.32106988564164868 514.34239413906937 11.608071988035272 1.0148526119564214 0.64321386579323114 0.96885304338985201 -0.011529341238888895 0.23641424034742672
decision_type=2 2 2 2 2 2 2 2 2 2 2 2 2 2 2 2 2 8 10 2 2 2 8 2 2 2 10 2 10 8
left_child=1 4 11 10 9 6 28 17 -5 14 22 12 23 19 -1 16 27 -4 -12 -7 24 -22 -3 -2 -10 -15 -19 -9 -6 -17
right_child=2 3 7 8 5 13 -8 15 20 -11 18 -13 -14 25 -16 29 -18 26 -20 -21 21 -23 -24 -25 -26 -27 -28 -29 -30 -31
leaf_value=76.890667375133887 -3.6917503474308893 55.964747428894043 56.596171206951141 59.72340999058315 59.453259944915771 43.465650979757307 91.867827529907217 -21.20931936825378 -6.1926590672277912 115.22544085693359 27.021475219726561 -7.9561164520782164 82.209831536032937 79.148462885076356 19.641743245124815 -0.6809483979877673 54.665275006975449 -15.806728105545043 90.410766525268542 6.8103651431250194 64.37101052856444 -7.9398900074958796 7.7216033206738928 45.494652900695797 37.946070190429687 23.111024642944336 27.295283376759496 5.7986746115297887 15.328676757310566 -19.308484977311764
leaf_weight=31 52 20 20 21 21 40 34 79 439 20 21 103 22 22 32 76 21 42 24 189 20 20 95 22 20 20 29 74 38 1213
leaf_count=31 52 20 20 21 21 40 34 79 439 20 21 103 22 22 32 76 21 42 24 189 20 20 95 22 20 20 29 74 38 1213
internal_value=0 18.2021 -11.7021 7.37252 34.6766 27.9774 53.2743 -14.3577 0.813766 64.0561 28.6885 9.03542 27.2659 19.2962 47.8118 -16.1117 -0.565882 13.8418 60.8291 13.213 -1.6654 28.2156 16.1117 10.9312 -4.2694 52.464 1.79832 -8.14663 31.034 -18.2102
internal_weight=0 1127 1753 680 447 364 93 1554 520 83 160 199 96 271 63 1463 174 91 45 229 499 40 115 74 459 42 71 153 59 1289
internal_count=2880 1127 1753 680 447 364 93 1554 520 83 160 199 96 271 63 1463 174 91 45 229 499 40 115 74 459 42 71 153 59 1289
shrinkage=0.03


Tree=11
num_leaves=27
num_cat=0
split_feature=1152 1385 659 72 354 147 404 804 836 1325 628 602 558 529 637 547 255 803 449 188 566 346 366 604 1223 1407
split_gain=7.29015e+08 2.01619e+08 1.52212e+08 1.66986e+08 1.05661e+08 9.74935e+07 8.93186e+07 8.66074e+07 7.87201e+07 7.86424e+07 6.37739e+07 6.36158e+07 6.0705e+07 5.79283e+07 8.97013e+07 4.79618e+07 4.25417e+07 3.78036e+07 3.59766e+07 3.28618e+07 3.07355e+07 2.41484e+07 6.2443e+07 1.8786e+07 1.76228e+07 7.70911e+06
threshold=2.391112314251886 12.016868658522743 2.2199229206701498 6549.9955395241986 -0.029508690249715294 3.2571168375607127 -3.2869696204775098 1.5497986012654905 8.3609567353938736 44.504803175210739 1.1680832146172271 0.54211147534860171 0.97486762834810081 -0.07514205975874029 0.94983190945883533 0.94649958979718163 -6.3159321611173445 0.13321397192332798 -0.70665928457966742 163.96315691538541 1.2189092165097055 -0.0030749438398309857 -0.064144127434964698 0.70838687766949049 0.74832217000654389 6.0491803782241247
decision_type=8 2 2 2 2 2 2 2 2 2 2 2 2 2 2 10 2 2 2 2 2 10 2 2 2 2
left_child=8 2 3 5 10 17 -5 -4 15 11 13 -9 -7 14 -3 24 -8 -2 -10 -15 21 22 -20 -23 -1 -11
right_child=1 4 7 6 -6 12 16 9 18 25 -12 -13 -14 19 -16 -17 -18 -19 20 -21 -22 23 -24 -25 -26 -27
leaf_value=13.69059139911945 47.027530494689941 14.806655077934264 53.530498217878673 61.7059252166748 105.20274897984096 36.621448099756812 -9.7998761844634998 57.262893951416011 12.351147086007254 -6.9787267720699306 80.139778995513907 2.9919925377121217 73.361380238834812 51.059839085170196 96.828593540191648 44.601484827314103 25.521729009334855 -1.774413745880127 30.379257146901097 9.8143182495797028 18.406183090209961 0.90521650834517042 -16.154712272192302 -22.13006258267583 -20.913572709825303 -26.070791798985521
leaf_weight=26 20 24 29 22 21 83 144 20 35 24 24 693 79 21 24 28 39 50 29 101 20 33 247 925 27 92
leaf_count=26 20 24 29 22 21 83 144 20 35 24 24 693 79 21 24 28 39 50 29 101 20 33 247 925 27 92
internal_value=0 14.3769 9.91023 24.3219 41.2807 41.7541 4.59364 2.57004 -15.8461 0.787342 34.3614 4.51432 54.5378 27.8985 55.8176 12.8411 -2.27232 12.169 -17.6487 16.914 -18.4861 -19.084 -11.2653 -21.3366 -3.93795 -22.1207
internal_weight=0 1510 1295 437 215 232 205 858 1370 829 194 713 162 170 48 81 183 70 1289 122 1254 1234 276 958 53 116
internal_count=2880 1510 1295 437 215 232 205 858 1370 829 194 713 162 170 48 81 183 70 1289 122 1254 1234 276 958 53 116
shrinkage=0.03


Tree=12
num_leaves=31
num_cat=0
split_feature=324 538 1073 657 1348 336 661 1407 657 1265 493 518 1297 1217 322 264 499 378 1557 558 1292 1356 1572 1593 497 1058 1371 403 1223 1313
split_gain=6.04624e+08 2.01623e+08 1.19785e+08 9.29627e+07 9.06756e+07 8.88818e+07 8.71811e+07 1.0564e+08 8.10639e+07 7.92099e+07 7.5191e+07 7.47052e+07 6.15901e+07 6.96223e+07 5.75674e+07 4.90855e+07 4.34997e+07 4.25513e+07 4.25082e+07 4.13999e+07 4.10312e+07 4.07065e+07 3.79268e+07 3.66959e+07 3.54558e+07 3.47331e+07 3.36975e+07 3.01957e+07 2.56857e+07 2.54879e+07
threshold=14.046126692112155 -0.14260797938640699 2.3781552104508621 2.4154365914424138 5.0413301646241235 -47.628458321386063 2.170797607800123 7.4837363321243036 2.4154360396219663 127.56970476561847 -0.065935733355948739 -0.091519555065557659 25.399118277972665 0.6984026369168358 0.8283620718875776 -2.4767566822172555 -0.050895068346120072 7.3659200747945333 124.57500000000002 0.76423384226316349 46.431826777741826 1.9023568069202992 0.030487910738482383 11.601860794961299 0.03779798534888254 0.32106988564164868 0.22291450998610063 -4.5320591089852087 0.74698526107853647 6.2484208648799457
decision_type=2 2 8 2 2 2 2 2 2 2 2 2 2 2 2 2 2 2 2 2 2 2 2 2 2 8 8 2 2 2
left_child=1 5 18 14 -4 10 7 15 11 -5 20 -7 17 -14 25 -6 -16 -10 21 -11 -1 -2 29 -21 -8 -3 -13 -26 -9 -20
right_child=2 3 4 9 6 8 24 28 12 19 -12 26 13 -15 16 -17 -18 -19 22 23 -22 -23 -24 -25 27 -27 -28 -29 -30 -31
leaf_value=75.43431438446045 21.838012435913086 48.622533585684636 54.48602960815429 55.941243334683499 39.748755729571876 94.917754824829103 -17.349700459501346 15.057549689156668 21.539568901062012 29.147659591402324 101.93091725667317 16.059220094680786 3.8371286877471467 44.748459117970562 25.814391543480657 8.6095955088587086 77.899744398328991 83.423503395080559 19.303173005477241 -6.6962804146673323 21.841535320281984 -21.47773246150572 29.74963375854492 33.041438369750978 33.716565976350203 6.1073962579454699 58.76070416154532 -6.2792339172363283 -21.909078866366681 -14.790547088513271
leaf_weight=20 20 21 25 22 83 25 317 21 20 35 27 39 184 47 31 101 27 20 23 424 36 824 25 22 23 98 29 65 87 139
leaf_count=20 20 21 25 22 83 25 317 21 20 35 27 39 184 47 31 101 27 20 23 424 36 824 25 22 23 98 29 65 87 139
internal_value=0 17.1434 -11.0215 6.85544 -1.65033 32.794 -3.66383 8.83163 26.406 0.275476 60.8086 50.5733 18.1124 12.1611 25.5544 22.6561 50.061 52.4815 -17.584 -2.27057 40.9818 -20.4513 -4.64263 -4.73612 -12.6729 13.6101 34.2701 4.17421 -14.7211 -9.95008
internal_weight=0 1127 1753 680 722 447 697 292 364 503 83 93 271 231 177 184 58 40 1031 481 56 844 187 446 405 119 68 88 108 162
internal_count=2880 1127 1753 680 722 447 697 292 364 503 83 93 271 231 177 184 58 40 1031 481 56 844 187 446 405 119 68 88 108 162
shrinkage=0.03


Tree=13
num_leaves=29
num_cat=0
split_feature=1152 1385 659 649 354 465 1325 238 459 324 1386 986 1296 1397 713 365 1386 1404 242 1388 1557 339 270 120 292 1385 385 643
split_gain=6.47664e+08 1.82202e+08 1.35703e+08 1.54888e+08 9.83781e+07 8.82577e+07 7.74924e+07 9.41683e+07 1.21522e+08 7.06259e+07 6.4982e+07 5.35629e+07 5.02418e+07 5.00796e+07 5.60177e+07 4.83434e+07 4.02899e+07 3.70117e+07 3.65778e+07 3.2941e+07 3.22702e+07 4.30518e+07 3.02094e+07 2.26055e+07 2.0042e+07 1.53905e+07 5.21747e+06 3.41805e+06
threshold=2.391112314251886 12.016868658522743 2.2199229206701498 0.2989363339642927 -0.029508690249715294 0.055679552059715302 39.814954689013071 -0.14707944843695345 -0.012518288629958482 13.191805378034216 0.29432092752594635 -1.3333900902736688 28.892573137658644 206.50000000000003 5.5567516261369336 0.011751063487287676 0.25307869459281729 5.4290714309766352 -0.49399094683076777 0.32447021576404839 124.57500000000002 -41.486698007408286 503.90705128205138 192.66968533695152 1826.1070268144988 4.0871158434062709 -0.50496449112960262 -0.50594989817243918
decision_type=8 2 2 2 2 2 2 10 2 2 2 2 2 2 2 2 2 2 10 2 2 2 2 2 2 2 2 10
left_child=9 2 3 13 12 16 7 11 -9 17 -7 -4 -3 14 -2 18 -5 -1 -14 20 22 -22 -11 -23 -24 -8 -15 -27
right_child=1 4 6 5 -6 10 25 8 -10 19 -12 -13 15 26 -16 -17 -18 -19 -20 -21 21 23 24 -25 -26 27 -28 -29
