tree
version=v3
num_class=1
num_tree_per_iteration=1
label_index=0
max_feature_idx=1613
objective=regression
feature_names=one_count_2 ABC ABCGG nAcid nBase SpAbs_A SpMax_A SpDiam_A SpAD_A SpMAD_A LogEE_A VE1_A VE2_A VE3_A VR1_A VR2_A VR3_A nAromAtom nAromBond nAtom nHeavyAtom nSpiro nBridgehead nHetero nH nB nC nN nO nS nP nF nCl nBr nI nX ATS0dv ATS1dv ATS2dv ATS3dv ATS4dv ATS5dv ATS6dv ATS7dv ATS8dv ATS0d ATS1d ATS2d ATS3d ATS4d ATS5d ATS6d ATS7d ATS8d ATS0s ATS1s ATS2s ATS3s ATS4s ATS5s ATS6s ATS7s ATS8s ATS0Z ATS1Z ATS2Z ATS3Z ATS4Z ATS5Z ATS6Z ATS7Z ATS8Z ATS0m ATS1m ATS2m ATS3m ATS4m ATS5m ATS6m ATS7m ATS8m ATS0v ATS1v ATS2v ATS3v ATS4v ATS5v ATS6v ATS7v ATS8v ATS0se ATS1se ATS2se ATS3se ATS4se ATS5se ATS6se ATS7se ATS8se ATS0pe ATS1pe ATS2pe ATS3pe ATS4pe ATS5pe ATS6pe ATS7pe ATS8pe ATS0are ATS1are ATS2are ATS3are ATS4are ATS5are ATS6are ATS7are ATS8are ATS0p ATS1p ATS2p ATS3p ATS4p ATS5p ATS6p ATS7p ATS8p ATS0i ATS1i ATS2i ATS3i ATS4i ATS5i ATS6i ATS7i ATS8i AATS0dv AATS1dv AATS2dv AATS3dv AATS4dv AATS5dv AATS6dv AATS7dv AATS8dv AATS0d AATS1d AATS2d AATS3d AATS4d AATS5d AATS6d AATS7d AATS8d AATS0s AATS1s AATS2s AATS3s AATS4s AATS5s AATS6s AATS7s AATS8s AATS0Z AATS1Z AATS2Z AATS3Z AATS4Z AATS5Z AATS6Z AATS7Z AATS8Z AATS0m AATS1m AATS2m AATS3m AATS4m AATS5m AATS6m AATS7m AATS8m AATS0v AATS1v AATS2v AATS3v AATS4v AATS5v AATS6v AATS7v AATS8v AATS0se AATS1se AATS2se AATS3se AATS4se AATS5se AATS6se AATS7se AATS8se AATS0pe AATS1pe AATS2pe AATS3pe AATS4pe AATS5pe AATS6pe AATS7pe AATS8pe AATS0are AATS1are AATS2are AATS3are AATS4are AATS5are AATS6are AATS7are AATS8are AATS0p AATS1p AATS2p AATS3p AATS4p AATS5p AATS6p AATS7p AATS8p AATS0i AATS1i AATS2i AATS3i AATS4i AATS5i AATS6i AATS7i AATS8i ATSC0c ATSC1c ATSC2c ATSC3c ATSC4c ATSC5c ATSC6c ATSC7c ATSC8c ATSC0dv ATSC1dv ATSC2dv ATSC3dv ATSC4dv ATSC5dv ATSC6dv ATSC7dv ATSC8dv ATSC0d ATSC1d ATSC2d ATSC3d ATSC4d ATSC5d ATSC6d ATSC7d ATSC8d ATSC0s ATSC1s ATSC2s ATSC3s ATSC4s ATSC5s ATSC6s ATSC7s ATSC8s ATSC0Z ATSC1Z ATSC2Z ATSC3Z ATSC4Z ATSC5Z ATSC6Z ATSC7Z ATSC8Z ATSC0m ATSC1m ATSC2m ATSC3m ATSC4m ATSC5m ATSC6m ATSC7m ATSC8m ATSC0v ATSC1v ATSC2v ATSC3v ATSC4v ATSC5v ATSC6v ATSC7v ATSC8v ATSC0se ATSC1se ATSC2se ATSC3se ATSC4se ATSC5se ATSC6se ATSC7se ATSC8se ATSC0pe ATSC1pe ATSC2pe ATSC3pe ATSC4pe ATSC5pe ATSC6pe ATSC7pe ATSC8pe ATSC0are ATSC1are ATSC2are ATSC3are ATSC4are ATSC5are ATSC6are ATSC7are ATSC8are ATSC0p ATSC1p ATSC2p ATSC3p ATSC4p ATSC5p ATSC6p ATSC7p ATSC8p ATSC0i ATSC1i ATSC2i ATSC3i ATSC4i ATSC5i ATSC6i ATSC7i ATSC8i AATSC0c AATSC1c AATSC2c AATSC3c AATSC4c AATSC5c AATSC6c AATSC7c AATSC8c AATSC0dv AATSC1dv AATSC2dv AATSC3dv AATSC4dv AATSC5dv AATSC6dv AATSC7dv AATSC8dv AATSC0d AATSC1d AATSC2d AATSC3d AATSC4d AATSC5d AATSC6d AATSC7d AATSC8d AATSC0s AATSC1s AATSC2s AATSC3s AATSC4s AATSC5s AATSC6s AATSC7s AATSC8s AATSC0Z AATSC1Z AATSC2Z AATSC3Z AATSC4Z AATSC5Z AATSC6Z AATSC7Z AATSC8Z AATSC0m AATSC1m AATSC2m AATSC3m AATSC4m AATSC5m AATSC6m AATSC7m AATSC8m AATSC0v AATSC1v AATSC2v AATSC3v AATSC4v AATSC5v AATSC6v AATSC7v AATSC8v AATSC0se AATSC1se AATSC2se AATSC3se AATSC4se AATSC5se AATSC6se AATSC7se AATSC8se AATSC0pe AATSC1pe AATSC2pe AATSC3pe AATSC4pe AATSC5pe AATSC6pe AATSC7pe AATSC8pe AATSC0are AATSC1are AATSC2are AATSC3are AATSC4are AATSC5are AATSC6are AATSC7are AATSC8are AATSC0p AATSC1p AATSC2p AATSC3p AATSC4p AATSC5p AATSC6p AATSC7p AATSC8p AATSC0i AATSC1i AATSC2i AATSC3i AATSC4i AATSC5i AATSC6i AATSC7i AATSC8i MATS1c MATS2c MATS3c MATS4c MATS5c MATS6c MATS7c MATS8c MATS1dv MATS2dv MATS3dv MATS4dv MATS5dv MATS6dv MATS7dv MATS8dv MATS1d MATS2d MATS3d MATS4d MATS5d MATS6d MATS7d MATS8d MATS1s MATS2s MATS3s MATS4s MATS5s MATS6s MATS7s MATS8s MATS1Z MATS2Z MATS3Z MATS4Z MATS5Z MATS6Z MATS7Z MATS8Z MATS1m MATS2m MATS3m MATS4m MATS5m MATS6m MATS7m MATS8m MATS1v MATS2v MATS3v MATS4v MATS5v MATS6v MATS7v MATS8v MATS1se MATS2se MATS3se MATS4se MATS5se MATS6se MATS7se MATS8se MATS1pe MATS2pe MATS3pe MATS4pe MATS5pe MATS6pe MATS7pe MATS8pe MATS1are MATS2are MATS3are MATS4are MATS5are MATS6are MATS7are MATS8are MATS1p MATS2p MATS3p MATS4p MATS5p MATS6p MATS7p MATS8p MATS1i MATS2i MATS3i MATS4i MATS5i MATS6i MATS7i MATS8i GATS1c GATS2c GATS3c GATS4c GATS5c GATS6c GATS7c GATS8c GATS1dv GATS2dv GATS3dv GATS4dv GATS5dv GATS6dv GATS7dv GATS8dv GATS1d GATS2d GATS3d GATS4d GATS5d GATS6d GATS7d GATS8d GATS1s GATS2s GATS3s GATS4s GATS5s GATS6s GATS7s GATS8s GATS1Z GATS2Z GATS3Z GATS4Z GATS5Z GATS6Z GATS7Z GATS8Z GATS1m GATS2m GATS3m GATS4m GATS5m GATS6m GATS7m GATS8m GATS1v GATS2v GATS3v GATS4v GATS5v GATS6v GATS7v GATS8v GATS1se GATS2se GATS3se GATS4se GATS5se GATS6se GATS7se GATS8se GATS1pe GATS2pe GATS3pe GATS4pe GATS5pe GATS6pe GATS7pe GATS8pe GATS1are GATS2are GATS3are GATS4are GATS5are GATS6are GATS7are GATS8are GATS1p GATS2p GATS3p GATS4p GATS5p GATS6p GATS7p GATS8p GATS1i GATS2i GATS3i GATS4i GATS5i GATS6i GATS7i GATS8i BCUTc-1h BCUTc-1l BCUTdv-1h BCUTdv-1l BCUTd-1h BCUTd-1l BCUTs-1h BCUTs-1l BCUTZ-1h BCUTZ-1l BCUTm-1h BCUTm-1l BCUTv-1h BCUTv-1l BCUTse-1h BCUTse-1l BCUTpe-1h BCUTpe-1l BCUTare-1h BCUTare-1l BCUTp-1h BCUTp-1l BCUTi-1h BCUTi-1l BalabanJ SpAbs_DzZ SpMax_DzZ SpDiam_DzZ SpAD_DzZ SpMAD_DzZ LogEE_DzZ SM1_DzZ VE1_DzZ VE2_DzZ VE3_DzZ VR1_DzZ VR2_DzZ VR3_DzZ SpAbs_Dzm SpMax_Dzm SpDiam_Dzm SpAD_Dzm SpMAD_Dzm LogEE_Dzm SM1_Dzm VE1_Dzm VE2_Dzm VE3_Dzm VR1_Dzm VR2_Dzm VR3_Dzm SpAbs_Dzv SpMax_Dzv SpDiam_Dzv SpAD_Dzv SpMAD_Dzv LogEE_Dzv SM1_Dzv VE1_Dzv VE2_Dzv VE3_Dzv VR1_Dzv VR2_Dzv VR3_Dzv SpAbs_Dzse SpMax_Dzse SpDiam_Dzse SpAD_Dzse SpMAD_Dzse LogEE_Dzse SM1_Dzse VE1_Dzse VE2_Dzse VE3_Dzse VR1_Dzse VR2_Dzse VR3_Dzse SpAbs_Dzpe SpMax_Dzpe SpDiam_Dzpe SpAD_Dzpe SpMAD_Dzpe LogEE_Dzpe SM1_Dzpe VE1_Dzpe VE2_Dzpe VE3_Dzpe VR1_Dzpe VR2_Dzpe VR3_Dzpe SpAbs_Dzare SpMax_Dzare SpDiam_Dzare SpAD_Dzare SpMAD_Dzare LogEE_Dzare SM1_Dzare VE1_Dzare VE2_Dzare VE3_Dzare VR1_Dzare VR2_Dzare VR3_Dzare SpAbs_Dzp SpMax_Dzp SpDiam_Dzp SpAD_Dzp SpMAD_Dzp LogEE_Dzp SM1_Dzp VE1_Dzp VE2_Dzp VE3_Dzp VR1_Dzp VR2_Dzp VR3_Dzp SpAbs_Dzi SpMax_Dzi SpDiam_Dzi SpAD_Dzi SpMAD_Dzi LogEE_Dzi SM1_Dzi VE1_Dzi VE2_Dzi VE3_Dzi VR1_Dzi VR2_Dzi VR3_Dzi BertzCT nBonds nBondsO nBondsS nBondsD nBondsT nBondsA nBondsM nBondsKS nBondsKD RNCG RPCG C1SP1 C2SP1 C1SP2 C2SP2 C3SP2 C1SP3 C2SP3 C3SP3 C4SP3 HybRatio FCSP3 Xch-3d Xch-4d Xch-5d Xch-6d Xch-7d Xch-3dv Xch-4dv Xch-5dv Xch-6dv Xch-7dv Xc-3d Xc-4d Xc-5d Xc-6d Xc-3dv Xc-4dv Xc-5dv Xc-6dv Xpc-4d Xpc-5d Xpc-6d Xpc-4dv Xpc-5dv Xpc-6dv Xp-0d Xp-1d Xp-2d Xp-3d Xp-4d Xp-5d Xp-6d Xp-7d AXp-0d AXp-1d AXp-2d AXp-3d AXp-4d AXp-5d AXp-6d AXp-7d Xp-0dv Xp-1dv Xp-2dv Xp-3dv Xp-4dv Xp-5dv Xp-6dv Xp-7dv AXp-0dv AXp-1dv AXp-2dv AXp-3dv AXp-4dv AXp-5dv AXp-6dv AXp-7dv SZ Sm Sv Sse Spe Sare Sp Si MZ Mm Mv Mse Mpe Mare Mp Mi SpAbs_Dt SpMax_Dt SpDiam_Dt SpAD_Dt SpMAD_Dt LogEE_Dt SM1_Dt VE1_Dt VE2_Dt VE3_Dt VR1_Dt VR2_Dt VR3_Dt DetourIndex SpAbs_D SpMax_D SpDiam_D SpAD_D SpMAD_D LogEE_D VE1_D VE2_D VE3_D VR1_D VR2_D VR3_D NsLi NssBe NssssBe NssBH NsssB NssssB NsCH3 NdCH2 NssCH2 NtCH NdsCH NaaCH NsssCH NddC NtsC NdssC NaasC NaaaC NssssC NsNH3 NsNH2 NssNH2 NdNH NssNH NaaNH NtN NsssNH NdsN NaaN NsssN NddsN NaasN NssssN NsOH NdO NssO NaaO NsF NsSiH3 NssSiH2 NsssSiH NssssSi NsPH2 NssPH NsssP NdsssP NsssssP NsSH NdS NssS NaaS NdssS NddssS NsCl NsGeH3 NssGeH2 NsssGeH NssssGe NsAsH2 NssAsH NsssAs NsssdAs NsssssAs NsSeH NdSe NssSe NaaSe NdssSe NddssSe NsBr NsSnH3 NssSnH2 NsssSnH NssssSn NsI NsPbH3 NssPbH2 NsssPbH NssssPb SsLi SssBe SssssBe SssBH SsssB SssssB SsCH3 SdCH2 SssCH2 StCH SdsCH SaaCH SsssCH SddC StsC SdssC SaasC SaaaC SssssC SsNH3 SsNH2 SssNH2 SdNH SssNH SaaNH StN SsssNH SdsN SaaN SsssN SddsN SaasN SssssN SsOH SdO SssO SaaO SsF SsSiH3 SssSiH2 SsssSiH SssssSi SsPH2 SssPH SsssP SdsssP SsssssP SsSH SdS SssS SaaS SdssS SddssS SsCl SsGeH3 SssGeH2 SsssGeH SssssGe SsAsH2 SssAsH SsssAs SsssdAs SsssssAs SsSeH SdSe SssSe SaaSe SdssSe SddssSe SsBr SsSnH3 SssSnH2 SsssSnH SssssSn SsI SsPbH3 SssPbH2 SsssPbH SssssPb MAXsLi MAXssBe MAXssssBe MAXssBH MAXsssB MAXssssB MAXsCH3 MAXdCH2 MAXssCH2 MAXtCH MAXdsCH MAXaaCH MAXsssCH MAXddC MAXtsC MAXdssC MAXaasC MAXaaaC MAXssssC MAXsNH3 MAXsNH2 MAXssNH2 MAXdNH MAXssNH MAXaaNH MAXtN MAXsssNH MAXdsN MAXaaN MAXsssN MAXddsN MAXaasN MAXssssN MAXsOH MAXdO MAXssO MAXaaO MAXsF MAXsSiH3 MAXssSiH2 MAXsssSiH MAXssssSi MAXsPH2 MAXssPH MAXsssP MAXdsssP MAXsssssP MAXsSH MAXdS MAXssS MAXaaS MAXdssS MAXddssS MAXsCl MAXsGeH3 MAXssGeH2 MAXsssGeH MAXssssGe MAXsAsH2 MAXssAsH MAXsssAs MAXsssdAs MAXsssssAs MAXsSeH MAXdSe MAXssSe MAXaaSe MAXdssSe MAXddssSe MAXsBr MAXsSnH3 MAXssSnH2 MAXsssSnH MAXssssSn MAXsI MAXsPbH3 MAXssPbH2 MAXsssPbH MAXssssPb MINsLi MINssBe MINssssBe MINssBH MINsssB MINssssB MINsCH3 MINdCH2 MINssCH2 MINtCH MINdsCH MINaaCH MINsssCH MINddC MINtsC MINdssC MINaasC MINaaaC MINssssC MINsNH3 MINsNH2 MINssNH2 MINdNH MINssNH MINaaNH MINtN MINsssNH MINdsN MINaaN MINsssN MINddsN MINaasN MINssssN MINsOH MINdO MINssO MINaaO MINsF MINsSiH3 MINssSiH2 MINsssSiH MINssssSi MINsPH2 MINssPH MINsssP MINdsssP MINsssssP MINsSH MINdS MINssS MINaaS MINdssS MINddssS MINsCl MINsGeH3 MINssGeH2 MINsssGeH MINssssGe MINsAsH2 MINssAsH MINsssAs MINsssdAs MINsssssAs MINsSeH MINdSe MINssSe MINaaSe MINdssSe MINddssSe MINsBr MINsSnH3 MINssSnH2 MINsssSnH MINssssSn MINsI MINsPbH3 MINssPbH2 MINsssPbH MINssssPb ECIndex ETA_alpha AETA_alpha ETA_shape_p ETA_shape_y ETA_shape_x ETA_beta AETA_beta ETA_beta_s AETA_beta_s ETA_beta_ns AETA_beta_ns ETA_beta_ns_d AETA_beta_ns_d ETA_eta AETA_eta ETA_eta_L AETA_eta_L ETA_eta_R AETA_eta_R ETA_eta_RL AETA_eta_RL ETA_eta_F AETA_eta_F ETA_eta_FL AETA_eta_FL ETA_eta_B AETA_eta_B ETA_eta_BR AETA_eta_BR ETA_dAlpha_A ETA_dAlpha_B ETA_epsilon_1 ETA_epsilon_2 ETA_epsilon_3 ETA_epsilon_4 ETA_epsilon_5 ETA_dEpsilon_A ETA_dEpsilon_B ETA_dEpsilon_C ETA_dEpsilon_D ETA_dBeta AETA_dBeta ETA_psi_1 ETA_dPsi_A ETA_dPsi_B fragCpx fMF nHBAcc nHBDon IC0 IC1 IC2 IC3 IC4 IC5 TIC0 TIC1 TIC2 TIC3 TIC4 TIC5 SIC0 SIC1 SIC2 SIC3 SIC4 SIC5 BIC0 BIC1 BIC2 BIC3 BIC4 BIC5 CIC0 CIC1 CIC2 CIC3 CIC4 CIC5 MIC0 MIC1 MIC2 MIC3 MIC4 MIC5 ZMIC0 ZMIC1 ZMIC2 ZMIC3 ZMIC4 ZMIC5 Kier1 Kier2 Kier3 Lipinski GhoseFilter FilterItLogS VMcGowan LabuteASA PEOE_VSA1 PEOE_VSA2 PEOE_VSA3 PEOE_VSA4 PEOE_VSA5 PEOE_VSA6 PEOE_VSA7 PEOE_VSA8 PEOE_VSA9 PEOE_VSA10 PEOE_VSA11 PEOE_VSA12 PEOE_VSA13 SMR_VSA1 SMR_VSA2 SMR_VSA3 SMR_VSA4 SMR_VSA5 SMR_VSA6 SMR_VSA7 SMR_VSA8 SMR_VSA9 SlogP_VSA1 SlogP_VSA2 SlogP_VSA3 SlogP_VSA4 SlogP_VSA5 SlogP_VSA6 SlogP_VSA7 SlogP_VSA8 SlogP_VSA9 SlogP_VSA10 SlogP_VSA11 EState_VSA1 EState_VSA2 EState_VSA3 EState_VSA4 EState_VSA5 EState_VSA6 EState_VSA7 EState_VSA8 EState_VSA9 EState_VSA10 VSA_EState1 VSA_EState2 VSA_EState3 VSA_EState4 VSA_EState5 VSA_EState6 VSA_EState7 VSA_EState8 VSA_EState9 MDEC-11 MDEC-12 MDEC-13 MDEC-14 MDEC-22 MDEC-23 MDEC-24 MDEC-33 MDEC-34 MDEC-44 MDEO-11 MDEO-12 MDEO-22 MDEN-11 MDEN-12 MDEN-13 MDEN-22 MDEN-23 MDEN-33 MID AMID MID_h AMID_h MID_C AMID_C MID_N AMID_N MID_O AMID_O MID_X AMID_X MPC2 MPC3 MPC4 MPC5 MPC6 MPC7 MPC8 MPC9 MPC10 TMPC10 piPC1 piPC2 piPC3 piPC4 piPC5 piPC6 piPC7 piPC8 piPC9 piPC10 TpiPC10 apol bpol nRing n3Ring n4Ring n5Ring n6Ring n7Ring n8Ring n9Ring n10Ring n11Ring n12Ring nG12Ring nHRing n3HRing n4HRing n5HRing n6HRing n7HRing n8HRing n9HRing n10HRing n11HRing n12HRing nG12HRing naRing n3aRing n4aRing n5aRing n6aRing n7aRing n8aRing n9aRing n10aRing n11aRing n12aRing nG12aRing naHRing n3aHRing n4aHRing n5aHRing n6aHRing n7aHRing n8aHRing n9aHRing n10aHRing n11aHRing n12aHRing nG12aHRing nARing n3ARing n4ARing n5ARing n6ARing n7ARing n8ARing n9ARing n10ARing n11ARing n12ARing nG12ARing nAHRing n3AHRing n4AHRing n5AHRing n6AHRing n7AHRing n8AHRing n9AHRing n10AHRing n11AHRing n12AHRing nG12AHRing nFRing n4FRing n5FRing n6FRing n7FRing n8FRing n9FRing n10FRing n11FRing n12FRing nG12FRing nFHRing n4FHRing n5FHRing n6FHRing n7FHRing n8FHRing n9FHRing n10FHRing n11FHRing n12FHRing nG12FHRing nFaRing n4FaRing n5FaRing n6FaRing n7FaRing n8FaRing n9FaRing n10FaRing n11FaRing n12FaRing nG12FaRing nFaHRing n4FaHRing n5FaHRing n6FaHRing n7FaHRing n8FaHRing n9FaHRing n10FaHRing n11FaHRing n12FaHRing nG12FaHRing nFARing n4FARing n5FARing n6FARing n7FARing n8FARing n9FARing n10FARing n11FARing n12FARing nG12FARing nFAHRing n4FAHRing n5FAHRing n6FAHRing n7FAHRing n8FAHRing n9FAHRing n10FAHRing n11FAHRing n12FAHRing nG12FAHRing nRot RotRatio SLogP SMR TopoPSA(NO) TopoPSA GGI1 GGI2 GGI3 GGI4 GGI5 GGI6 GGI7 GGI8 GGI9 GGI10 JGI1 JGI2 JGI3 JGI4 JGI5 JGI6 JGI7 JGI8 JGI9 JGI10 JGT10 Diameter Radius TopoShapeIndex PetitjeanIndex Vabc VAdjMat MWC01 MWC02 MWC03 MWC04 MWC05 MWC06 MWC07 MWC08 MWC09 MWC10 TMWC10 SRW02 SRW03 SRW04 SRW05 SRW06 SRW07 SRW08 SRW09 SRW10 TSRW10 MW AMW WPath WPol Zagreb1 Zagreb2 mZagreb1 mZagreb2
feature_infos=[0:1] [10.825381317280574:222.33187353953249] [9.4188621526354286:152.55384732571213] [0:3] [0:17] [17.979102199621071:363.93816854927354] [2.264980970238208:2.7286258715735401] [4.5299619404764151:5.4572517431470793] [17.979102199621071:363.93816854927354] [1.1218905123558083:1.3689559280152361] [3.5797245806478015:6.5696664352852165] [2.886597098258159:5.9916200507865476] [0.017748163849162672:0.22619817892463578] [1.5659598099027847:5.1194808628688122] [84.274069477311883:9359092224911.8535] [4.7293839466347221:34033062636.043102] [4.9647024706180662:33.181555421869305] [6:42] [6:44] [27:576] [15:295] [0:2] [0:4] [3:109] [7:281] none [10:187] [1:56] [0:50] [0:7] none [0:9] [0:4] [0:1] none [0:9] [164.44444444444446:4113.1111111111113] [154:3648.333333333333] [190.33333333333331:4956.333333333333] [162.66666666666666:5556] [117.33333333333333:6570.3333333333339] [69.333333333333329:8208.3333333333321] [66.666666666666671:7859.6666666666661] [62:8827.1111111111095] [49:10487.555555555555] [83:1725] [99:2176] [150:3460] [155:4228] [129:4649] [114:5114] [99:5804] [93:6446] [75:7037] [83.387159923182452:3529.9954275262912] [90.885802469135797:1910.3899176954735] [145.55209876543211:3368.2870370370374] [159.94753086419757:4839.4104938271594] [146.44024691358027:5779.7006172839501] [106.06172839506172:7891.4043209876527] [109.67045267489712:7203.3827160493802] [105.02777777777779:8226.1731824417002] [91.953703703703709:10586.639574759947] [844:16684] [807:15093] [1139:21541] [1076:26163] [1070:30353] [707:35726] [620:38602] [510:44023] [426:50022] [3332.314046:70881.422923980906] [3025.2049409999995:56972.098647999956] [4151.3516909999998:79135.625710000022] [3772.9221289999996:93521.331284999964] [3843.1289379999998:109308.40811499998] [2305.911693:130672.16062699998] [2060.6540359999999:139523.57971899997] [1647.3624159999999:157975.78261199998] [1412.1595589999999:180809.58804699997] [6306.703206215162:115445.8887371356] [7745.086376008574:145866.49070422142] [10284.873320520783:211860.05520677532] [10459.787238497196:256712.67816019579] [9004.9503894078443:285772.0233028403] [7377.3180930009339:317256.72448542219] [6806.4825060668172:361317.36419488117] [5866.2603189161928:410995.52544550441] [4962.3816296388359:450077.44251036982] [214.90641400000004:4534.4407349999992] [222.19431:4645.7713869999989] [347.64846200000005:8184.0282979999984] [420.00641599999994:11943.496082] [390.8638679999998:13623.913299999998] [309.16035599999998:14631.955334] [273.53161499999993:16473.56525] [260.85790199999997:19174.469678999994] [231.435756:21165.821679999994] [176.12790000000001:3675.2359000000001] [186.60450000000003:3880.2612000000008] [288.17220000000003:6718.7569999999996] [343.11950000000007:9665.4484000000011] [313.62469999999996:11002.1898] [247.47150000000005:11892.667299999997] [224.03779999999995:13367.542599999997] [211.58699999999999:15495.817099999998] [189.39280000000002:17105.169400000002] [171.63720000000001:3652.3346999999999] [181.41200000000003:3809.0128000000004] [280.01740000000001:6619.0860000000011] [333.77400000000006:9574.5443000000014] [306.18470000000002:10909.793099999999] [242.27200000000002:11799.9557] [219.08619999999996:13246.143400000001] [208.01099999999994:15348.8184] [185.31419999999997:16950.653699999999] [48.130623382433001:801.46791026256892] [57.522677239999993:1015.0111965359997] [81.621351913641007:1534.5871182125977] [87.725107598678008:1894.950336468022] [76.43083442182899:2063.4291520641873] [59.469693400792018:2271.136190533754] [52.868451851697991:2634.7639869836967] [46.913371228791995:3020.139514538711] [38.720389040792:3334.9647414125166] [4338.5751464819905:96572.676059509686] [4156.898434879201:89644.772180642845] [6597.655356156758:165282.47706518273] [8263.8014041183069:250924.72641944728] [8048.3729848412804:286465.66656240675] [6393.4190822504406:301662.50664243987] [5523.5785966761778:341773.24764580023] [5516.1141696142931:398131.7616042372] [4644.2056345370993:439078.66252251301] [4.1875:16.783682232957595] [4.4264705882352944:12.717391304347826] [2.9920634920634921:14.706666666666667] [2.0726256983240225:11.449026345933561] [1.5459183673469388:11.6725768321513] [1.2380952380952379:10.75257731958763] [1.2403628117913832:10.307256235827664] [1.0068587105624143:10.229390681003583] [0.99316239316239319:10.957351290684624] [2.59375:4.5] [3.09375:5.2400000000000002] [2.6785714285714284:4.8068181818181817] [2.183098591549296:4.283018867924528] [2.0393700787401574:4.1142857142857139] [2.0092592592592591:3.8879999999999999] [1.9183673469387754:3.7472527472527473] [1.8888888888888888:3.5578947368421052] [1.9230769230769231:3.6949152542372881] [1.9363064236111112:14.153395805220054] [2.215895061728395:4.5681524547803622] [2.0499338624338623:10.356296296296298] [1.8348075729360644:8.7029166666666704] [1.7173327664399094:8.1165674603174587] [1.7658514492753625:6.8283950617283953] [1.7878933847141938:9.6690613026819889] [1.6535852713178292:8.7372228859684054] [1.6753812636165579:9.242003367003365] [17.46875:110] [21.279411764705884:48.46875] [16.333333333333332:43.280000000000001] [12.474860335195531:41.935483870967744] [10.136125654450261:41.55952380952381] [10.695652173913043:44] [9.6721311475409841:46.294117647058826] [9.8895348837209305:45.06666666666667] [9.8409090909090917:51.103448275862071] [68.359648953125003:582.22056199943825] [79.092171897058819:193.38879499485] [58.246320595238089:172.28315009339175] [42.576532882681555:165.74764719243868] [33.912140989528801:167.46046629758098] [36.103169005434779:177.49088941642987] [33.271283426229509:191.80022544705884] [32.802112970930231:182.4674021785714] [31.836542734848479:205.24281814742071] [194.11790917995322:300.49079489791427] [241.0300288764731:330.80556351226591] [183.65845215215683:305.37108129497682] [147.32094702108728:269.18391708721924] [123.73351809413452:266.53297601968802] [122.73658546942005:262.04144782312682] [113.39536306110179:263.51260370901565] [116.4166671363016:241.59841173492387] [127.08146731771636:251.52496344124083] [7.2156963124999987:9.5381079722222193] [7.4790361111111094:8.6732791351351324] [7.4321611111111103:9.3165299999999966] [7.2892995307262565:9.4469582117647057] [7.2073228571428567:9.2903180571428585] [7.2244232391304344:9.1109089253731348] [7.2164817109826593:9.0177413265306114] [7.1216120697674423:9.3556792473118247] [7.1581430588235309:9.558815522727274] [5.7217156250000007:8.2609833333333302] [6.2059779411764699:7.416413513513513] [6.0430833333333345:8.0990000000000002] [5.811603910614525:8.1061705882352939] [5.6688392857142871:7.939811428571427] [5.6813315217391303:7.7429925373134321] [5.6280680327868859:7.7260714285714283] [5.5716017441860464:8.0095849462365596] [5.6199052287581699:8.1833136363636374] [5.6277296875000005:8.2364902439024394] [6.0090277777777779:7.244014285714286] [5.8936440677966093:8.0364220338983063] [5.713960335195531:8.056201176470589] [5.586066326530613:7.8071142857142881] [5.5664253968253972:7.5754442622950808] [5.5869180327868859:7.7564310344827581] [5.4822093023255816:7.9895483870967734] [5.5302549019607854:7.9872931818181829] [1.2808303246260817:13.427622123842617] [1.6321806695652186:2.5311851300000003] [1.3035386173193657:2.8651651937227984] [1.1650817839521903:2.5982286710754638] [0.97142435951350004:2.9954803213098615] [0.99043518172488909:2.3064294443874203] [0.93765247099208193:2.2457503268279684] [0.89113582070361597:1.9185095504860796] [0.97574086179578923:1.8926070599939033] [152.12205551374078:180.37548682303014] [138.26484272651666:155.5597571677327] [143.28063931442298:168.46677530965454] [146.305234342414:174.79829699845152] [149.18150372715408:183.87614017906498] [150.98801578324895:175.13385934300169] [150.02408484271558:185.00468889805725] [151.60025024931409:180.10530113581962] [149.65566786869866:188.86457610815708] [0.16209223047714766:16.803060084269539] [-11.488575462607979:-0.03127791299790493] [-0.61079291347387721:3.4262363875171418] [-1.230052558802935:7.0324843651338815] [-12.659790335713625:1.1176896599841333] [-0.86049249531499994:5.4823087046758125] [-1.4474150714417986:8.7806240734522536] [-12.907987785541327:0.87139952315404456] [-0.83139953365427532:5.2155219378068605] [98.050297210791044:2297.4043209876545] [-16.213132050969886:577.45282458754491] [-31.587107438016538:416.07394427408201] [-267.11136293491415:183.84585404560204] [-271.59125925721173:268.33135802469138] [-273.253086419753:545.73706370374452] [-718.83407864635217:226.24489795918367] [-669.63632690541772:255.61950059453045] [-258.06268524352959:570.52493660185974] [13.96875:334.33159722222223] [-5.6388888888888884:84.593859557663976] [-58.584731742694871:20.281065088757408] [-33.102873802582259:42.193708924122248] [-35.256198347107429:31.182284708262024] [-25.905878166415651:29.142857142857146] [-33.1484375:46.991735537190088] [-31.517474380165332:28.111111111111104] [-38.241211465657123:24.56632653061224] [9.3479350549503764:1552.3856754087606] [-110.34358685965799:3.5904270805339049] [-15.484126984126982:348.22843104879001] [-336.13374232521744:193.80103278463653] [-610.71785082620625:283.98113854595329] [-165.92294403673222:828.71323934888801] [-380.6506785171693:243.13732107426301] [-801.77627845549978:231.01053254437863] [-201.20036795582436:831.84042453273219] [235.41935483870958:7739.644927536232] [-307.37122206713531:371.62570100945362] [-254.3331628916128:483.75510204081633] [-692.10603077084659:255.74480151228724] [-803.31141868512123:865.68639999999994] [-790.5911111111111:1718.428938477153] [-805.11111111111131:710.79591836734653] [-1231.8888888888891:646.01827347195967] [-1048.9295999999999:1003.4732724217597] [1146.9233676388887:38928.759133623185] [-1311.4967113927073:1582.582642601116] [-1256.4219798886334:2274.5464533372783] [-3273.9240323946397:1147.97228875925] [-4376.0478036720988:4175.9657478682229] [-3856.4865900286441:7734.2695208272662] [-3987.2379227331512:3485.3309792156051] [-6279.1290672333853:3083.5886274598138] [-5759.7599403382246:4605.0907030619719] [1222.5975813207522:27419.502342822685] [-233.21511366516353:1714.1436924422208] [-6113.3154376754946:1894.5267799870035] [-3592.7702685908907:1079.748623027099] [-2217.1867522341818:6536.4801518746963] [-5072.1607762950862:4609.6850438407409] [-2714.4148451829233:5416.2250686164361] [-2765.2903620490229:3058.7450186706815] [-2589.8825561971785:2628.125276937003] [0.51514873529411731:56.702328037174695] [-8.684050762427276:0.74834269628906358] [-1.0923323580246975:15.883964088741861] [-8.2042777824000002:7.8098634661810786] [-27.525250973756606:9.3746006172839529] [-5.5857711512345558:29.678357092906069] [-6.6863366673553744:9.2380352403165329] [-36.503116200668487:7.9710450052071007] [-7.2056575102040723:28.022990599605514] [1.4318382352941161:83.701973234200693] [-11.053674472436825:0.86726571733713675] [-1.3945693072702212:23.056955765595472] [-14.267423039999986:10.594870187304869] [-34.500602464034507:16.444335559999974] [-11.031449382716035:36.113710795235292] [-11.562145367166456:13.447967346938775] [-47.588812599879411:10.972976402366863] [-11.662418877551014:35.351596344040594] [1.20670588235294:90.909622490706283] [-13.18214519043404:0.91066788892844486] [-1.6868287722908082:27.017319383401581] [-15.387051839999984:12.377515500945163] [-42.83349520079873:17.195589759999976] [-11.402689429012334:39.15604291329084] [-11.83159692425988:16.144346772178253] [-55.218858644688012:12.564890532544368] [-13.60643418367345:40.576490638207972] [7.6590163026069709:531.70656599832114] [-15.30658138547301:16.329593197789841] [-38.36566586468885:37.406547122234947] [-28.860932158404708:4.2440527974895623] [-10.235334452110166:38.079054945662513] [-42.280745853289062:20.282500656729997] [-19.031488364415495:25.455765442251256] [-18.730189035668786:12.732035957187344] [-14.167517574004876:24.180225114494814] [47.121583729456646:855.54558365065941] [-59.480243267030197:14.360192694479586] [-260.52036773503488:181.58900950859345] [-111.09392483962594:151.36114107059231] [-115.43965259534991:245.77198884640708] [-150.09193543042909:93.18461651918318] [-108.43649306222645:252.9487773584757] [-133.92499631392585:139.84231771749867] [-125.63514976588871:93.704991515221295] [0.0047674185434455193:0.039523985863500109] [-0.031117122062394913:-0.00086883091660847024] [-0.0074486940667545997:0.015116007992624714] [-0.011400099135217234:0.008004676231728531] [-0.010435967756945495:0.0098246767421751886] [-0.0073546367120940169:0.014146653167377924] [-0.013039775418394581:0.010837653263062989] [-0.0093618806082187301:0.0095758189357587307] [-0.010658968380183017:0.011303939731930182] [2.46484375:6.4123990245389404] [-0.40532830127424713:2.0363563545745822] [-0.36725165913629332:2.3779249176479502] [-1.8273614897477923:1.1594770379706847] [-2.0251066642629652:1.7457463153182671] [-2.2648880148585162:2.0267275782398655] [-2.2200727356814767:1.8554421768707485] [-2.0213254044769982:1.8389892129102909] [-2.7040564938587832:2.2830178326474631] [0.4365234375:1.0016] [-0.15240240240240238:0.40123456790123452] [-0.26452875639867507:0.20833333333333326] [-0.24340348384251662:0.1327250009465753] [-0.26304852707492965:0.19030412526347487] [-0.22905387052965143:0.17611592170254292] [-0.23874364560639069:0.19258908007045117] [-0.18870513722730475:0.12973985890652551] [-0.2000803489439853:0.20207542570602782] [0.16893005371093756:6.2699778394379626] [-1.0803373357607977:0.059783450271788469] [-0.22120181405895689:3.3940937786960514] [-1.3524997053963133:1.8738662131519277] [-1.4182367149758455:1.689512188669329] [-1.4683446374932054:1.2271924478150846] [-1.6867726143937025:2.0229121223030893] [-1.8172581322130539:1.471404665887762] [-2.1293046739919217:1.8362543374954372] [6.49609375:78.110726643598625] [-0.56606118244407977:2.77309709125967] [-2.6834547346514035:3.2036761724557374] [-4.9115110053539563:2.1858530043785236] [-10.855559711961098:5.2649123017013002] [-8.5933816425120764:6.1131157472265354] [-5.3003286219673731:11.499861591695501] [-10.755547379146382:6.0980058690142753] [-12.196855813953487:6.1173553719008256] [31.304465708740238:449.78753371741323] [-2.4152793948300317:12.066783542455395] [-11.425929991804786:15.063221545279989] [-22.014453779916906:9.8117289637542733] [-59.135781130704039:24.840218318538007] [-41.931999984727391:29.115588081021979] [-26.026633232984938:57.994200916647998] [-55.122611839398807:28.270205237094842] [-66.97395279463052:29.700957667472455] [37.439427496015227:73.389261196472361] [-3.7301150917513817:5.2582875466974963] [-10.05206593426572:13.106049359461279] [-22.332824666040125:8.5694335160880879] [-12.349486322797066:21.208187873781092] [-26.011080904077364:29.933019765199617] [-17.207980137675968:22.197643723837853] [-24.046722918102788:15.755761425983522] [-24.432854303746968:23.309642046897103] [0.015151433391003451:0.25123535727788276] [-0.024389170915712789:0.011692269429071422] [-0.011261158330151521:0.17248202752066116] [-0.072692053151927449:0.077719372709386225] [-0.053997901222085469:0.067703825489379421] [-0.052332646428909287:0.058842202970564375] [-0.081846940710434177:0.078288434239970617] [-0.077761267605001169:0.058554287090518811] [-0.083790294449574199:0.058749513030684583] [0.042112889273356359:0.35094271694214868] [-0.037349249249249206:0.01521518802345854] [-0.014377003167734239:0.23385125275482077] [-0.092645604155844066:0.10185097990046675] [-0.086407562203270588:0.097303760710059015] [-0.090554795398229901:0.081958206859303231] [-0.13676497729637688:0.11396582497405741] [-0.11561728038154033:0.076076124682761578] [-0.1048444444444445:0.096479575308641902] [0.035491349480968826:0.41004065082644625] [-0.049609834834834721:0.015976629630323595] [-0.017389987343204207:0.2801353491735537] [-0.10192158503401355:0.12630117858107309] [-0.095081922586600962:0.10989639365950458] [-0.099186114243270243:0.096440860563506994] [-0.15397149039825933:0.13681649806930724] [-0.13328905194730942:0.090324376911563531] [-0.12212863445162615:0.10028295308641971] [0.20841525005980116:10.634131319966423] [-0.2888034223674153:0.043762951897653432] [-0.074975070585159009:0.39794199066207392] [-0.23464172486507892:0.037893328549013949] [-0.13831533043392116:0.29291580727432703] [-0.31790034476157192:0.12142829552161022] [-0.10895957922138258:0.17005868153098139] [-0.16591405471830398:0.10789860980667242] [-0.18495747615741281:0.26000242058596573] [1.3137128744251756:4.4278348724818981] [-0.80124055224151414:0.36821006908922016] [-0.49083737454868992:2.0567502656655701] [-1.1148849555757374:1.4375443868770443] [-0.63966784966941603:1.097196378778603] [-1.4294470040993246:0.73672670849091926] [-0.88954877292464418:1.2427712070805867] [-1.0205301364294423:0.89481981340479511] [-1.296514493224312:1.2417470778668449] [-0.87194624407430876:-0.18224347384036202] [-0.24080220447638034:0.56201740362299557] [-0.5156846491482473:0.29051422995185899] [-0.35198798936652664:0.44883325426928872] [-0.41443040195702519:0.36995745518000434] [-0.32992055668243331:0.3791644087234558] [-0.38393050521293781:0.35647422905225562] [-0.38508506990798486:0.41472851857882675] [-0.10643805739347066:0.47608884335737978] [-0.10828289883464463:0.39386935839424525] [-0.35954876907619276:0.23370218433592943] [-0.35534840450274463:0.36668063240008342] [-0.44740170792892059:0.41818713703735794] [-0.47478421425390271:0.36149768058316767] [-0.42576269839569963:0.36954172399276058] [-0.48693284645814294:0.42652998462327024] [-0.16625716625716624:0.61388888888888893] [-0.30435837028824836:0.31874999999999992] [-0.29232273838630823:0.18293497547228893] [-0.33085296107250473:0.19922882470493788] [-0.35012631169840663:0.24309281821433845] [-0.30688767087102958:0.2219359875097581] [-0.26785449833395025:0.19367413723419508] [-0.29618783135571841:0.3051670792079208] [-0.33783697994581879:0.17648239556563863] [-0.11153113313355521:0.64848584146200761] [-0.30574347227897974:0.38755119882347838] [-0.32520065086643335:0.57106053588578409] [-0.35631736495628663:0.3298673884565223] [-0.3542363165836499:0.37140099641431473] [-0.40166777297707584:0.38189490033766765] [-0.44717173978448005:0.48331261823222244] [-0.058896929712977719:0.25470963699229032] [-0.16928943227212201:0.32417149089688757] [-0.29273040979600401:0.21234793245174557] [-0.33729452258026221:0.36240694573012022] [-0.40153489953532046:0.43743192790996338] [-0.38014369889369898:0.34030913100680543] [-0.43083556641243936:0.33598069271622805] [-0.6244562670323377:0.41480434876396738] [-0.054291652136958447:0.24127499384087145] [-0.1634328578704991:0.32722737289540305] [-0.28789050425324469:0.21334780026210221] [-0.32896751035470917:0.37506811536690032] [-0.38456181380782678:0.45197708806192771] [-0.38812150997811684:0.33778117219559523] [-0.43728556025103993:0.33592714482913472] [-0.63140343189546144:0.41543587782015223] [-0.069087027303864526:0.12318979414022793] [-0.20189438732275175:0.27082220404246377] [-0.4288503793563701:0.17059373340121001] [-0.23475572152464705:0.43708249805396315] [-0.50630370811233694:0.57740925524840081] [-0.35547081586679052:0.43207544393027963] [-0.50377799350527863:0.32400645424998742] [-0.48135073430594749:0.47232549969056126] [-0.18238194437015395:0.15896458447689044] [-0.14747110960863014:0.75774141668054007] [-0.36168788536127738:0.37879025940991989] [-0.33933718681132558:0.49645561867137938] [-0.45154463511878601:0.41098866327788242] [-0.4106759457989928:0.41591242120632183] [-0.42129533967731042:0.39574722066490925] [-0.37770153183387628:0.38215397005019519] [-0.15029417767614972:0.14683236442089173] [-0.12698564986773547:0.68095305142415374] [-0.40680906963019164:0.33493718815857498] [-0.3645982916541784:0.46977455543462465] [-0.48610199544319699:0.41538344222044504] [-0.481821212653674:0.35270684644811312] [-0.42449686073341225:0.35068675295621771] [-0.36938023484012744:0.40442076783316216] [-0.1848715949893058:0.13649999844572466] [-0.13705905409486158:0.71217675179284778] [-0.42895617692997379:0.36458938682467029] [-0.35389285527369968:0.49201807124904101] [-0.4741922651800668:0.40919375049468854] [-0.45028740381372206:0.34879613780709734] [-0.42486793527562583:0.38977274144926144] [-0.34131336400310797:0.37221377766023639] [-0.21374555862490441:0.15608454135698513] [-0.24910489051018386:0.28149405996160337] [-0.38044701510951634:0.13717410941880598] [-0.25167044807737188:0.38997498309092377] [-0.44348511075965075:0.40900093441892155] [-0.35018421395431315:0.4186557652445041] [-0.53508663029224324:0.32721536697694176] [-0.4534763523230777:0.48578674021860591] [-0.41063944519913032:0.22790569735131055] [-0.25881083212399253:0.53748945179448404] [-0.3937570240407704:0.38506626741845873] [-0.24012954667468631:0.29793862141234206] [-0.38678709605176476:0.38896272680775335] [-0.28003680157983912:0.35298902250361158] [-0.33347693570686437:0.34519391076142619] [-0.37419849635590802:0.39958773446783752] [1.0569500685388598:2.0901012473507925] [0.39237604207377669:1.660646718962594] [0.54680645104514614:1.770186319490425] [0.39677537399533302:1.6632332551053557] [0.42032096486337617:1.7615685325264496] [0.3689152422820145:1.7478770878685215] [0.37254216564711357:1.5922868248251061] [0.29084524239782239:1.6462138927583325] [0.32147519420246684:0.80754171716230072] [0.41378582202111602:1.3534072900158478] [0.59750287166195304:1.3978283649347345] [0.50083922455574414:1.4486967167331173] [0.6139749597817723:1.5855931113450281] [0.49352841285619609:1.5501898511190171] [0.4896899267589539:1.5874057727551691] [0.50753315806218324:1.6297564358152026] [0.54467584816929782:1.3875802997858675] [0.77145769622833837:1.9138719512195128] [0.74840575587321911:1.5298103026726253] [0.41850991511093655:1.4555313459443395] [0.50892857142857162:1.3936808386721027] [0.51397020556856632:1.5220588235294124] [0.61678734245105937:1.3607552758237691] [0.4947289156626507:1.3915677859126492] [0.45458973271628844:1.2538723634426114] [0.21341426361324467:1.0235349612099676] [0.32826712249478823:1.3575376976541562] [0.32281233438593743:1.9141975921541439] [0.25541236888975533:2.1127798780061324] [0.27842795006102333:2.3126730563374673] [0.27217335786862962:1.9250125273783141] [0.33080298363880273:2.0364619890616202] [0.47649489826053565:0.9961090870503343] [0.44605419917778338:1.152736019242333] [0.59510489510489506:1.4060004643943933] [0.49144322976160537:1.6292909925075245] [0.41402488377318808:1.6995385391338389] [0.28964538850004429:1.7058815377366334] [0.36121799415256489:2.866106721488074] [0.4403357497138497:2.4230732986976578] [0.47075764411326654:0.99817460749665088] [0.44065612878897142:1.1492997203127027] [0.60799417666793965:1.3450700391092001] [0.49851259084931865:1.63000147596258] [0.39146378164592238:1.6637146972720616] [0.29002370469851468:1.7243385743581294] [0.35576540626831066:2.9565513139991393] [0.41647612189677136:2.4795747827698533] [0.64942580434766362:1.181917044608926] [0.57740288248009208:1.2313949035133116] [0.78111229610332056:1.4008698666971453] [0.5425949267593575:1.2620364999787803] [0.42575318791710648:1.5223029120914926] [0.49596830245233853:1.3456536945246012] [0.66330180278994444:1.4713240034465167] [0.56566668227813255:1.5280029317992774] [0.42608483927502838:1.0924879470775526] [0.16641592562052793:1.6480799318975243] [0.40931949341228463:1.632687800668807] [0.3631702048046771:1.6770895283070186] [0.28563155467003803:1.9855440648641074] [0.2341867812127445:1.647878204446648] [0.30777664235947233:1.8542580376456972] [0.27842989213205616:1.9203287880765154] [0.49982785022198872:0.98558053174258309] [0.19785877103238203:1.4172503118104196] [0.40875794227046736:1.5510857949213828] [0.47138309679026202:1.5648087634885319] [0.36650540246438928:1.7895951137668225] [0.30686829462170828:1.7288464848753933] [0.35550796905441684:1.8268353803312081] [0.41957292979444816:2.0894732515261638] [0.50280853110186219:1.0813086435096] [0.18116274007235597:1.5117490829690114] [0.40571968217602511:1.6537535287000948] [0.43917681161041722:1.6312765486803535] [0.33589377833104922:1.8715981246036264] [0.26359445768631318:1.814024319383682] [0.32708607186743144:1.8442986083407218] [0.40011069736929356:2.1203216389479298] [0.49651082405199548:1.4812215342727668] [0.49767152990087249:1.3306820251395868] [0.74488382072533443:1.526911875832871] [0.46216617098599988:1.5401511852444458] [0.43351449265933223:1.4126117265704667] [0.4405907769282949:1.6119125457016619] [0.24185248897786932:2.3757048623948993] [0.2844862364955611:1.9106942011895758] [0.78456620016021517:1.6598973843364231] [0.44854512976897037:1.4594385665169258] [0.61609248402918426:1.4427303724769938] [0.58436480723466155:1.2208943568718975] [0.41734085717211233:1.4471569731338256] [0.46545605100913839:1.4802246056257522] [0.46936258429211825:1.591251552341675] [0.55071349913256207:1.5877440946590846] [0.34991536398955825:0.78342655999858279] [-0.56534260462706232:-0.35104985392580618] [5.017155348129319:7.0206627966391286] [0.10862322823961253:2.8123732204979888] [3.0800725005597749:4.1546005964002664] [0.91099476022147508:1.7342255972123519] [2.5230759026233769:8.0136539720492017] [0.29305844584569474:1.5204986600362558] [7.032586691707464:53.000263644192636] [5.6460390000638698:5.7694542275609901] [14.024018999836033:126.9045778086905] [11.657480576253342:11.789672355761393] [20.863718388911138:48.996990056115536] [13.299886808329831:15.591630418742923] [3.2662243998823834:4.0383895262501763] [0.55539517880254863:2.4951205418695523] [3.1059105998716596:4.0145476353831873] [0.92424530116385872:2.3002358635938971] [3.1265826731969164:4.131744740360233] [1.0041018810280853:2.2532869658197718] [1.9679897981695427:24.110527274591703] [0.52384913010085132:1.0475246811139225] [14.537876378455444:17.436970518356262] [5.137784483293018:10.982426590855951] [0.91920338048881778:2.5767173669504757] [83.465512910017196:19774.05885589619] [42.52546105338125:9898.9401422338051] [65.827563003698216:15416.112651686492] [84.957171338094298:19797.707037714361] [4.9974806669467231:71.991661955324943] [42.52546105338125:9898.9401422338051] [0.42857142857142871:24.083221024258762] [3.7804027686082069:16.986524354358689] [0.057581438489351489:0.25202685124054713] [1.7352956646051956:6.2168106080233549] [63.975086076532122:5493.8256440472715] [4.2650057384354749:18.623137776431427] [4.5639588356245007:11.995770393794324] [83.388186763231857:19779.075762862678] [42.492601185108285:9901.4218517458849] [65.784568025714094:15420.046354133981] [84.889541151192347:19802.670845741741] [4.9935024206583734:72.0097121663336] [42.492601185108285:9901.4218517458849] [0.42750053544656264:24.052325439712547] [3.7803966603004855:16.986524565200632] [0.05758143920406994:0.25202644402003238] [1.7352940488216322:6.2168106204356617] [63.975836837926963:5493.8309647746028] [4.2650557891951308:18.623155812795265] [4.5639705707707234:11.995771362286064] [114.33910492805839:26249.672147053774] [56.569857720220796:13106.871845552498] [88.709683302101453:20504.135077089544] [113.29963403879049:26215.572776135115] [6.850320052671468:95.329355549582232] [56.569857720220796:13106.871845552498] [-35.9284559487742:0.20533078725220744] [3.8024832452822785:17.003980507171434] [0.057640611888716727:0.25349888301881857] [1.7411194470123657:6.2178377274744197] [63.04914382925125:5475.8908225753776] [4.2032762552834164:18.562341771441957] [4.5493795911921797:11.992500512114779] [103.30647943889508:19826.050614584528] [52.023559661304944:9923.1687149276877] [83.097884223497843:15450.972213807727] [103.94836733811456:19846.189889380679] [6.1956841856485525:72.167963234111568] [52.023559661304944:9923.1687149276877] [-1.9310386744851611:20.286815270845146] [3.7995938474068507:17.000769734058991] [0.057629727912064381:0.25330625649379007] [1.7403592868668334:6.217648884851009] [62.929492117317835:5477.6352477946539] [4.1952994744878556:18.568255077270013] [4.5474800350172329:11.992819026029442] [104.49798328509635:19538.471625656861] [52.625942376942277:9780.0101013841213] [84.328919557320091:15222.736523396947] [105.15136455804613:19559.863485843794] [6.2696773805677157:71.126776312159251] [52.625942376942277:9780.0101013841213] [0.21416550096170683:21.548577111383111] [3.8009064602250824:17.001754389090941] [0.057633065725731999:0.25339376401500552] [1.7407046885583415:6.2177068014355932] [62.844598657212266:5476.5757689338898] [4.1896399104808175:18.56466362350471] [4.5461300992319735:11.992625588298063] [104.85564918658238:19198.526039861827] [52.836888282845578:9611.2523020217013] [84.879809456115893:14954.40376972481] [105.56469291514333:19222.330214485715] [6.2373891744175767:69.899382598129876] [52.836888282845578:9611.2523020217013] [0.029855869051557016:23.978564181586552] [3.801478485461816:17.002045128546271] [0.057634051283207699:0.25343189903078772] [1.7408551742919369:6.2177239018455159] [62.794349421769709:5476.1239664443256] [4.1862899614513136:18.563132089641783] [4.5453302001737566:11.99254308763599] [113.49704768373289:29088.787740187094] [55.642172947941361:14504.877109096353] [85.714036329187579:22711.230733657805] [111.68466251782181:29014.018887908387] [6.3459174606765512:105.50552322875777] [55.642172947941361:14504.877109096353] [-79.033521994387058:0.5938065801423843] [3.796137430836227:16.999892655526232] [0.057626754764495698:0.25307582872241513] [1.7394491923196249:6.2175972930012442] [63.543560046613329:5484.9747777625525] [4.2362373364408885:18.593134839873059] [4.5571907638126934:11.99415803764208] [105.97004509838224:18674.361102385563] [53.366013772681868:9347.2173183685554] [86.008937700702973:14529.469798104423] [106.6304298857662:18694.288647396374] [6.1544153878447556:67.979231445077716] [53.366013772681868:9347.2173183685554] [0.060938328231880834:20.073534351551643] [3.8025286681641899:17.003059562045863] [0.057637490040833433:0.25350191121094601] [1.7411313925247276:6.2177835654465623] [62.742136789810338:5476.9840313572886] [4.1828091193206891:18.566047563923011] [4.5444983681455442:11.992700132543227] [350.76589188262676:11739.765111071014] [28:588] [15:307] [15:502] [0:44] [0:1] [6:44] [7:86] [22:526] [3:62] [0.013871213518287157:0.28093059655013469] [0.008429755780179099:0.3594809745179483] [0:1] none [0:44] [1:28] [0:9] [0:32] [0:75] [0:6] [0:4] [0:0.75] [0:0.75] [0:0.82735026918962573] [0:0.96565216434130841] [0:1.5804599120961993] [0.055555555555555552:2.3493404101316511] [0.11615390417644599:2.9362867434120776] [0:0.82735026918962573] [0:1.0303300858899107] [0:1.3159403609149685] [0.016137430609197572:1.4166899380312521] [0.030941470217763382:2.0473615140447743] [0.7814744144215573:21.741532860347444] [0:1.2844570503761732] [0:5.0455157913213808] [0:1.2517346066809423] [0.27039180372516353:9.9229236753193621] [0:0.78840347200377747] [0:1.4229573713121968] [0:0.56586574006004442] [1.046706494359589:43.515471400938857] [1.9720292523385481:61.228729145193235] [2.1752314570619218:93.687799601156783] [0.3672163873803489:15.970016860039738] [0.55699702891478109:20.57378750905275] [0.58245049771797341:25.700758470980201] [11.096011838247808:217.22818705289589] [7.2195453528128404:140.29137434973049] [5.986364312983973:126.65604363158606] [3.9920682012044635:96.035603605495126] [3.3859013988601259:75.371711834812928] [2.1062297402849506:59.698303695008896] [1.4407987030669676:39.164536464933697] [0.69105646148198541:28.364390011819861] [0.6690939267503313:0.7774518278753042] [0.40177199206156206:0.48130302352085602] [0.25429342629787693:0.33257579516577629] [0.14999252352874134:0.21010885269497176] [0.094954630944055526:0.14721310429826634] [0.056610161185984373:0.091575206099345677] [0.036039197515018266:0.068609462050807979] [0.022259721924259783:0.046070430765465693] [9.7704412016674009:171.77491177065644] [6.1706815796357546:106.22202753171997] [4.4681534975406594:82.310780112203943] [2.9360116451130733:56.476499828045007] [1.8489906477697478:39.881422972193803] [1.2120161729641314:27.439273377338484] [0.50802310174360332:18.068648195073116] [0.28119440059352258:12.389549300770483] [0.49448978739923044:0.70553402174851398] [0.25526872901540582:0.41352451767887399] [0.12438481854974098:0.24823074986336996] [0.066339829783321452:0.15452692869016174] [0.033662884506952581:0.091471478017987384] [0.017284920980806678:0.059002973776097513] [0.0085157373104634282:0.043123419042112629] [0.0042882287638569064:0.032787468866370371] [20.333333333333329:377.99999999999994] [18.926484056281744:354.68020980767631] [18.781280887441486:346.00494463667826] [27.601602330662782:584.96249089584842] [26.803921568627452:564.13725490196089] [26.991999999999997:573.05200000000002] [20.490976047904198:369.67115748502994] [30.229720344928641:659.41089074003355] [0.55208333333333348:1.1182795698924726] [0.50681016360003328:1.1135314220029495] [0.58527827244908903:0.77856972613802722] [0.97697787691187166:1.1101501173423973] [0.93394607843137278:1.1045751633986924] [0.94506249999999992:1.1200975609756096] [0.61353349627276066:1.0042163712574852] [1.0895871857974739:1.1806550012170263] none none none none none none none none none none none none none none [123.6970135438367:21946.033236030584] [61.848506771918366:10973.016618015294] [96.110622775686323:17071.633003251212] [123.69701354383672:21946.033236030587] [8.2464675695891145:79.803757221929402] [61.848506771918366:10973.016618015294] [3.810259538656811:16.999300824935304] [0.057624748559102726:0.25401730257712074] [1.743162415309051:6.2175624786112307] [62.703401094029829:5488.5180857522373] [4.1802267396019888:18.605146053397416] [4.5438807981998117:11.994803831676286] none none none none none none [0:15] none [0:59] none [0:2] [1:28] [0:40] none [0:2] [0:44] [1:11] [0:4] [0:4] none [0:12] none [0:4] [0:35] [0:3] [0:1] none [0:1] [0:5] [0:4] none [0:2] none [0:8] [0:42] [0:4] [0:1] [0:9] none none none none none none none none none none none [0:7] [0:2] none [0:2] [0:4] none none none none none none none none none none none none none none none [0:1] none none none none none none none none none none none none none none none [0:21.974113107525692] none [-29.283524547720315:15.423378850435242] none [0:4.5329985194225113] [0.62176965230536663:42.617544719252038] [-77.989666736615362:5.0385868352580792] none [0:6.6720630496421283] [-58.034119268944487:2.3719335583314667] [-10.140719035108635:9.5685802865956084] [-0.36067913597946055:4.025635080136361] [-22.581367762133176:1.5505437859718478] none [0:72.760394330307349] none [0:32.859928102023567] [0:88.970329697501754] [0:9.1160331238409835] [0:10.248986301276373] none [0:4.7758734095490043] [0:21.905795714163862] [-0.25860690029826472:7.7059590383113044] none [0:4.2311333819548178] none [0:82.270643378571208] [0:629.29800079135134] [0:21.837865815809835] [0:5.7576812512771003] [0:123.35893436314566] none none none none none none none none none none none [-0.16122123030302271:4.0872701750885634] [0:3.441907239651266] none [-7.5488659483324572:0] [0:24.807690883091155] none none none none none none none none none none none none none none none [0:3.5483553004535149] none none none none none none none none none none none none none none none [0.61766126679794064:2.5038897175856052] none [-2.0698459831080687:1.491193974035681] none [0.58173288795673361:2.3208186681978167] [0.48043698034769466:2.3930253911229187] [-4.0389101594874299:0.99278447270684178] none [1.4666997483511959:3.3982804893827208] [-2.7581599310777092:1.359046607310531] [-0.59284457147056346:1.493363327173042] [-0.044205544936064101:1.2936676954732511] [-5.4659541908327709:0.6838444109178583] none [4.6128394425963526:6.7366469041320229] none [7.5723834669219219:8.3384780624126922] [1.3348920293170834:3.8398592179959423] [2.4902962805492566:3.1913750353011556] [8.6545578943508961:10.248986301276373] none [3.653780685791661:4.7758734095490043] [3.4461056448942573:5.0543880314690401] [-0.25860690029826472:2.7870610138819014] none [0.48448298217868935:2.3304225793980482] none [8.7255775846982999:12.161874784522215] [10.848225012601619:17.483987237243518] [3.7677390224914573:6.7221770675862942] [4.4581349839061151:5.7576812512771003] [12.006774467786617:16.05439175476333] none none none none none none none none none none none [-0.16122123030302271:1.9466360676397028] [0.40119506892171719:1.7469995169498009] none [-5.4125912452251947:-2.8736204211542957] [5.6221583529149601:6.850706722034051] none none none none none none none none none none none none none none none [3.0578133068981281:3.5483553004535149] none none none none none none none none none none none none none none none [-0.42602015785908298:2.4167586707224151] none [-2.0698459831080687:1.3116140590621839] none [0.58173288795673361:2.2473509093720132] [0.016863326151295155:2.1110351660561819] [-4.0389101594874299:0.90657136111150816] none [0.9792508760510974:3.2737825602594079] [-2.8018396116942013:1.2218196283449783] [-1.7002693531116149:1.3453366391294437] [-0.31647359104339645:1.2487830118252823] [-6.1721652271252498:0.63532252695766267] none [4.6128394425963526:6.7366469041320229] none [7.5723834669219219:8.1536446993636158] [1.3348920293170834:3.8398592179959423] [2.4902962805492566:3.1719293190544744] [8.6545578943508961:10.248986301276373] none [3.653780685791661:4.7758734095490043] [3.2417825481327602:5.0543880314690401] [-0.25860690029826472:2.7870610138819014] none [0.48448298217868935:2.3304225793980482] none [8.7255775846982999:11.788689058956916] [10.714987034024457:14.059237449609473] [3.6850930009746654:6.7221770675862942] [4.4581349839061151:5.7576812512771003] [12.006774467786617:15.64617706176217] none none none none none none none none none none none [-0.16122123030302271:1.9466360676397028] [0.40119506892171719:1.7469995169498009] none [-5.4125912452251947:-2.8736204211542957] [5.4833730107717686:6.8360751619087914] none none none none none none none none none none none none none none none [3.0578133068981281:3.5483553004535149] none none none none none none none none none [239:46556] [7.366666666666668:136.6666666666668] [0.43262786596119945:0.63763440860215048] [0:0.38904899135446686] [0.16162134427911751:0.43853149208487696] [0:0.2034883720930232] [16:292.5] [0.90740740740740744:1.6304347826086956] [9:189.5] [0.55263157894736847:0.70967741935483875] [7:103.5] [0.29629629629629628:0.97826086956521741] [0:4] [0:0.11764705882352941] [10.33005876577138:909.83851832362348] [0.50682722554401816:3.1374623581149645] [3.5209704894920422:85.94519014293779] [0.16141358881954729:0.34730213996461468] [20.283983056485141:1666.3867056419367] [1.3522655370990093:5.6706462274090939] [7.2195453528128395:140.29137434973075] [0.4487788541916175:0.49494897427831785] [7.9750176281687253:756.54818731831324] [0.53166784187791505:2.5859552503536727] [2.4748379780411041:54.346184206792955] [0.13059245050225154:0.32661588893096771] [0.065744334023559503:7.3104938328035303] [0.0021914778007853168:0.047646710907261504] [0.2806682095602554:8.2408392126423617] [0.016421826872919803:0.057097518123840278] [0:0.13763440860215051] [0:0.067372134038800532] [0.50000000000000022:0.90912698412698367] [0.72119047619047594:1.0949308755760365] [0.43333333333333324:0.453086419753086] [0.46842105263157868:0.78319327731092303] [0.72119047619047594:1.0483193277310923] [0.053164556962025766:0.47254161827332536] [0.011553784039879389:0.1522817460317466] [-0.34692954104718743:-0.021585609593604227] [0:0.13612878787878469] [-92.75:12] [-0.34459459459459457:0.33333333333333331] [0.41414141414141442:0.87721893491124281] [0:0.29985858585858555] none [15.050000000000001:7520.0799999999999] [0.12244897959183673:0.65909090909090906] [2:61] [0:65] [1.2110745973920987:2.3868981428122669] [2.7171793530331425:4.433626199277108] [3.6875460457782183:5.4882704162477545] [4.1190878183115123:6.7545042665125123] [4.1190878183115123:7.6409919313449963] [4.1190878183115123:8.0206703814663918] [50.183899392449305:993.12362217282134] [86.851029668792563:2174.3480482287819] [112.77232208397686:3151.5728611076293] [124.38196255841368:3865.6084311533991] [124.38196255841368:4370.8349447391092] [124.38196255841368:4596.4361882463963] [0.18752956586504152:0.47792183379339187] [0.40208795484597842:0.82580020677851651] [0.58742576440107319:0.94184372455379228] [0.72034839370370896:0.99291264719457784] [0.75003605268764173:1.0000000000000004] [0.75003605268764173:1.0000000000000004] [0.18420012972661395:0.44194038314357631] [0.39530114134996314:0.77996047308091687] [0.57691581791070279:0.88471333107215211] [0.70503172474776576:0.92443506549554666] [0.72259124242695139:0.93244010091743801] [0.72259124242695139:0.93244010091743801] [2.5864777247543236:7.4457520462811644] [0.89013713254383564:5.4554220337891834] [0.32653061224489832:3.7654202687432585] [0.039999999999999147:2.5573183666385546] [-2.6645352591003757e-15:1.6938637781470822] [-2.6645352591003757e-15:1.3836865535219998] [9.7199635640620112:40.897609371502419] [23.426878786847627:59.319346796551685] [30.786661047551043:63.361798635283236] [32.058669009525765:67.944351520140202] [32.058669009525765:67.989151520140183] [32.058669009525765:67.989151520140183] [50.178554512525054:973.55086798585216] [29.636282035239532:476.41188284937692] [23.804229296672176:295.75039722278058] [21.179229296672176:172.13220766512984] [20.679229296672176:94.104075717317983] [20.679229296672176:71.361818807203534] [13.066666666666666:270.54525777461828] [6.009615384615385:146.77706301346234] [2.6441207075962541:104.23442907019195] [0:1] [0:1] [-28.359438720309186:-2.9648991838001075] [180.15999999999971:3171.2800000000061] [93.68487459019137:1729.4871312322787] [0:310.6116967976381] [0:212.18912894259975] [0:41.856636027919507] [0:75.772734888077949] [0:26.342490286048921] [0:263.52119561970676] [0:310.39796835372027] [0:146.16221398660102] [0:84.114244471405939] [0:205.13025919516653] [0:28.7854783716421] [0:230.38000944470863] [0:22.008002793318781] [0:242.22278088974232] [0:21.637134423166088] [0:215.82333468571125] [0:98.577778525752407] [0:544.89950948619435] [0:126.39221355765815] [16.420171147585439:203.89136938286435] none [0:38.965822498076051] [0:254.89161086616767] [4.9839785209472085:644.83387250378382] [0:230.30641710042912] [0:57.144570700134445] [0:336.11579171479855] [6.0663670684616102:170.38018392953094] [0:20.090533254965305] [0:44.414110385414496] none [0:55.683045162512329] [0:23.389476842590017] [0:691.18777605284333] [0:210.18557002680083] [0:112.47650226549943] [0:73.382999068114003] [0:128.44725542536727] [0:156.99279961396417] [0:115.26097430077064] [0:266.17869438312835] [0:90.441144149112318] [0:213.14356757454252] [0:128.46288104855] [-0.85520657767331199:644.33471098146538] [-0.96699774219892998:189.18565529593465] [-7.5153370041885674:74.380506272926766] [-68.92724095531419:8.0063543761387539] [-49.099741925543945:34.561991936009747] [-18.42109677206691:15.15484295138006] [-3.435189454165462:15.137420622528255] [-7.5488659483324572:6.26279886119735] [0.052631578947368411:5.5614980034167045] [0:8.4158700504594854] [0:12.991685075042314] [0.043478260869565223:4.6914756298902676] [0:36.071338643335658] [0:41.33933673782726] [0.43235091243704149:15.349402751987741] [0:21.388281451024842] [0.74339502613024577:7.5480771962366626] [0.052631578947368411:3.0000000000000009] [0:1.7833449474726735] [0.055555555555555566:1.81835357174214] [0.055555555555555566:1.1081141320787207] [0.055555555555555566:4.72760517257261] [0:1.5528914471568454] [0.055555555555555566:2.0432393759937302] [0:4.2529328201324512] [0.090909090909090912:6.7953979128117972] [0.043478260869565223:1.9728230142174732] [29.414481450504539:587.01834881788636] [1.9250633650954641:2.1144971960295282] [5.8434407068962608:202.21070395354695] [0.22506227063298101:0.93857903797189168] [19.843657486053122:384.80764486433924] [1.0216380098551794:1.8589609361891957] [1.7012403900696365:108.40468739417592] [0.057905928545078311:0.55540367287616743] [0:87.725478191929781] [0:0.39212756779855584] [0:15.21922914606815] [0:0.39128283459235313] [18:415] [19:504] [23:616] [23:732] [21:783] [15:893] [14:1032] [12:1091] [10:1189] [185:7836] [2.9957322735539909:5.9202370378196143] [3.4812400893356918:6.3460748611644977] [3.8554526539397518:6.6584923164343008] [4.3959911750242542:7.011495733048565] [4.7100931059148703:7.3701912833499277] [4.773329428969542:7.4144505094056168] [4.1510399058986458:7.7211269568484502] [4.1351665567423561:8.2286086285090967] [3.9293716437627593:8.7130387703859196] [3.8038808468084429:9.1338859290600052] [6.4901543285294503:10.093523660278716] [34.219929999999991:617.35083299999712] [15.010069999999999:346.41116699999787] [1:13] [0:3] [0:2] [0:5] [1:7] [0:2] none none none none none [0:3] [0:8] none [0:2] [0:5] [0:4] [0:2] none none none none none [0:3] [1:8] none none [0:3] [1:6] none none none none none none none [0:3] none none [0:3] [0:3] none none none none none none none [0:7] [0:3] [0:2] [0:3] [0:6] [0:2] none none none none none [0:3] [0:5] none [0:2] [0:3] [0:2] [0:2] none none none none none [0:3] [0:3] none none none [0:1] none [0:3] [0:2] [0:1] none [0:1] [0:3] none none none none none [0:3] [0:2] [0:1] none [0:1] [0:2] none none none none none [0:2] [0:2] none none none [0:2] none none none none none [0:2] [0:1] none none none [0:3] none none none [0:1] none [0:3] [0:2] [0:1] none [0:1] [0:3] none none none none none [0:3] [0:2] [0:1] none [0:1] [1:134] [0.03125:0.47857142857142859] [-21.955760000000311:7.7371000000000052] [64.136100000000027:1095.910900000006] [12.890000000000001:1707.4799999999984] [17.399999999999999:1940.2799999999982] [3:67] [0.66666666666666696:34.666666666666686] [0.9375:20.791666666666664] [0.53333333333333333:21.053888888888892] [0.2013888888888889:13.250277777777779] [0.14204081632653059:10.557823129251698] [0.10590277777777778:11.01484552154195] [0.082136558327034509:7.8597568657092465] [0.045625000000000006:6.5153395061728414] [0:6.8508560350984595] [0.109375:0.43939393939393939] [0.037037037037037056:0.17438271604938271] [0.024456521739130432:0.10096153846153848] [0.020968660968660967:0.066143790849673215] [0.010869565217391306:0.046090277777777772] [0.0083313325330132051:0.033882783882783873] [0.0062996031746031739:0.025015782828282828] [0.0044487636324371015:0.021752566767447717] [0.0036718749999999998:0.020250000000000004] [0:0.019815616482283152] [0.29497907382950117:0.79937886724722751] [9:109] [5:55] [0.75862068965517238:1] [0.43137254901960786:0.5] [210.64000861431191:3970.3467186918083] [4.9068905956085187:9.2620948453701786] [15:307] [4.2046926193909657:7.2758646005465328] [4.9487598903781684:8.0965129175015935] [5.7525726388256331:8.9566087388939497] [6.517671272912275:9.7999586917072712] [7.3362856600212973:10.662492695887538] [8.1116280783077404:11.516469178593594] [8.938662873666118:12.381256287917662] [9.7199852989940112:13.241018921203645] [10.552343184962949:14.107644954096715] [96.082601517459153:698.03782698634848] [3.4339872044851463:6.4216222678065176] [0:2.9444389791664403] [4.6347289882296359:7.7297353313850508] [0:5.0814043649844631] [6.0137151560428022:9.1932959373669245] [0:7.1172055031643442] [7.4949862339505335:10.733152287697589] [0:9.1110723703175136] [9.0361060253648464:12.318306982256141] [45.61352360807296:359.8044215823133] [227.10923316399999:4256.9384735120238] [6.0825484081250156:13.320022192387103] [446:1454824] [16:464] [66:1444] [70:1641] [5.583333333333333:115.02777777777777] [3.583333333333333:66.611111111111143]
tree_sizes=2615 2625 2777 2560 2797 2804 2811 2623 2641 2361 2802 2642 2795 2725 2563 2804 2819 2713 2450 2197 2816 2796 2044 1938 2807 2040 1878 2539 2455 2470 2103 1956 2549 2638 2051 1872 2034 2051 2813 1854 2196 2808 2113 1604 1268 2807 1260 1943 1947 1519 1869 2109 1943 2119 2032 1766 1583 1687 1612 1860 2126 1256 1948 2620 1781 1498 1864 1516 2201 1597 1944 1697 1599 1866 2114 1607 2123 1515 1597 1089 2023 2031 1861 1513 2794 1526 1250 1603 1612 2031 829 1181 1776 1521 2843 1264 1435 1864 1528 923 1350 1343 1517 1347 1688 1691 2390 2289 1169 914 2108 1349 2395 1679 2381 2125 1516 1014 1604 1773 1523 1601 2825 2122 1945 1521 1424 1686 2047 1964 1688 2186 1780 1534 1864 1930 1008 2044 2195 1355 2307 2037 1944 1936 1860 2816 1956 2311 1091 2389 2294 1438 1078 916 1865 1358 1863 1349 2372 1860 1246 2547 1784 2285 1338 1359 1083 2458 1703 1435 2809 1688 1776 1780 2220 2120 2544 1270 1525 1516 1439 748 1089 1534 2029 1010 1947 1865 2301 1446 1084 1585 2182 1855 1179 2809 1263 1425 1605 1358 1010 1595 1093 2379 1619 2549 1976 1585 1604 1347 1091 1167 1429 1959 1926 1365 1354 2308 1695 1865 2571 2130 1428 2040 1540 1683 1871 1778 836 1439 1002 1350 1700 1584 1176 2255 1330 1775 1694 1786 2298 2210 1707 1697 2218 912 2119 1437 1688 1956 1517 1445 1879 2546 1792 2121 1615 1011 1620 2222 1430 2386 2022 1956 1247 2300 1703 2205 1089 1692 839 1353 1253 1264 919 1194 1856 1685 1254 2129 2233 1278 2199 2485 1430 830 1165 2127 1864 1093 1660 1873 1696 2308 2281 2051 2368 2045 1076 1252 1677 2039 2737 1241 1534 1775 2048 1851 1778 1351 1855 1408 2542 1529 1680 2819 2014 1419 1262 1774 1927 1165 1763 2276 1341 1433 2381 1782 1078 1173 1750 1950 1069 1431 1339 1411 1782 1747 1166 1513 1329 1259 2124 2041 2227 1595 2819 1695 1682 2272 1829 992 1424 2335 2576 2187 1960 2383 2176 1925 1682 2284 1411 1146 2824 2103 1904 1247 1232 1390 1071 1759 1066 974 2040 1588 2130 1758 2451 1847 1569 1926 1657 2230 1678 2559 2102 2534 1147 2579 1575 1935 1425 1845 983 2208 1764 967 1500 1577 1238 2799 2185 1411 1585 1564 1392 1064 2474 2719 2007 802 1584 1125 1294 2085 1488 1821 2423 1586 2342 2070 2072 2508 2449 2181 1136 1816 1150 2015 2552 1836 1717 1944 1838 1052 1408 1928 2064 2042 1664 2534 1679 1305 2206 1554 1481 1475 2344 2531 1816

Tree=0
num_leaves=29
num_cat=0
split_feature=79 1430 1564 580 325 1229 1296 1158 673 552 331 37 347 105 1343 209 1198 1358 1244 988 1313 861 545 608 362 60 1065 125
split_gain=1.24535e+09 3.52727e+08 2.7181e+08 1.9272e+08 1.49238e+08 1.44748e+08 1.41662e+08 1.2692e+08 1.29238e+08 1.17796e+08 1.14121e+08 1.02259e+08 9.33714e+07 8.41754e+07 7.64192e+07 7.28007e+07 6.35504e+07 6.07763e+07 5.95862e+07 5.37424e+07 7.1379e+07 5.1356e+07 3.81676e+07 3.74742e+07 3.65569e+07 2.77727e+07 2.6458e+07 1.16676e+07
threshold=7966.0271244631995 1.5000000000000002 0.36720521541950124 1.0732043572550227 -1.5295645977564176 0.48392407055856657 30.096490650571919 2.3408379546298668 2.9276960784313735 0.76089927025723358 1.1728245727161071 478.16666666666669 -0.00052703222594735228 729.3501500000001 36.050622979239996 6.9025841836734685 3.4312225741357349 1.3839716044848072 0.8130819895525776 1.0680238259034789 11.222555060399605 1.0508273174184681 -0.23115026777745903 0.77734521652813537 -0.046370867062279032 407.08487654320976 -0.20944733691022041 169.30339822980054
decision_type=2 2 2 2 2 2 2 8 2 10 2 2 10 2 2 2 8 2 2 2 2 2 2 2 2 2 10 2
left_child=1 2 3 13 12 16 -6 8 10 15 -4 -7 -3 17 -11 -8 -2 -1 24 22 -21 -20 -18 -22 -9 -14 -24 -13
right_child=5 4 7 -5 6 11 9 18 -10 14 -12 27 25 -15 -16 -17 19 -19 21 20 23 -23 26 -25 -26 -27 -28 -29
leaf_value=1255.0632308421671 1248.0413779186933 1402.5441085058403 1192.8415109431476 1398.375669187747 1348.7758619494732 1320.4756717170571 1364.8683949721508 1237.8672588368431 1334.0669742902198 1213.9096535161864 1278.2411995450063 1214.4467202184148 1248.2147134995193 1329.9195018903147 1275.3680130389753 1262.7211195737193 1212.0519148223473 1186.5255448924552 1157.9093536221578 1258.9414747048991 1233.7459631793572 1220.0346025806712 1151.2248702432923 1162.9936172955406 1170.4250201737614 1325.9899018111828 1183.0940785380456 1161.680128605339
leaf_weight=83 20 27 194 23 34 23 26 54 23 228 49 22 24 24 65 53 28 53 267 26 21 38 1160 172 32 22 69 20
leaf_count=83 20 27 194 23 34 23 26 54 23 228 49 22 24 24 65 53 28 53 267 26 21 38 1160 172 32 22 69 20
internal_value=1192.91 1228.68 1209.15 1263.04 1262.92 1162.68 1251.08 1194.14 1220.78 1242.15 1210.06 1235.73 1328.73 1243.59 1227.54 1296.34 1159.51 1228.35 1176.01 1158.31 1181.17 1165.65 1154.33 1170.69 1212.77 1285.41 1153.01 1189.32
internal_weight=0 1319 840 183 479 1561 406 657 266 372 243 65 73 160 293 79 1496 136 391 1476 219 305 1257 193 86 46 1229 42
internal_count=2880 1319 840 183 479 1561 406 657 266 372 243 65 73 160 293 79 1496 136 391 1476 219 305 1257 193 86 46 1229 42
shrinkage=1


Tree=1
num_leaves=29
num_cat=0
split_feature=1152 512 1224 289 502 106 546 288 279 238 1058 1061 628 518 1377 560 561 424 584 129 658 651 568 1565 1224 1000 372 1058
split_gain=1.20394e+09 2.30011e+08 1.82652e+08 1.30051e+08 1.2921e+08 1.17102e+08 1.13446e+08 9.96622e+07 9.52642e+07 9.45969e+07 8.43124e+07 1.08774e+08 8.18754e+07 1.0825e+08 7.36583e+07 5.75043e+07 5.42217e+07 4.39002e+07 4.32496e+07 4.19472e+07 3.65891e+07 3.52676e+07 2.97451e+07 2.34235e+07 1.98884e+07 1.50934e+07 6.85756e+06 6.2851e+06
threshold=2.4283245524204657 0.037159796097704458 5.2961703887175071 47.114067631291512 0.040413059760366528 456.69795000000005 1.6622434775729318 3152.05193331281 2322.8739844924644 -0.16835766546942341 0.99732358548551037 1.832430806618893 1.114628008697083 -0.022395671276177836 0.37155642233966901 0.79686898368726344 0.76898343387494117 -0.0019471804904351491 0.7742269938878984 13257.670375401945 3.9886723577077379 5.6736304507457911 0.77218240682616102 0.52103804484756877 6.2583575467159447 1.8423592907821578 -0.11324194806634894 1.0486655131284432
decision_type=8 2 2 2 2 2 10 2 2 10 10 2 2 2 8 2 2 2 2 2 2 2 2 2 2 2 2 10
left_child=2 3 19 7 9 -5 21 12 16 18 11 -11 14 -14 -2 -10 -4 20 -3 -1 -7 -6 -17 -24 -18 -20 -9 -19
right_child=1 4 8 5 6 17 -8 26 15 10 -12 -13 13 -15 -16 22 24 27 25 -21 -22 -23 23 -25 -26 -27 -28 -29
leaf_value=23.736503849029543 96.704965005034495 68.573669799804691 90.83140077590943 115.42539810180665 132.92205765133812 29.613216849220425 230.71476882934573 -45.546610961421848 38.773179199218752 47.575334947307908 4.4373372664818396 123.04132545872739 37.396303439140318 151.20401065929516 27.273068061937092 5.8795986878244504 21.405273448018466 -24.105930753854608 -25.886929910833189 126.14153560638429 -11.169745075043721 42.333934211730963 -33.863759122159429 -47.521362643792813 -36.074311913384335 22.163750358728265 -8.5411298479352684 -54.861720939304519
leaf_weight=20 42 25 20 20 21 76 20 31 25 96 39 95 48 37 422 38 34 26 44 20 199 22 838 502 27 26 21 46
leaf_count=20 42 25 20 20 21 76 20 31 25 96 39 95 48 37 422 38 34 26 44 20 199 22 838 502 27 26 21 46
internal_value=0 34.272 -30.494 21.2346 66.7984 -2.21815 132.333 35.5559 -33.3358 54.0947 71.4314 85.1108 41.8222 86.9361 33.5579 -36.3798 19.3877 -8.99876 12.1218 74.939 0.101183 86.5746 -37.7432 -38.9803 -4.03651 -8.03953 -30.6021 -43.7555
internal_weight=0 1356 1524 968 388 367 63 601 1484 325 230 191 549 85 464 1403 81 347 95 40 275 43 1378 1340 61 70 52 72
internal_count=2880 1356 1524 968 388 367 63 601 1484 325 230 191 549 85 464 1403 81 347 95 40 275 43 1378 1340 61 70 52 72
shrinkage=0.05


Tree=2
num_leaves=31
num_cat=0
split_feature=79 376 1237 184 287 1577 434 39 358 183 382 596 633 831 1087 434 1348 599 844 79 1454 453 275 1292 126 595 567 340 64 1366
split_gain=1.02385e+09 2.34989e+08 1.78691e+08 1.58159e+08 1.34953e+08 1.08697e+08 1.02251e+08 1.10849e+08 9.35314e+07 1.1727e+08 9.31363e+07 8.89704e+07 8.8297e+07 7.14323e+07 6.89761e+07 8.6975e+07 7.82961e+07 7.65086e+07 6.76021e+07 6.12203e+07 5.84136e+07 5.50976e+07 4.73965e+07 4.69262e+07 4.57679e+07 4.23767e+07 4.17128e+07 3.96461e+07 2.98786e+07 2.75533e+07
threshold=7493.9596190000002 0.034985337512593397 0.027369134459541911 184.83284006004945 -290.90760851872693 0.0057249308865470498 -0.0022118683741676197 782.05555555555566 0.33121956681422177 205.62488522699724 -0.77129650674558647 1.0640136697673919 1.1844538351637455 0.07700998684910261 14.469964564312045 0.043048382985943094 25.472439150893255 1.1658238386477824 0.16485365162453683 5195.789888194402 1.5000000000000002 -0.011313083017133968 66.786446727961035 50.41806341190027 9213.165825055401 0.85257203214000088 0.84921180398639085 -3.0460459861460625 1411.5000000000002 1.658320963219156
decision_type=2 2 2 2 2 2 2 2 2 2 2 2 2 2 8 2 2 2 2 2 2 10 2 2 2 2 2 2 2 8
left_child=1 4 6 8 28 -5 -2 24 10 18 -3 12 19 22 15 16 -4 21 -10 -6 23 -17 -13 -7 25 -8 -14 -12 -1 -22
right_child=2 3 14 5 11 20 7 -9 9 -11 27 13 26 -15 -16 17 -18 -19 -20 -21 29 -23 -24 -25 -26 -27 -28 -29 -30 -31
leaf_value=28.476346501060153 -20.575628498196604 239.43196142287479 -28.423353610884018 152.55364282608033 61.315854388475422 -0.028711403022378179 78.032444000244141 -4.8035124322642453 21.291278467339986 183.75593863010408 59.457834739685069 26.882967251432792 39.506533279418946 153.57443389025602 -37.930069601981081 -40.386885362512928 53.377336520533419 110.91904775446113 127.66212944030764 8.5535867302845698 42.205572928151781 54.326997593470985 112.13382955634077 73.041201337178549 39.711212106184526 180.96046905517579 139.27724061445755 154.77609196503957 -33.906442185928078 112.75600435447694
leaf_weight=23 80 21 519 20 64 118 20 46 59 20 20 56 20 22 937 34 31 22 20 390 31 28 23 27 22 20 22 24 116 25
leaf_count=23 80 21 519 20 64 118 20 46 59 20 20 56 20 22 937 34 31 22 20 390 31 28 23 27 22 20 22 24 116 25
internal_value=0 37.3441 -23.7992 68.996 20.7871 41.3895 22.2686 54.005 106.198 75.6015 152.798 31.1181 22.408 73.8927 -29.3121 -16.5754 -23.8128 30.8122 48.2206 15.9914 30.3283 2.38713 51.7028 13.5774 97.6372 129.496 91.7674 111.45 -23.5841 73.7013
internal_weight=0 1121 1759 385 736 221 188 108 164 99 65 597 496 101 1571 634 550 84 79 454 201 62 79 145 62 40 42 44 139 56
internal_count=2880 1121 1759 385 736 221 188 108 164 99 65 597 496 101 1571 634 550 84 79 454 201 62 79 145 62 40 42 44 139 56
shrinkage=0.05


Tree=3
num_leaves=28
num_cat=0
split_feature=79 1233 1329 1223 1079 1234 362 554 254 1248 1346 977 1119 326 71 439 1395 510 561 6 400 1084 482 603 1400 1553 569
split_gain=9.2616e+08 2.6495e+08 1.93585e+08 1.39709e+08 1.34962e+08 1.20643e+08 1.0272e+08 8.12519e+07 7.50915e+07 6.57531e+07 7.45323e+07 5.81634e+07 5.17956e+07 4.32994e+07 4.12123e+07 3.34903e+07 4.12583e+07 3.32916e+07 3.21658e+07 5.17753e+07 2.46087e+07 1.97446e+07 1.88249e+07 1.55915e+07 1.41275e+07 1.06642e+07 1.76828e+06
threshold=7966.0271244631995 0.24183598783378452 22.449520721515185 0.64459398636284282 2.2820490088613812 0.47865281659754993 -0.076564185624208719 0.4780921796665068 -3.420946362083924 0.018387078969518859 24.129076915871753 1.5574939882584244 3.4312225741357349 5.6028035186374803 1707.5000000000002 -0.020266487739763549 88.500000000000014 -0.075949146789919056 0.80259404844018667 2.4931416211469304 10.790423846486069 12.659909561675038 0.069391901232839531 0.73234506903605323 1197.5000000000002 0.15954545454545457 0.97103786499656275
decision_type=2 2 2 2 8 2 2 2 2 2 2 2 8 2 2 2 2 2 2 2 2 8 2 2 2 2 2
left_child=1 7 3 -3 6 11 -5 14 -6 10 -4 23 -7 18 17 16 -11 -1 19 -14 -20 -17 -9 -2 -16 -24 -27
right_child=5 2 9 4 8 12 -8 22 -10 15 -12 -13 13 -15 24 21 -18 -19 20 -21 -22 -23 25 -25 -26 26 -28
leaf_value=106.86918970108032 -32.476203464326403 163.69375510896955 -8.1873385238647458 110.35891511440278 46.926814749255868 50.689868240356446 54.246497364523556 5.0981323315547069 -3.4818911103234775 72.359197002908459 126.68089104379926 87.894432184773109 25.343631906509401 25.444035518870635 -33.508704041481018 -35.53159050097068 -5.7192499920725828 18.664267631199049 -36.182377118898138 -28.479688143048971 7.6038976037592612 19.078455085754396 -12.049119842969455 25.964251602172851 18.203235885075159 -36.857473869323734 -50.874447725084096
leaf_weight=20 21 28 20 104 159 20 378 26 138 23 21 31 60 34 25 96 64 23 1162 175 33 20 26 25 28 30 90
leaf_count=20 21 28 20 104 159 20 378 26 138 23 21 31 60 34 25 96 64 23 1162 175 33 20 26 25 28 30 90
internal_value=0 30.8458 42.1619 53.9613 50.0172 -26.0638 66.3537 -13.5318 23.5046 3.13655 60.8915 34.9589 -29.2301 -30.3219 23.3191 -8.52825 14.9222 59.6898 -31.6478 -14.7376 -34.9732 -26.1161 -34.0997 -0.715087 -6.18919 -41.0801 -47.3702
internal_weight=0 1319 1051 807 779 1561 482 268 297 244 41 77 1484 1464 96 203 87 43 1430 235 1195 116 172 46 53 146 120
internal_count=2880 1319 1051 807 779 1561 482 268 297 244 41 77 1484 1464 96 203 87 43 1430 235 1195 116 172 46 53 146 120
shrinkage=0.05


Tree=4
num_leaves=31
num_cat=0
split_feature=79 1430 262 580 325 1234 1305 334 304 235 448 1212 327 239 659 1367 196 1056 586 232 640 659 631 230 203 1305 635 81 493 151
split_gain=8.3586e+08 2.57648e+08 1.76218e+08 1.84613e+08 1.24139e+08 1.0888e+08 1.006e+08 1.00136e+08 9.00996e+07 1.11288e+08 7.91228e+07 8.96078e+07 7.62046e+07 6.49779e+07 6.25874e+07 6.5637e+07 5.62604e+07 5.24924e+07 4.97106e+07 4.36329e+07 4.34714e+07 6.53827e+07 5.05199e+07 4.20588e+07 4.1804e+07 3.1688e+07 3.10629e+07 2.97972e+07 2.14836e+07 3.45547e+07
threshold=7966.0271244631995 1.5000000000000002 -8.1903473610498594 1.0915582405533424 -1.5295645977564176 0.47865281659754993 -5.9718838286996601 -20.884535048356369 0.42460235528136064 -0.69511342347171867 -0.0062492760351781701 0.30936055639782817 -3.5384915822214471 -0.051640788750220053 2.2277986946402808 6.1184250107427127 7.6958486121351788 1.5578774855100537 0.53085799548069812 164.3869153917291 0.86329452892660763 2.2269474101800726 1.0110980933677454 156.04386780302804 6.2705880952380966 -6.5019797411404339 0.82473966310565539 12676.844236436171 -0.18198131712225005 2.9483314794215798
decision_type=2 2 2 2 2 2 2 2 2 10 2 2 2 10 2 2 2 10 2 2 2 2 2 2 2 2 2 2 2 2
left_child=1 2 7 10 13 17 19 12 16 -10 25 -12 -1 -3 15 -9 -8 -2 -7 24 21 22 -20 -16 -6 -4 -15 -21 29 -22
right_child=5 4 3 -5 6 18 8 14 9 -11 11 -13 -14 26 23 -17 -18 -19 20 27 28 -23 -24 -25 -26 -27 -28 -29 -30 -31
leaf_value=137.41249717354773 -0.67933266681173576 175.07216934204104 -42.593204212188724 152.56126641938181 -39.534817597601148 46.83157934709029 87.571492774269814 93.406837948885837 176.57879369581067 55.527829637282935 145.84834627454933 37.454291274997743 6.4696218719482417 124.76686767578127 28.168998932838441 -0.6020934697960606 23.777550836788713 83.49970991073117 0.8931320421623461 23.964861224946521 42.004645477294929 -37.737961510914133 84.353471221923826 -32.362579249821117 22.902270710865658 13.714324431670342 39.565517622491591 109.24050193786621 -33.438191006303605 -36.449546080827716
leaf_weight=20 46 30 32 33 36 22 55 22 37 39 22 143 25 20 32 119 93 31 66 21 25 82 25 278 105 114 23 20 1232 32
leaf_count=20 46 30 32 33 36 22 55 22 37 39 22 143 25 20 32 119 93 31 66 21 25 82 25 278 105 114 23 20 1232 32
internal_value=0 29.3035 12.6161 40.1151 58.5675 -24.7606 47.7741 -6.45584 70.2087 114.461 28.1835 51.9068 64.6665 118.596 -13.5523 14.066 47.4848 33.2109 -27.7686 20.1624 -28.8911 -5.35682 23.8218 -26.1142 6.96089 1.37295 79.1941 65.5627 -32.0497 -2.03981
internal_weight=0 1319 840 344 479 1561 406 496 224 76 311 165 45 73 451 141 148 77 1484 182 1462 173 91 310 141 146 43 41 1289 57
internal_count=2880 1319 840 344 479 1561 406 496 224 76 311 165 45 73 451 141 148 77 1484 182 1462 173 91 310 141 146 43 41 1289 57
shrinkage=0.05


Tree=5
num_leaves=31
num_cat=0
split_feature=1152 1367 508 836 1310 455 659 183 572 820 1359 659 1355 749 1556 1024 577 400 1297 1056 830 43 1065 341 1311 169 202 301 428 539
split_gain=8.23983e+08 2.28177e+08 1.76621e+08 1.60368e+08 1.13917e+08 9.07151e+07 1.21618e+08 1.10139e+08 1.06372e+08 9.81434e+07 8.03405e+07 7.96016e+07 5.41433e+07 4.16795e+07 5.3474e+07 5.3175e+07 3.96359e+07 3.87958e+07 3.85931e+07 3.09622e+07 2.95475e+07 3.80522e+07 2.75277e+07 2.58869e+07 2.36327e+07 2.1296e+07 2.03791e+07 1.66059e+07 1.55222e+07 1.48911e+07
threshold=2.4283245524204657 7.5867029243639852 -0.19149994605625234 8.4171974984235529 17.341470776288876 -0.01607230534270589 2.2199229174631347 196.05419068283882 1.0206500417866715 12.972718797426554 -2.4340488957528321 2.2275814915115508 1.1450342354488829 12.134900318542439 108.26000000000003 5.8781354448156806 0.56045304942590846 10.205465272545622 25.466124584460442 1.252392509959025 0.11207778304767786 591.7222222222224 -0.30903337125889713 -53.966735737272479 5.0235981229562796 19.365024288688414 6.354256952136077 -0.36339068000000346 0.016535993922242413 0.3271039686107779
decision_type=8 2 2 2 2 10 2 2 2 2 2 2 2 2 2 2 2 2 2 10 2 2 10 2 2 2 2 2 2 2
left_child=3 2 -2 11 16 8 7 -7 9 -4 -6 19 -8 14 23 -16 -3 22 -18 -1 -12 -22 29 28 -20 -25 -10 -13 -5 -15
right_child=1 4 5 13 10 6 12 -9 26 -11 20 27 -14 17 15 -17 18 -19 24 -21 21 -23 -24 25 -26 -27 -28 -29 -30 -31
leaf_value=126.72201915922619 188.44595560800462 44.428174487027263 130.83594453371489 -17.835856410435266 131.00874869305156 -21.725647635295473 21.745421774450104 86.268714165875295 28.462965138753255 57.845210409768015 1.5031313419342043 -27.474240503992355 -31.357887842362388 -39.063422801028295 68.784024444047148 -32.410297648111985 50.304158832715906 17.710084982479319 -29.657393995563638 46.407283088139131 101.38570689325748 7.0849010467529299 10.582477416992189 -4.8961742632729672 -4.6108845047950746 -36.76006860094207 -40.398450574007903 27.961865205114538 42.262202627008612 -0.70997455303485579
leaf_weight=21 21 33 65 21 23 29 304 127 21 158 52 35 57 951 34 21 23 34 178 28 23 20 30 70 200 209 22 22 22 26
leaf_count=21 21 33 65 21 23 29 304 127 21 158 52 35 57 951 34 21 23 34 178 28 23 20 30 70 200 209 22 22 22 26
internal_value=0 28.3528 45.3476 -25.2273 3.59939 41.5097 29.3023 66.1928 65.2362 79.1205 47.1605 34.0956 13.3607 -29.6618 -15.4173 30.1462 -8.2444 -34.8205 -12.579 80.8279 26.8603 57.5249 -36.5941 -23.1999 -16.4053 -28.7655 -6.76846 -6.07785 12.912 -38.0428
internal_weight=0 1356 804 1524 552 783 517 156 266 223 118 106 361 1418 377 55 434 1041 401 49 95 43 1007 322 378 279 43 57 43 977
internal_count=2880 1356 804 1524 552 783 517 156 266 223 118 106 361 1418 377 55 434 1041 401 49 95 43 1007 322 378 279 43 57 43 977
shrinkage=0.05


Tree=6
num_leaves=31
num_cat=0
split_feature=1152 1367 836 453 516 568 1454 332 659 1376 1343 373 1213 749 1556 32 833 797 327 559 227 603 659 482 1157 568 1065 482 584 665
split_gain=7.43645e+08 2.0593e+08 1.44732e+08 1.18561e+08 1.4952e+08 1.24571e+08 1.09435e+08 8.95652e+07 7.18405e+07 7.02278e+07 6.45159e+07 4.47458e+07 5.9816e+07 3.76157e+07 4.82603e+07 4.79905e+07 3.75181e+07 3.43218e+07 3.21782e+07 3.28302e+07 3.08195e+07 2.98302e+07 2.91264e+07 3.72688e+07 3.2416e+07 2.84793e+07 2.77917e+07 2.87623e+07 2.34109e+07 2.83254e+07
threshold=2.4283245524204657 7.5867029243639852 8.4171974984235529 -0.071073318986829295 -0.17537962630482351 1.0814746073061359 1.5000000000000002 -0.13851484798122676 2.2275814915115508 0.47193462320663399 16.655397817388174 -0.20161462624021084 0.036887406723947323 12.134900318542439 108.26000000000003 1.0000000180025095e-35 0.030867206202231347 0.57719382200413427 -3.6652955388014608 1.0013997200911777 157.59154218254301 0.60487051870996045 2.2372956938441466 0.15618265800190365 4.174606409196854 0.92003932707013358 -0.45156139250159816 0.10553289217594393 1.3376518758761156 10.319764938214396
decision_type=8 2 2 10 2 2 2 2 2 8 2 2 2 2 2 2 2 2 2 2 2 2 2 2 8 2 10 2 2 2
left_child=2 3 8 9 -5 7 22 -6 21 11 -8 12 -2 14 20 -16 25 -7 -11 -20 -4 -1 23 24 -3 -12 28 -28 -15 -30
right_child=1 6 13 4 5 17 10 -9 -10 18 16 -13 -14 26 15 -17 -18 -19 19 -21 -22 -23 -24 -25 -26 -27 27 -29 29 -31
leaf_value=36.969859498739247 119.19906283484566 -28.188192730481479 -26.020680116817655 187.9981214250837 79.804331405745216 29.540054808722601 111.29722477948224 33.366751760660215 -5.7739564437615245 52.32185794067383 4.2002606030168206 7.9262280358208557 17.293603722254435 -36.919518949843741 65.344822087007415 -30.789781261625748 -20.555213570594788 -44.601565667423046 -20.226926841569504 34.373934696742467 38.069644508361819 115.01045617675783 -28.189467405236286 62.373817079717462 8.5764956437858046 66.482480941772465 -34.612583414713548 48.141080002557665 -29.12516195678711 36.956885379552844
leaf_weight=24 36 97 302 21 262 27 27 172 57 25 29 36 24 925 34 21 32 37 129 35 20 25 138 22 157 50 21 21 50 24
leaf_count=24 36 97 302 21 262 27 27 172 57 25 29 36 24 925 34 21 32 37 129 35 20 25 138 22 157 50 21 21 50 24
internal_value=0 26.9351 -23.9659 43.0802 57.3085 51.7975 3.41942 61.4005 32.3908 17.1699 41.9796 51.9954 78.4369 -28.1787 -14.6465 28.6389 25.1186 -13.3231 -0.519256 -8.5743 -22.0399 76.7865 -9.43398 -0.0562352 -5.46356 43.6194 -33.0795 6.76425 -34.7546 -7.69315
internal_weight=0 1356 1524 804 519 498 552 434 106 285 138 96 60 1418 377 55 111 64 189 164 322 49 414 276 254 79 1041 42 999 74
internal_count=2880 1356 1524 804 519 498 552 434 106 285 138 96 60 1418 377 55 111 64 189 164 322 49 414 276 254 79 1041 42 999 74
shrinkage=0.05


Tree=7
num_leaves=29
num_cat=0
split_feature=79 1430 646 412 1331 659 9 1212 1234 458 1284 1366 1296 838 467 808 73 1135 590 640 445 495 739 568 79 294 538 485
split_gain=6.20973e+08 1.96509e+08 1.6785e+08 1.01248e+08 9.95664e+07 8.60245e+07 8.54956e+07 8.50122e+07 8.49814e+07 8.15412e+07 7.35872e+07 8.1772e+07 6.53703e+07 6.17655e+07 5.31196e+07 4.52312e+07 4.15284e+07 3.869e+07 3.8674e+07 3.28634e+07 5.62893e+07 4.30538e+07 3.24983e+07 2.64357e+07 2.59451e+07 2.02238e+07 1.80704e+07 1.70372e+07
threshold=7966.0271244631995 1.5000000000000002 3.1434526386717661 0.014026899062681578 43.652859079265433 2.2275815082155446 1.2750493917251886 0.33567991873154313 0.47865281659754993 0.25965896755147894 0.99059203708997734 1.6514194469100383 33.931320102780525 4.4686686192979348 -0.042128001657533665 1.0688507862180459 5209.0571928352019 1.6017568573235883 0.57481479210852215 0.86329452892660763 -0.030461538119973233 -0.032934773739669264 5.385619027379918 0.77763010664866861 5957.4652850056018 -1430.2110855676233 -0.13973265910152813 -0.17417250665797732
decision_type=2 2 2 2 2 2 2 2 2 2 2 8 2 2 2 2 2 8 2 2 2 2 2 2 2 2 2 2
left_child=1 2 -1 10 5 14 -5 9 12 -6 11 15 -2 -13 -4 -3 -7 -12 -10 20 23 -22 -19 -20 -9 -21 -14 -27
right_child=8 3 4 6 7 16 -8 24 18 -11 17 13 26 -15 -16 -17 -18 22 19 25 21 -23 -24 -25 -26 27 -28 -29
leaf_value=113.3638816751932 107.64826898097994 12.627760432946562 51.617931997364963 58.867906066894534 43.260852733411291 15.382641559452205 195.71677424112957 61.025120411748475 45.059464707374573 164.21787055622448 73.011372351646429 95.603909863286958 36.813324241016225 12.710202139395255 2.386679602313686 89.137786293029791 -25.529258803850432 51.152224179676608 27.946270866394045 17.775309316317241 80.422846467154372 -6.5002507176892514 -9.9969707656152469 -35.18683555666933 1.3828624622388321 -3.2095546646723672 -20.570319938659669 -29.883262673359759
leaf_weight=38 20 99 87 25 38 77 21 23 20 22 24 134 23 27 148 24 319 28 20 24 28 29 97 97 88 63 34 1203
leaf_count=38 20 99 87 25 38 77 21 23 20 22 24 134 23 27 148 24 319 28 20 24 28 29 97 97 88 63 34 1203
internal_value=0 25.2574 10.6838 50.8145 5.8187 -3.35243 121.342 39.6607 -21.3418 87.6118 43.3219 58.252 29.8738 81.7025 20.6127 27.5565 -17.5742 14.8646 -23.9992 -24.9426 -4.5452 36.1988 3.70045 -24.3949 13.7412 -27.6939 2.58448 -28.5559
internal_weight=0 1319 840 479 802 631 46 171 1561 60 433 284 77 161 235 123 396 149 1484 1464 174 57 125 117 111 1290 57 1266
internal_count=2880 1319 840 479 802 631 46 171 1561 60 433 284 77 161 235 123 396 149 1484 1464 174 57 125 117 111 1290 57 1266
shrinkage=0.05


Tree=8
num_leaves=29
num_cat=0
split_feature=836 1329 1570 580 1377 576 1135 332 1578 419 1363 1141 367 502 659 547 1386 521 558 566 1119 1163 839 771 175 305 1309 566
split_gain=5.5363e+08 1.43641e+08 1.15288e+08 1.15719e+08 1.19684e+08 1.04557e+08 8.42355e+07 7.89347e+07 7.0724e+07 6.15322e+07 5.94023e+07 4.99688e+07 4.73313e+07 4.06609e+07 3.76954e+07 3.68138e+07 3.84297e+07 3.54736e+07 4.77117e+07 3.41549e+07 3.36804e+07 2.0524e+07 1.99458e+07 2.10495e+07 1.92868e+07 8.91296e+06 7.06331e+06 3.78414e+06
threshold=8.5638173708606988 22.449520721515185 0.048276729155966452 1.0915582405533424 0.57302265520987239 0.68378121669138592 1.6044020908193279 -3.6248777348374444 0.44414552354237991 -0.00569432524954712 0.3339150686680849 -1.4311207127046497 0.073439630292096394 0.07090437855926239 2.2275815082155446 0.6991317019683565 0.22489344384973312 0.036629507664327633 1.0939406379068968 1.220613309209573 3.4967755801766889 12.818042384456259 2.6042331186143977 975.49870103977912 71.546932423339868 -0.058694659208581065 4.7583160242619558 1.0341770264497938
decision_type=2 2 2 2 10 2 10 2 2 2 10 10 2 2 2 8 2 2 2 2 8 10 2 2 2 2 2 2
left_child=1 2 3 4 7 9 -6 -1 11 17 12 -7 14 22 -4 16 -10 -2 -19 20 -17 27 23 -3 25 -13 -25 -11
right_child=5 13 10 -5 6 8 -8 -9 15 21 -12 24 -14 -15 -16 19 -18 18 -20 -21 -22 -23 -24 26 -26 -27 -28 -29
leaf_value=115.93414253234864 107.5886113848005 20.487635720742716 22.759855063188645 154.46857983384814 92.710446536902225 72.749906499783194 19.730455655318039 11.258001426570324 -25.220532817840578 -12.802885977427165 89.012005459820784 -2.8257598127637591 86.326591897010815 48.747687087339514 -12.650221355938736 37.096992311023534 72.79696744918823 69.674611568450928 -19.21279141352727 35.637935497449796 -26.682960912717348 26.469509682288539 36.991812224615188 1.4422384389241536 40.233795604705819 -42.720627702985496 -25.035717746710322 -39.439819641113282
leaf_weight=20 21 37 168 28 165 30 52 181 20 24 27 42 20 34 136 21 20 36 26 23 1444 26 21 30 20 21 157 30
leaf_count=20 21 37 168 28 165 30 52 181 20 24 27 42 20 34 136 21 20 36 26 23 1444 26 21 30 20 21 157 30
internal_value=0 28.3854 39.1942 56.0644 49.4727 -16.9306 75.2222 21.6735 -20.7243 21.2629 17.7581 17.4456 11.8202 -2.49121 6.91851 -23.5471 23.7882 51.4231 32.3992 -24.8195 -25.7687 -10.0282 -9.60192 -13.9701 -2.54385 -16.124 -20.7879 -27.6012
internal_weight=0 1076 797 446 418 1804 217 201 1641 163 351 113 324 279 304 1528 40 83 62 1488 1465 80 245 224 83 63 187 54
internal_count=2880 1076 797 446 418 1804 217 201 1641 163 351 113 324 279 304 1528 40 83 62 1488 1465 80 245 224 83 63 187 54
shrinkage=0.05


Tree=9
num_leaves=26
num_cat=0
split_feature=1152 1367 508 279 1314 1310 1598 1565 439 1605 1359 132 367 560 1222 403 797 1157 1217 1316 1316 465 1272 558 251
split_gain=5.61228e+08 1.55123e+08 1.3936e+08 9.96072e+07 8.9919e+07 8.58467e+07 7.87014e+07 8.043e+07 7.62734e+07 6.92871e+07 6.52601e+07 5.53471e+07 4.0163e+07 3.56276e+07 3.08787e+07 2.9448e+07 2.91911e+07 2.90821e+07 3.22621e+07 3.04639e+07 2.34111e+07 2.05957e+07 1.81856e+07 1.40429e+07 1.39876e+07
threshold=2.4283245524204657 7.5867029243639852 -0.19149994605625234 2322.8739844924644 50.855829168615955 17.341470776288876 5.6629544519360282 0.36938224363819605 0.014301764557943878 63.727789369559041 -2.4340488957528321 17355.694196747634 -0.04081690850833268 0.79686898368726344 20.412162552650592 -0.27040981079939036 0.42672723337287405 3.7971377031043958 0.62082869855394895 16.151199629599279 16.728794838591728 0.27248258843248502 0.90460469769270524 1.0324346579321515 77.220316542737109
decision_type=8 2 2 2 2 2 2 2 2 2 2 2 2 2 2 2 2 8 2 2 2 2 2 2 2
left_child=3 2 -2 11 6 17 9 -8 16 -4 -7 15 -12 -5 -15 -1 -6 19 -19 -3 -20 22 -16 -14 -13
right_child=1 5 4 13 8 10 7 -9 -10 -11 12 24 23 14 21 -17 -18 18 20 -21 -22 -23 -24 -25 -26
leaf_value=114.3763014793396 164.52268331618538 52.400183913582254 104.86453239987878 34.992275054931639 8.1896144463034233 116.37517994175788 139.25453343391419 41.291475582122807 86.814139656398609 31.0675639508583 85.465031032562251 -30.499444314411711 -8.6682240302746116 22.56648850296483 -28.240466270536366 32.227108558019005 -36.518779748678206 40.974621924070213 -28.378831491619351 -17.061589191578054 -2.0647075094134606 9.4337626432761166 14.810999877929689 38.252396326479705 20.430467532231258
leaf_weight=20 21 38 34 25 85 23 40 44 23 493 20 28 52 33 1304 24 64 26 192 27 151 39 25 23 26
leaf_count=20 21 38 34 25 85 23 40 44 23 493 20 28 52 33 1304 24 64 26 192 27 151 39 25 23 26
internal_value=0 23.3995 37.4121 -20.82 34.003 2.98979 42.993 87.9406 2.06768 35.8287 40.805 27.9407 22.509 -24.171 -25.2268 69.5677 -11.014 -7.29176 -12.724 23.5468 -16.7945 -26.3797 -27.4306 5.72077 -5.97763
internal_weight=0 1356 804 1524 783 552 611 84 172 527 118 98 95 1426 1401 44 149 434 369 65 343 1368 1329 75 54
internal_count=2880 1356 804 1524 783 552 611 84 172 527 118 98 95 1426 1401 44 149 434 369 65 343 1368 1329 75 54
shrinkage=0.05


Tree=10
num_leaves=31
num_cat=0
split_feature=79 268 598 1578 1562 435 1262 1079 497 530 1331 326 672 804 606 1573 1223 1380 326 492 759 606 803 999 836 275 465 70 457 484
split_gain=4.6509e+08 1.23739e+08 1.0909e+08 8.6358e+07 8.50004e+07 7.98928e+07 8.39603e+07 7.12954e+07 7.06452e+07 6.48278e+07 5.80531e+07 5.67605e+07 5.51235e+07 5.0965e+07 4.60509e+07 4.60061e+07 4.57113e+07 7.41234e+07 3.64609e+07 3.39896e+07 3.39685e+07 3.16469e+07 2.59433e+07 2.52316e+07 2.77914e+07 2.1801e+07 1.94273e+07 1.25574e+07 1.09849e+07 8.26215e+06
threshold=7493.9596190000002 3.5122715164574818 0.93673951663196453 0.45154250986190575 0.55430555555555572 -0.021601307283486339 5.3609390741659402 2.4724948419217525 -0.071479017047822183 -0.12069216093596564 50.226518126851182 -0.2664403165945286 154.48585900691819 2.4831393434304325 0.99204380168055772 0.019459439689854436 0.7284327545741428 2.0412476104259976 5.6028035186374803 -0.098994412795316927 193.58492052338929 0.87688600394067528 0.090242875097677935 12.336828995793587 9.7875059486602112 -21.007200000000001 0.27248258843248502 2322.5000000000005 0.020469458317800334 -0.087665521763886631
decision_type=2 2 2 2 2 2 2 8 2 2 2 2 2 2 2 2 2 2 2 2 2 2 2 2 2 2 2 2 10 2
left_child=1 4 7 11 -1 6 14 -3 22 13 19 28 -13 -10 -4 -11 17 -5 23 -7 27 -12 -6 26 -25 -19 -18 -14 -2 -24
right_child=3 2 5 16 8 10 -8 -9 9 15 21 12 20 -15 -16 -17 18 25 -20 -21 -22 -23 29 24 -26 -27 -28 -29 -30 -31
leaf_value=112.53370194208055 6.5910719137925371 160.09746232466264 26.765283089353332 89.102590898672744 32.154807376861577 61.064595824021559 163.19718062962806 43.895368957519537 34.928908433914181 4.6765757975011768 31.300588952927367 100.21257583355083 19.383943664550785 132.68337084412573 110.58242782924486 40.521001155687422 -25.600828638984794 34.814192848205572 26.864842894270613 -0.77077449248507135 71.097635450817293 119.1831495192647 0.27528364181518555 51.887558425768567 -23.564721797062802 -25.104478048899818 12.668431068869198 -31.808549972202471 -29.134107204278308 -34.788753958202548
leaf_weight=21 39 33 57 24 20 26 21 22 40 404 21 29 25 20 23 115 1347 20 37 153 21 20 20 23 26 63 34 23 48 105
leaf_count=21 39 33 57 24 20 26 21 22 40 404 21 29 25 20 23 115 1347 20 37 153 21 20 20 23 26 63 34 23 48 105
internal_value=0 25.1694 48.5527 -16.0403 13.3679 37.4046 74.2194 113.617 10.4915 18.3076 20.5033 16.2748 42.3696 67.5137 50.8627 12.619 -19.8384 11.7118 -22.1396 8.2109 18.0587 74.1701 -20.7187 -23.4076 11.8517 -10.6662 -24.6586 -5.14579 -13.1194 -29.1785
internal_weight=0 1121 376 1759 745 321 101 55 724 579 220 185 98 60 80 519 1574 107 1467 179 69 41 145 1430 49 83 1381 48 87 125
internal_count=2880 1121 376 1759 745 321 101 55 724 579 220 185 98 60 80 519 1574 107 1467 179 69 41 145 1430 49 83 1381 48 87 125
shrinkage=0.05


Tree=11
num_leaves=29
num_cat=0
split_feature=1152 346 618 1310 407 836 659 404 552 628 659 347 553 1593 256 749 1556 1313 501 257 1056 227 1163 231 342 1278 653 1553
split_gain=4.64309e+08 1.17297e+08 1.00432e+08 1.01219e+08 1.03029e+08 9.2843e+07 7.31336e+07 6.76596e+07 9.63022e+07 7.10749e+07 5.04227e+07 4.32046e+07 3.90709e+07 3.10678e+07 3.63008e+07 2.69533e+07 4.03392e+07 5.18542e+07 3.80175e+07 3.0015e+07 2.69485e+07 2.67868e+07 1.83154e+07 1.5759e+07 1.51561e+07 1.3254e+07 1.0436e+07 9.6415e+06
threshold=2.4283245524204657 -0.0022800435893074894 0.84743154114156038 9.8079665596186683 0.00021777445983378672 8.4171974984235529 2.2199223249255029 -4.8730143069572414 0.73264697536794998 1.0519765199775371 2.2275814915115508 0.00066399965953660835 1.1135900637820069 11.004513590216655 -0.84849714579444246 12.134900318542439 108.26000000000003 11.589212385141986 0.21346637854381278 -14.468137201953459 1.252392509959025 157.54591135137221 11.437373122697464 163.63570881873258 0.020016183517262396 0.84809586936019843 11.68150229967052 0.13921188630490958
decision_type=8 10 2 2 2 2 2 2 10 2 2 8 10 2 2 2 2 2 2 2 10 2 8 2 10 2 2 2
left_child=5 6 3 4 -3 10 11 8 -5 -9 20 -2 -6 14 -8 16 19 -18 25 -7 -1 -21 -15 -12 -13 26 -17 -24
right_child=1 2 -4 7 12 15 13 9 -10 -11 23 24 -14 22 -16 18 17 -19 -20 21 -22 -23 27 -25 -26 -27 -28 -29
leaf_value=106.21025971912202 94.622345692770821 80.102030062675482 134.49631151945695 157.30758879734921 -18.954849303330427 41.703841285705572 -17.908853419621789 15.374955459868554 49.924629844809481 52.963248833057492 -27.396479011984436 -17.062099800109863 47.516890396118164 19.932069636836196 66.604608832465289 -8.2123436101845328 90.4922532036191 -9.4373808692483347 28.080355096632434 -25.510057299187846 31.281845297132222 34.371702117919924 0.90111898978551241 26.191564916527792 43.077753587202594 3.531077003479004 -30.442728188666241 -23.744728651421561
leaf_weight=21 28 36 23 26 191 20 24 303 106 215 34 20 25 33 27 56 21 34 31 282 28 20 48 23 22 32 922 229
leaf_count=21 28 36 23 26 191 20 24 303 106 215 34 20 25 33 27 56 21 34 31 282 28 20 48 23 22 32 922 229
internal_value=0 21.2834 31.3215 28.6906 1.79055 -18.9372 -0.26015 39.1196 71.0758 30.9763 26.2003 46.5128 -11.2614 -9.32969 26.8336 -22.3113 -10.8564 28.7176 -26.4598 -17.6159 63.394 -21.5444 -15.2791 -5.77323 14.4397 -28.1338 -29.1698 -19.474
internal_weight=0 1356 925 902 252 1524 431 650 132 518 106 70 216 361 51 1418 377 55 1041 322 49 302 310 57 42 1010 978 277
internal_count=2880 1356 925 902 252 1524 431 650 132 518 106 70 216 361 51 1418 377 55 1041 322 49 302 310 57 42 1010 978 277
shrinkage=0.05


Tree=12
num_leaves=31
num_cat=0
split_feature=79 480 1401 797 399 1376 1237 1370 137 628 326 822 495 86 630 374 474 303 264 210 434 1223 547 586 341 661 1385 254 1571 625
split_gain=3.80402e+08 1.17705e+08 9.21398e+07 9.19783e+07 9.09355e+07 8.48984e+07 8.02644e+07 6.64771e+07 6.79246e+07 6.5718e+07 5.66811e+07 7.65013e+07 5.40398e+07 8.10517e+07 4.97592e+07 4.09758e+07 5.31751e+07 4.02162e+07 4.02091e+07 3.81163e+07 4.59104e+07 3.77286e+07 3.33981e+07 3.25694e+07 3.20238e+07 4.05883e+07 3.01795e+07 2.99584e+07 2.71161e+07 2.26103e+07
threshold=7493.9596190000002 0.052061311770448725 3.8763824044256645 0.30362523232775834 -2.3472297882601194 0.45974775041750271 0.027369134459541911 0.50000000000000011 7.6657088122605375 1.099716788949993 -0.21579225586267456 9.8871225879738489 -0.043876479939644594 23003.244383881956 0.86574440406549702 -0.024898935406983534 -0.077082948229391185 -0.22596043611110819 -9.0494709890958536 6.6787114193548378 -0.019579904894795799 0.71122399766114974 0.99152328887293395 0.53085799548069812 -44.502827975745454 2.1718319315431303 12.409385837219775 -5.8873371191391444 0.042546085858585873 0.8805882064508832
decision_type=2 2 2 2 2 8 2 8 2 2 2 2 2 2 2 2 2 2 2 2 2 2 10 2 2 2 2 2 2 2
left_child=1 5 3 4 -3 7 10 8 -1 19 -2 -12 13 -11 27 16 -5 -16 -14 26 -21 22 -8 -23 25 -25 -7 -9 29 -13
right_child=6 2 -4 15 -6 9 21 14 -10 12 11 28 18 -15 17 -17 -18 -19 -20 20 -22 23 -24 24 -26 -27 -28 -29 -30 -31
leaf_value=29.350131693193987 -15.53054138481617 171.22276156743368 133.25348998308183 -15.582907043457034 30.4888868635351 -11.71651531232061 75.423917245864871 116.33925876617432 131.6841083112885 130.00040457407633 114.73041528555063 69.430754947662351 60.231562538146981 14.714925292999514 68.749827710787457 -6.0472600371090337 70.798070220024357 -2.3551203020687761 -28.190315715471908 94.626781959533702 7.5060111445765347 40.943885941938923 -15.951756668090821 26.955135248853015 -22.938309263505925 -22.006865946790008 41.907454408918113 29.796806478500368 -28.396202143033346 6.6573117256164558
leaf_weight=31 80 24 32 25 22 417 20 20 34 30 26 26 20 31 24 67 62 116 36 20 62 22 20 77 1338 94 28 20 24 32
leaf_count=31 80 24 32 25 22 417 20 20 34 30 26 26 20 31 24 67 62 116 36 20 62 22 20 77 1338 94 28 20 24 32
internal_value=0 22.7628 54.4783 41.8742 103.915 14.4861 -14.5066 39.5373 82.8787 4.95572 16.3685 39.9974 38.8543 71.4127 23.8862 23.3425 45.976 9.8343 3.38893 -2.57015 28.755 -18.2014 29.7361 -19.4538 -20.3344 0.040351 -8.34242 73.068 16.3015 34.7971
internal_weight=0 1121 232 200 46 889 1759 245 65 644 188 108 117 61 180 154 87 140 56 527 82 1571 40 1531 1509 171 445 40 82 58
internal_count=2880 1121 232 200 46 889 1759 245 65 644 188 108 117 61 180 154 87 140 56 527 82 1571 40 1531 1509 171 445 40 82 58
shrinkage=0.05


Tree=13
num_leaves=30
num_cat=0
split_feature=1152 453 1103 1158 1135 1239 324 508 659 1137 332 379 1081 381 463 643 1388 223 1405 1403 651 632 258 584 236 115 1144 552 391
split_gain=3.86284e+08 1.23215e+08 1.22461e+08 1.0029e+08 1.02738e+08 9.41608e+07 9.17561e+07 6.39389e+07 5.87102e+07 6.79191e+07 5.61613e+07 5.30643e+07 4.8419e+07 4.62636e+07 4.61963e+07 3.36326e+07 3.08224e+07 2.97706e+07 2.71571e+07 6.2145e+07 2.33327e+07 3.55345e+07 4.45966e+07 2.91908e+07 2.78786e+07 2.72259e+07 1.66294e+07 1.1561e+07 5.64902e+06
threshold=2.4283245524204657 -0.071073318986829295 6.0133979235070987 2.1706068646594443 1.6052517891570786 0.023809523809523753 13.296842711343761 -0.0012804475097464134 2.2199223249255029 0.51650609092641475 2.7955123802712509 0.29087043957837461 2.024257741383463 -0.93134129899119311 -0.087937902987324026 -0.51902056140454356 0.32020973146694559 1.3580158775023843 5.9303368380549442 4.8766274840940982 5.6725999579541364 0.89119467276769815 -5.9538139869027189 1.3376518758761156 0.35271177184899966 624.84440000000006 -0.36129645632137891 0.83699490737401494 -5.6271357852292709
decision_type=8 10 8 8 10 2 2 2 2 10 2 2 8 2 2 10 2 2 2 2 2 2 2 2 10 2 10 8 2
left_child=6 8 5 4 7 -3 14 -4 9 11 12 -2 -5 -6 -1 -10 20 -16 28 -20 21 22 -8 26 -23 -25 -22 -11 -17
right_child=1 2 3 10 13 -7 16 -9 15 27 -12 -13 -14 -15 17 18 -18 -19 19 -21 23 24 -24 25 -26 -27 -28 -29 -30
leaf_value=97.771296683224762 33.934343359205457 162.16425508068454 72.817186331963754 -35.068035300118588 75.95371459960937 23.010667762756349 71.157985469273157 5.5422442084267027 43.112467591902792 16.966356728293679 85.950970849536716 131.16028840438182 12.35312921944606 -7.28140143828817 -18.570080077648164 -47.727564340167582 32.877950078469738 59.1933160018921 65.537582472831971 -8.5062781768134155 -27.835180894525855 -24.040676256830661 -9.2126090749104819 -31.704696178436279 33.930018433280615 27.357284091472629 8.238801713423296 -33.213634443283084 -22.674234952578942
leaf_weight=22 36 31 222 70 20 20 28 42 34 22 21 23 233 101 32 36 27 20 31 330 1001 211 45 32 23 50 33 24 60
leaf_count=22 36 31 222 70 20 20 28 42 34 22 21 23 233 101 32 36 27 20 31 330 1001 211 45 32 23 50 33 24 60
internal_value=0 19.4129 32.76 27.3771 44.6282 107.594 -17.2729 62.1144 2.393 36.3281 6.87805 71.836 1.39774 6.47647 37.035 -4.86401 -20.0445 11.3389 -8.43338 -2.14794 -21.0486 -8.84149 21.6145 -24.4067 -18.3427 4.30871 -26.6839 -9.21451 -32.0692
internal_weight=0 1356 760 709 385 51 1524 264 596 105 324 59 303 121 74 491 1450 52 457 361 1423 307 73 1116 234 82 1034 46 96
internal_count=2880 1356 760 709 385 51 1524 264 596 105 324 59 303 121 74 491 1450 52 457 361 1423 307 73 1116 234 82 1034 46 96
shrinkage=0.05


Tree=14
num_leaves=28
num_cat=0
split_feature=1152 453 1605 1158 1135 446 836 661 1353 1356 612 355 661 1223 373 428 635 643 1387 583 245 1065 1554 449 453 418 270
